<?xml version="1.0"?>
<opencv_storage>
<opencv_ml_svm>
  <format>3</format>
  <svmType>C_SVC</svmType>
  <kernel>
    <type>LINEAR</type></kernel>
  <C>1.</C>
  <term_criteria><epsilon>1.1920928955078125e-07</epsilon>
    <iterations>1000</iterations></term_criteria>
  <var_count>400</var_count>
  <class_count>11</class_count>
  <class_labels type_id="opencv-matrix">
    <rows>11</rows>
    <cols>1</cols>
    <dt>i</dt>
    <data>
      0 1 2 3 4 5 6 7 8 9 10</data></class_labels>
  <sv_total>55</sv_total>
  <support_vectors>
    <_>
      -3.85133745e-07 1.31502816e-06 3.53416407e-09 5.12886118e-07 0.
      4.42439813e-07 2.57059332e-06 0. 8.74355464e-07 1.72360251e-06 0.
      0. 0. 0. 0. 0. 0. 0. 0. 0. 1.76708204e-09 -1.30875105e-06
      -1.20869205e-04 -1.11144240e-04 1.22667931e-04 2.18433444e-04
      1.13226597e-04 1.11588452e-04 0. 4.37177732e-07 0. 0. 0. 0. 0. 0.
      0. 0. 0. 0. 4.57668712e-08 -1.23104721e-04 -1.09891196e-04
      3.70060377e-07 1.21704783e-04 2.20936112e-04 2.20934337e-04
      2.20491900e-04 1.10316832e-04 4.37177732e-07 2.58540376e-06 0. 0.
      0. 0. 0. 0. 0. 0. 0. -1.21759345e-04 -1.10307061e-04
      -1.15391954e-08 -1.03936341e-04 1.07046626e-05 1.76708204e-09
      1.11457244e-04 2.20927308e-04 1.09879657e-04 0. 0. 0. 0. 0. 0. 0.
      0. 0. 0. 0. -1.22644851e-04 1.36860699e-05 9.78302487e-05
      -1.13192385e-04 -9.88481843e-05 -3.00629154e-07 1.11480324e-04
      2.21313821e-04 2.20929083e-04 1.10316832e-04 1.29270188e-06 0. 0.
      0. 0. 0. 0. 0. 0. 0. -4.44206904e-07 1.11476787e-04 9.78830431e-05
      -1.10630812e-04 -9.60950638e-05 4.23871455e-07 1.10630812e-04
      2.20503440e-04 2.21359980e-04 1.09879657e-04 0. 0. 0. 0. 0. 0. 0.
      0. 0. 0. -2.36643576e-08 1.09080509e-04 9.82073398e-05
      -1.12784175e-04 -9.75814401e-05 -1.92213452e-06 2.94426195e-06
      2.21325361e-04 2.20929083e-04 1.09879657e-04 0. 0. 0. 0. 0. 0. 0.
      0. 0. 0. 0. 2.19526992e-04 9.82451020e-05 -1.11480324e-04
      -9.82073398e-05 4.37177732e-07 4.30900627e-07 2.21358219e-04
      2.20054717e-04 1.10760287e-04 0. 0. 0. 0. 0. 0. 0. 0. 0. 0.
      -1.15540126e-06 1.10995614e-04 9.91749912e-05 -1.10561967e-04
      -9.79217803e-05 1.76708204e-09 4.50605910e-07 1.11478555e-04
      2.20929083e-04 1.09448752e-04 1.29270188e-06 0. 0. 0. 0. 0. 0. 0.
      0. 0. 4.35410669e-07 1.08337379e-04 9.73473070e-05 -1.10612244e-04
      -9.77782038e-05 3.03885440e-06 1.10609501e-04 2.21358219e-04
      2.21359980e-04 1.09879657e-04 0. 0. 0. 0. 0. 0. 0. 0. 0. 0.
      3.53416407e-09 1.11522553e-04 9.70501715e-05 -1.30799901e-06
      1.15860867e-05 5.10681168e-08 1.11476787e-04 2.21359980e-04
      1.09017856e-04 0. 4.30900627e-07 0. 0. 0. 0. 0. 0. 0. 0. 0.
      -1.93177834e-06 8.65335380e-07 -1.34121947e-05 9.65889171e-07
      1.23532474e-04 2.20582646e-04 2.20924572e-04 2.18768299e-04
      1.09879657e-04 2.18588866e-06 4.30900627e-07 0. 0. 0. 0. 0. 0. 0.
      0. 0. 1.29270188e-06 -1.24300976e-04 -1.20016950e-04
      -1.09879657e-04 -2.71050543e-20 1.20551944e-04 1.08591463e-04
      1.09883193e-04 4.37177732e-07 8.61801254e-07 0. 0. 0. 0. 0. 0. 0.
      0. 0. 0. 4.90988839e-07 -9.65889171e-07 -7.66733308e-07
      1.68057852e-06 4.35410669e-07 1.39067694e-07 2.16803323e-06
      4.35410669e-07 4.30900627e-07 4.37177732e-07 4.30900627e-07 0. 0.
      0. 0. 0. 0. 0. 0. 0. 0. 0. 0. 0. 0. 0. 0. 0. 0. 0. 0. 0. 0. 0. 0.
      0. 0. 0. 0. 0. 0. 0. 0. 0. 0. 0. 0. 0. 0. 0. 0. 0. 0. 0. 0. 0. 0.
      0. 0. 0. 0. 0. 0. 0. 0. 0. 0. 0. 0. 0. 0. 0. 0. 0. 0. 0. 0. 0. 0.
      0. 0. 0. 0. 0. 0. 0. 0. 0. 0. 0. 0. 0. 0. 0. 0. 0. 0. 0. 0. 0. 0.
      0. 0. 0. 0. 0. 0. 0. 0. 0. 0. 0. 0. 0. 0. 0. 0. 0. 0. 0. 0. 0. 0.
      0. 0. 0. 0. 0. 0. 0. 0. 0. 0. 0. 0. 0. 0. 0. 0. 0.</_>
    <_>
      4.74642860e-07 -5.01255727e-07 -3.66620981e-07 -2.15084427e-07
      -4.61968419e-08 -1.17425895e-06 1.61218259e-06 -4.90191894e-07
      1.54971224e-06 1.18526737e-06 0. 0. 0. 0. 0. 0. 0. 0. 0. 0.
      -5.37289736e-07 -1.94640492e-07 -8.89721487e-05 -7.50338440e-05
      -4.57312666e-07 1.08470758e-07 3.29821113e-08 7.61667179e-05
      -7.20101013e-07 7.74856119e-07 0. 0. 0. 0. 0. 0. 0. 0. 0. 0.
      -9.27117071e-07 -2.70948862e-04 -7.45998550e-05 -1.10172323e-06
      1.04469564e-06 -4.52650823e-07 -7.62187767e-07 2.58051330e-07
      7.56335066e-05 -1.44780273e-07 1.77790093e-06 0. 0. 0. 0. 0. 0. 0.
      0. 0. -4.90191894e-07 -7.48673046e-05 2.29909105e-07
      1.13932852e-04 7.35755239e-05 6.22418554e-07 -7.58079332e-05
      1.94599480e-07 -4.94381457e-05 0. 0. 0. 0. 0. 0. 0. 0. 0. 0. 0.
      5.43458668e-07 -7.70120023e-05 1.58008595e-06 7.56030277e-05
      -1.06982398e-07 7.48967636e-07 -7.47303420e-05 5.80981066e-07
      1.63501369e-07 7.54160137e-05 8.88950467e-07 0. 0. 0. 0. 0. 0. 0.
      0. 0. -6.64718982e-07 -7.41565018e-05 -8.11339021e-07
      7.46420556e-05 1.96012343e-06 -1.43779391e-06 -7.67814272e-05
      -4.44092535e-07 1.83746917e-04 7.55607907e-05 0. 0. 0. 0. 0. 0. 0.
      0. 0. 0. 2.96316841e-07 1.95576431e-04 1.45900529e-04
      7.37303853e-05 -1.98109819e-06 0. -7.42730263e-05 4.59818210e-07
      2.72362609e-04 7.48710663e-05 0. 0. 0. 0. 0. 0. 0. 0. 0. 0.
      -5.41050611e-07 2.70481250e-04 2.73149111e-04 7.55607907e-05
      -2.29909105e-07 -2.70541525e-04 -1.14020135e-04 2.72536854e-04
      2.71073164e-04 7.68868995e-05 0. 0. 0. 0. 0. 0. 0. 0. 0. 0.
      5.93759353e-08 1.95823523e-04 2.72307836e-04 7.61612173e-05
      -2.73149111e-04 -2.72444566e-04 -7.48710663e-05 1.96653855e-04
      2.72852776e-04 7.52644773e-05 8.88950467e-07 0. 0. 0. 0. 0. 0. 0.
      0. 0. -6.89727301e-07 1.93381988e-04 2.71866738e-04
      -1.38961492e-04 -2.72322679e-04 -2.69132026e-04 1.94915847e-04
      2.71532976e-04 2.72077945e-04 7.55607907e-05 0. 0. 0. 0. 0. 0. 0.
      0. 0. 0. 1.84992552e-06 1.95785804e-04 5.76775346e-05
      -1.07506935e-06 -1.94240260e-04 1.72024545e-06 1.95567860e-04
      2.73149111e-04 7.49681567e-05 0. 2.96316841e-07 0. 0. 0. 0. 0. 0.
      0. 0. 0. -2.52379164e-06 1.31201034e-06 -7.46411533e-05
      1.07117296e-06 -9.49285720e-07 -1.66866232e-06 1.08210122e-06
      -1.95622692e-06 -1.97588306e-04 3.87428054e-06 2.96316841e-07 0.
      0. 0. 0. 0. 0. 0. 0. 0. 1.48937704e-06 -2.70883902e-04
      -2.72556470e-04 -7.53308850e-05 0. -6.48113144e-07 -1.20458295e-04
      -1.95797766e-04 -2.72374251e-04 5.92633683e-07 0. 0. 0. 0. 0. 0.
      0. 0. 0. 0. -2.58599130e-07 -8.41263841e-07 1.54971224e-06
      8.88950467e-07 0. -1.67397801e-07 1.10375947e-06 0. 2.96316841e-07
      7.74856119e-07 2.96316841e-07 0. 0. 0. 0. 0. 0. 0. 0. 0. 0. 0. 0.
      0. 0. 0. 0. 0. 0. 0. 0. 0. 0. 0. 0. 0. 0. 0. 0. 0. 0. 0. 0. 0. 0.
      0. 0. 0. 0. 0. 0. 0. 0. 0. 0. 0. 0. 0. 0. 0. 0. 0. 0. 0. 0. 0. 0.
      0. 0. 0. 0. 0. 0. 0. 0. 0. 0. 0. 0. 0. 0. 0. 0. 0. 0. 0. 0. 0. 0.
      0. 0. 0. 0. 0. 0. 0. 0. 0. 0. 0. 0. 0. 0. 0. 0. 0. 0. 0. 0. 0. 0.
      0. 0. 0. 0. 0. 0. 0. 0. 0. 0. 0. 0. 0. 0. 0. 0. 0. 0. 0. 0. 0. 0.
      0. 0. 0. 0. 0. 0. 0.</_>
    <_>
      3.22829578e-07 -4.55050923e-07 3.22829578e-07 -4.55456103e-07
      2.56118369e-07 1.95175573e-07 1.49818447e-06 -7.78285710e-07
      1.16622027e-06 -7.75869069e-07 0. 0. 0. 0. 0. 0. 0. 0. 0. 0.
      1.28059185e-07 -1.95863555e-04 -1.97749265e-04 -5.02202529e-05
      -3.84177554e-07 -1.94436666e-06 7.63243236e-07 -1.47841361e-04
      -1.98462847e-04 -9.73461283e-07 0. 0. 0. 0. 0. 0. 0. 0. 0. 0.
      8.40834730e-07 -1.98202571e-04 -4.95120439e-05 7.82853022e-07
      8.43390637e-07 3.89945967e-07 -6.40295923e-07 1.22917447e-06
      4.95745953e-05 5.83110136e-07 1.17105344e-06 0. 0. 0. 0. 0. 0. 0.
      0. 0. 0. 1.47782572e-04 1.98462847e-04 8.16549000e-05
      4.97697692e-05 -1.98007794e-04 -4.96371431e-05 1.96843728e-04
      4.89914855e-05 0. 0. 0. 0. 0. 0. 0. 0. 0. 0. 0. -7.15736633e-07
      1.47275714e-04 1.98072492e-04 4.99605194e-05 -1.97554487e-04
      -1.97879330e-04 1.48180843e-04 1.97684567e-04 1.97489382e-04
      5.03528790e-05 5.85526720e-07 0. 0. 0. 0. 0. 0. 0. 0. 0.
      6.44458055e-07 1.45579936e-04 1.96383160e-04 4.98978297e-05
      -1.97099042e-04 -1.97361733e-04 1.47592364e-04 1.98135458e-04
      1.98462847e-04 4.74349144e-05 0. 0. 0. 0. 0. 0. 0. 0. 0. 0.
      -2.91796709e-06 1.48560852e-04 1.97171525e-04 -1.49217667e-04
      -1.97552741e-04 -1.98462847e-04 -4.98978297e-05 1.98462847e-04
      1.98267677e-04 4.97697692e-05 0. 0. 0. 0. 0. 0. 0. 0. 0. 0.
      2.60280530e-07 1.96843728e-04 1.96127992e-04 4.97697692e-05
      -1.98462847e-04 -1.95868124e-04 -8.42595255e-05 -1.28059185e-07
      1.97101457e-04 4.97673536e-05 0. 0. 0. 0. 0. 0. 0. 0. 0. 0.
      7.80841617e-07 1.43179976e-04 1.98462847e-04 5.02903313e-05 0.
      3.22829578e-07 -4.97697692e-05 -5.00925998e-05 -1.95175573e-07
      4.95745953e-05 5.85526720e-07 0. 0. 0. 0. 0. 0. 0. 0. 0.
      -7.78285710e-07 1.48693085e-04 1.97294212e-04 4.97697692e-05
      -3.22829578e-07 3.92907054e-07 -5.00300521e-05 9.73461283e-07
      1.94404450e-07 4.95753666e-05 0. 0. 0. 0. 0. 0. 0. 0. 0. 0.
      1.42650072e-06 -5.02202529e-05 -6.45659156e-07 1.97619462e-04
      5.17118606e-05 1.16366436e-06 -5.04154305e-05 7.78285710e-07
      -1.93714456e-07 0. 1.95175573e-07 0. 0. 0. 0. 0. 0. 0. 0. 0.
      -7.78285710e-07 -1.97426838e-04 -4.74349144e-05 -3.38813179e-20
      -6.45659156e-07 -1.29131831e-06 2.57724622e-07 -5.20421736e-07
      4.97697692e-05 -3.92664504e-07 1.95175573e-07 0. 0. 0. 0. 0. 0. 0.
      0. 0. 3.27802098e-07 9.68488735e-07 -1.98072492e-04
      -4.97697692e-05 2.33485707e-06 -1.10608778e-06 -8.31022480e-05
      4.88588594e-05 -5.83984445e-07 3.90351147e-07 0. 0. 0. 0. 0. 0. 0.
      0. 0. 0. 9.68488735e-07 -7.78285710e-07 3.87934534e-07
      5.85526720e-07 -2.33485707e-06 9.08356299e-07 1.43147327e-06
      -7.78285710e-07 1.95175573e-07 -7.71124276e-10 1.95175573e-07 0.
      0. 0. 0. 0. 0. 0. 0. 0. 0. 0. 0. 0. 0. 0. 0. 0. 0. 0. 0. 0. 0. 0.
      0. 0. 0. 0. 0. 0. 0. 0. 0. 0. 0. 0. 0. 0. 0. 0. 0. 0. 0. 0. 0. 0.
      0. 0. 0. 0. 0. 0. 0. 0. 0. 0. 0. 0. 0. 0. 0. 0. 0. 0. 0. 0. 0. 0.
      0. 0. 0. 0. 0. 0. 0. 0. 0. 0. 0. 0. 0. 0. 0. 0. 0. 0. 0. 0. 0. 0.
      0. 0. 0. 0. 0. 0. 0. 0. 0. 0. 0. 0. 0. 0. 0. 0. 0. 0. 0. 0. 0. 0.
      0. 0. 0. 0. 0. 0. 0. 0. 0. 0. 0. 0. 0. 0. 0. 0. 0. 0.</_>
    <_>
      3.55151116e-07 3.89701285e-07 2.96162028e-07 3.55151116e-07
      -8.03841488e-07 4.48690372e-07 -1.04101446e-06 -5.89890803e-08
      7.10302231e-07 1.41227474e-06 0. 0. 0. 0. 0. 0. 0. 0. 0. 0.
      -1.50422156e-05 0. -8.88486113e-07 9.03609107e-05 2.19217953e-04
      -3.54486156e-06 -2.87991202e-20 -9.02083848e-05 -2.19403359e-04
      3.01597993e-07 0. 0. 0. 0. 0. 0. 0. 0. 0. 0. 1.10000349e-06
      -8.03841488e-07 8.97007048e-05 2.19134527e-04 2.18651287e-04
      1.72566115e-06 1.60768298e-06 -3.30712226e-07 -7.28561645e-05
      -6.14923465e-07 3.04607670e-06 0. 0. 0. 0. 0. 0. 0. 0. 0.
      -8.03841488e-07 9.05635316e-05 2.20021800e-04 1.29458262e-04
      -9.05045454e-05 -2.19666646e-04 -1.30050583e-04 2.80122572e-06
      -6.06748581e-05 -2.51684440e-07 0. 0. 0. 0. 0. 0. 0. 0. 0. 0.
      4.14140203e-07 9.01582898e-05 2.18534522e-04 1.25371167e-04
      -2.17221794e-04 -2.17102599e-04 -1.29340289e-04 -2.87991202e-20
      1.25626475e-05 1.27489242e-04 1.52303835e-06 0. 0. 0. 0. 0. 0. 0.
      0. 0. -1.17978161e-07 8.89558505e-05 2.18414119e-04
      -8.89558505e-05 -2.17635927e-04 3.55151116e-07 -1.28916028e-04
      1.10000349e-06 5.83923747e-06 1.28552434e-04 0. 0. 0. 0. 0. 0. 0.
      0. 0. 0. 5.07679431e-07 9.05045454e-05 2.18542205e-04
      -9.25942513e-05 -2.18507659e-04 0. -1.29340289e-04 -2.87991202e-20
      4.16154535e-06 1.29223845e-04 0. 0. 0. 0. 0. 0. 0. 0. 0. 0. 0.
      2.17940978e-04 8.03841488e-07 -9.05045454e-05 -5.89890803e-08
      7.10302231e-07 -1.28408356e-04 8.62830575e-07 6.09836206e-05
      1.29897511e-04 0. 0. 0. 0. 0. 0. 0. 0. 0. 0. -8.62830575e-07
      9.02083848e-05 2.58849172e-06 -9.05635316e-05 -2.19158959e-04
      -2.19666646e-04 -1.29458262e-04 -1.29813416e-04 3.55151116e-07
      -9.10122253e-05 1.52303835e-06 0. 0. 0. 0. 0. 0. 0. 0. 0. 0.
      -1.29458262e-04 -1.01535886e-06 -8.88378709e-05 -2.19514113e-04
      -2.18143599e-04 -1.29458262e-04 -3.55151116e-07 -2.87991202e-20
      -8.89558505e-05 0. 0. 0. 0. 0. 0. 0. 0. 0. 0. -1.52528344e-07
      9.03609107e-05 2.19311492e-04 2.19666646e-04 1.29863503e-04
      -1.87818944e-06 -1.30168570e-04 1.72566115e-06 -7.57328380e-05
      -4.01920761e-06 5.07679431e-07 0. 0. 0. 0. 0. 0. 0. 0. 0.
      -1.72566115e-06 1.72566115e-06 9.05635316e-05 2.18296133e-04
      2.18448666e-04 2.17738358e-04 -2.87991202e-20 -2.89354830e-06
      -9.05635316e-05 1.71676652e-06 5.07679431e-07 0. 0. 0. 0. 0. 0. 0.
      0. 0. 6.60207775e-07 2.02622772e-07 1.52528344e-07 9.05635316e-05
      2.20021800e-04 2.18498753e-04 -9.25942513e-05 -8.89904040e-05
      -2.18862799e-04 1.01535886e-06 0. 0. 0. 0. 0. 0. 0. 0. 0. 0.
      1.06545338e-06 0. -1.01535886e-06 6.60207775e-07 -1.72566115e-06
      1.01535886e-06 1.01535886e-06 -8.62830575e-07 5.07679431e-07
      3.55151116e-07 5.07679431e-07 0. 0. 0. 0. 0. 0. 0. 0. 0. 0. 0. 0.
      0. 0. 0. 0. 0. 0. 0. 0. 0. 0. 0. 0. 0. 0. 0. 0. 0. 0. 0. 0. 0. 0.
      0. 0. 0. 0. 0. 0. 0. 0. 0. 0. 0. 0. 0. 0. 0. 0. 0. 0. 0. 0. 0. 0.
      0. 0. 0. 0. 0. 0. 0. 0. 0. 0. 0. 0. 0. 0. 0. 0. 0. 0. 0. 0. 0. 0.
      0. 0. 0. 0. 0. 0. 0. 0. 0. 0. 0. 0. 0. 0. 0. 0. 0. 0. 0. 0. 0. 0.
      0. 0. 0. 0. 0. 0. 0. 0. 0. 0. 0. 0. 0. 0. 0. 0. 0. 0. 0. 0. 0. 0.
      0. 0. 0. 0. 0. 0. 0.</_>
    <_>
      -2.51640017e-07 -2.77896106e-07 6.71303212e-07 -1.15363252e-06
      -3.75028897e-08 -3.15733134e-10 5.62510479e-07 0. 1.85380406e-06
      2.46160039e-06 0. 0. 0. 0. 0. 0. 0. 0. 0. 0. -2.06317040e-04
      -1.65422887e-06 -1.85747762e-04 -1.53790490e-04 -8.33618117e-08
      -2.04214484e-06 4.35492211e-06 -2.35688713e-04 -2.06809214e-04
      1.15885499e-07 -1.62203298e-06 0. 0. 0. 0. 0. 0. 0. 0. 0.
      1.65077915e-06 1.40029002e-07 5.02705989e-05 -1.59820524e-06
      1.72400675e-07 -5.11197527e-07 9.82562256e-07 2.60323486e-06
      -4.89552840e-05 9.26902032e-07 3.69240047e-06 0. 0. 0. 0. 0. 0. 0.
      0. 0. -2.17073352e-06 2.15334192e-04 7.90485356e-05 2.14538750e-06
      -4.85827950e-05 6.71303212e-07 2.33506042e-04 3.89957539e-04
      1.56927024e-04 -2.43304953e-06 -8.11016491e-07 0. 0. 0. 0. 0. 0.
      0. 0. 0. 1.88734816e-06 4.73397740e-05 -4.18978381e-08
      -5.04018972e-05 1.87898036e-06 -3.70793117e-07 2.32080652e-04
      3.93287046e-04 3.92671645e-04 1.57853923e-04 -5.86849239e-07 0. 0.
      0. 0. 0. 0. 0. 0. 0. -2.03407990e-06 4.97767069e-05
      -6.84382087e-07 -2.35600630e-04 -3.89173947e-04 -2.22785573e-04
      2.92141704e-05 3.88695014e-04 3.92476009e-04 1.55304995e-04 0. 0.
      0. 0. 0. 0. 0. 0. 0. 0. -4.47599007e-07 4.84863886e-05
      7.70828308e-07 -2.37559972e-04 -3.91944428e-04 -3.93287046e-04
      -1.56925729e-04 1.16441629e-06 1.85862431e-04 1.56927024e-04
      -8.11016491e-07 0. 0. 0. 0. 0. 0. 0. 0. 0. -9.75832904e-07
      3.89504101e-04 3.91215202e-04 1.56837195e-04 -1.41316818e-07
      -1.83339696e-04 -1.58254872e-04 5.16286569e-08 1.84008619e-04
      1.59092335e-04 -4.05508263e-06 0. 0. 0. 0. 0. 0. 0. 0. 0.
      4.59568895e-07 2.33745988e-04 3.92626418e-04 1.55816189e-04
      -1.00757813e-06 -9.57178599e-07 5.05428143e-05 -1.57598333e-04
      1.95616423e-07 -4.96865687e-05 -5.86849239e-07 0. 0. 0. 0. 0. 0.
      0. 0. 0. -7.06584089e-08 2.34627310e-04 3.90978006e-04
      1.55605769e-04 4.93113021e-07 -5.92007325e-07 4.80904491e-05
      4.89496870e-07 2.43945489e-19 -4.98821864e-05 0. 0. 0. 0. 0. 0. 0.
      0. 0. 0. 9.42464666e-08 -1.55639078e-04 -3.35028318e-07
      1.85295328e-04 1.58082577e-04 1.96868268e-06 4.80357921e-05
      3.06011816e-06 -4.94909546e-05 0. -1.95616423e-07 0. 0. 0. 0. 0.
      0. 0. 0. 0. -6.85113264e-07 -1.84912002e-04 -1.56054419e-04
      2.48567062e-06 7.83215626e-07 -2.68521285e-06 2.20196966e-06
      -3.06319043e-06 -4.98821864e-05 9.78082085e-07 -1.95616423e-07 0.
      0. 0. 0. 0. 0. 0. 0. 0. 2.28673935e-06 1.09222742e-06
      -1.86254605e-04 -1.55919450e-04 2.11975234e-07 -2.05017045e-06
      -3.56196097e-06 7.97853208e-05 1.95616423e-07 -3.91232845e-07 0.
      0. 0. 0. 0. 0. 0. 0. 0. 0. 3.91876682e-07 -4.06769641e-06
      1.47591822e-06 1.84620023e-06 -8.72602413e-07 2.51750362e-06
      -3.89313442e-07 -1.07823655e-06 -1.95616423e-07 1.95616423e-07
      -1.95616423e-07 0. 0. 0. 0. 0. 0. 0. 0. 0. 0. 0. 0. 0. 0. 0. 0. 0.
      0. 0. 0. 0. 0. 0. 0. 0. 0. 0. 0. 0. 0. 0. 0. 0. 0. 0. 0. 0. 0. 0.
      0. 0. 0. 0. 0. 0. 0. 0. 0. 0. 0. 0. 0. 0. 0. 0. 0. 0. 0. 0. 0. 0.
      0. 0. 0. 0. 0. 0. 0. 0. 0. 0. 0. 0. 0. 0. 0. 0. 0. 0. 0. 0. 0. 0.
      0. 0. 0. 0. 0. 0. 0. 0. 0. 0. 0. 0. 0. 0. 0. 0. 0. 0. 0. 0. 0. 0.
      0. 0. 0. 0. 0. 0. 0. 0. 0. 0. 0. 0. 0. 0. 0. 0. 0. 0. 0. 0. 0. 0.
      0. 0.</_>
    <_>
      -1.35091011e-06 1.86972011e-06 0. -3.92840093e-06 1.06282823e-06
      -1.10072187e-06 2.34591062e-06 0. 1.03113825e-06 5.14588749e-07 0.
      0. 0. 0. 0. 0. 0. 0. 0. 0. 8.69141672e-07 -2.93340054e-06
      -5.11702694e-07 2.57915643e-04 -1.70038982e-06 5.47892171e-07
      1.00803061e-06 -2.57433858e-04 0. -1.63474184e-07 0. 0. 0. 0. 0.
      0. 0. 0. 0. 0. -7.81176425e-07 -1.27750434e-06 2.56371044e-04
      5.69733743e-07 8.86897794e-07 -8.31248087e-07 3.94654140e-04
      4.00563731e-04 1.45118625e-04 -5.69733743e-07 3.41840223e-06 0. 0.
      0. 0. 0. 0. 0. 0. 0. -2.72110583e-06 2.56226573e-04
      -1.43614912e-07 -3.87373206e-07 -2.58252927e-04 -2.02636511e-06
      2.57965701e-04 4.02289850e-04 1.44287726e-04 0. 0. 0. 0. 0. 0. 0.
      0. 0. 0. 0. 1.00057844e-06 2.56497733e-04 4.43022884e-07
      -2.57780834e-04 1.03374612e-06 1.40098177e-06 2.52962287e-04
      4.02960577e-04 4.02377191e-04 1.40734861e-04 1.70920111e-06 0. 0.
      0. 0. 0. 0. 0. 0. 0. 3.47656669e-06 -1.45282102e-04
      -1.85618285e-06 -2.54662678e-04 -4.00386954e-04 -3.97880533e-04
      -1.45282102e-04 1.71671316e-04 4.03535028e-04 1.45282102e-04 0. 0.
      0. 0. 0. 0. 0. 0. 0. 0. 1.81508483e-07 -1.43843223e-04
      4.06575815e-20 -2.58362736e-04 -3.96079471e-04 -4.03535028e-04
      -1.44800331e-04 3.19729611e-06 1.48811581e-04 1.44693986e-04 0. 0.
      0. 0. 0. 0. 0. 0. 0. 0. -9.44928786e-07 -1.94538629e-07
      2.64617051e-06 -8.71312150e-05 -1.81407052e-06 1.01275657e-06
      -1.81334166e-04 -1.93686603e-07 -2.59524700e-06 1.47162515e-04 0.
      0. 0. 0. 0. 0. 0. 0. 0. 0. 2.60742513e-06 -1.47020386e-04
      2.62019057e-07 1.44906051e-04 -9.07035258e-07 -1.26357043e-06
      2.20636750e-04 -1.44606645e-04 -5.69733743e-07 1.44712365e-04
      1.70920111e-06 0. 0. 0. 0. 0. 0. 0. 0. 0. -1.62073127e-06
      -1.44235833e-04 6.74603029e-07 1.45282102e-04 -5.62752334e-08
      4.46496688e-06 2.55195162e-04 3.78935674e-08 1.58249031e-06
      1.43699610e-04 0. 0. 0. 0. 0. 0. 0. 0. 0. 0. 7.06014873e-07
      -1.41403143e-04 1.74679371e-07 2.06906061e-05 1.47619197e-04
      -2.91416677e-06 -1.22103447e-04 7.62794741e-07 -2.59392400e-04 0.
      5.69733743e-07 0. 0. 0. 0. 0. 0. 0. 0. 0. 0. -2.52695347e-04
      -1.45181097e-04 9.07035258e-07 4.06575815e-20 1.98874977e-06
      -1.29378293e-06 -2.99228350e-06 1.45282102e-04 1.89880234e-06
      5.69733743e-07 0. 0. 0. 0. 0. 0. 0. 0. 0. 2.27125383e-06
      -3.07764094e-06 1.39563281e-06 -1.44845399e-04 2.67138148e-06
      -2.70209853e-06 -3.79943303e-05 1.44693986e-04 -3.73471426e-06
      1.13946749e-06 0. 0. 0. 0. 0. 0. 0. 0. 0. 0. 2.87229824e-07 0.
      8.31248087e-07 3.83501799e-07 -7.63420303e-07 -1.23137579e-06
      1.47563867e-06 1.43614912e-07 5.69733743e-07 1.01275657e-06
      5.69733743e-07 0. 0. 0. 0. 0. 0. 0. 0. 0. 0. 0. 0. 0. 0. 0. 0. 0.
      0. 0. 0. 0. 0. 0. 0. 0. 0. 0. 0. 0. 0. 0. 0. 0. 0. 0. 0. 0. 0. 0.
      0. 0. 0. 0. 0. 0. 0. 0. 0. 0. 0. 0. 0. 0. 0. 0. 0. 0. 0. 0. 0. 0.
      0. 0. 0. 0. 0. 0. 0. 0. 0. 0. 0. 0. 0. 0. 0. 0. 0. 0. 0. 0. 0. 0.
      0. 0. 0. 0. 0. 0. 0. 0. 0. 0. 0. 0. 0. 0. 0. 0. 0. 0. 0. 0. 0. 0.
      0. 0. 0. 0. 0. 0. 0. 0. 0. 0. 0. 0. 0. 0. 0. 0. 0. 0. 0. 0. 0. 0.
      0. 0.</_>
    <_>
      3.19694436e-07 -4.34641578e-07 3.19694436e-07 3.19694436e-07
      -2.00092995e-06 2.32335111e-07 1.24415317e-06 -1.33395338e-06
      8.69283156e-07 9.29340445e-07 0. 0. 0. 0. 0. 0. 0. 0. 0. 0.
      -6.66976689e-07 -1.68515209e-04 -1.69382052e-04 -5.89855299e-05
      6.66976689e-07 -1.45378215e-06 -6.89682849e-07 -1.08720167e-04
      -1.70079060e-04 4.34641578e-07 0. 0. 0. 0. 0. 0. 0. 0. 0. 0.
      8.71723955e-07 -1.69964100e-04 -5.94753474e-05 -6.39388873e-07
      5.49588719e-07 5.52029519e-07 2.71050543e-20 3.19694436e-07
      -1.10398963e-04 4.34641578e-07 1.39401061e-06 0. 0. 0. 0. 0. 0. 0.
      0. 0. 0. 1.10718654e-04 1.70079060e-04 5.94753474e-05
      5.72445206e-05 -2.32335111e-07 -5.92178621e-05 4.62229394e-07
      5.92454526e-05 0. 0. 0. 0. 0. 0. 0. 0. 0. 0. 0. 8.71723955e-07
      1.09237568e-04 1.69614388e-04 5.88656985e-05 1.01669980e-06
      3.47282253e-07 -5.79114967e-05 2.71050543e-20 1.69846724e-04
      5.96800928e-05 6.97005305e-07 0. 0. 0. 0. 0. 0. 0. 0. 0.
      1.14947142e-07 1.08832675e-04 1.69504317e-04 5.92454526e-05
      -1.97090139e-06 -1.69759354e-04 -6.03194821e-05 1.69731778e-04
      1.70079060e-04 5.92454526e-05 0. 0. 0. 0. 0. 0. 0. 0. 0. 0.
      -2.43557156e-06 1.10718654e-04 1.68133294e-04 5.83161127e-05
      8.69283156e-07 -1.70079060e-04 -5.85784765e-05 1.70079060e-04
      1.69846724e-04 5.92454526e-05 0. 0. 0. 0. 0. 0. 0. 0. 0. 0.
      1.14947142e-07 1.67873382e-04 1.69412073e-04 5.92454526e-05
      -1.70079060e-04 -1.69209772e-04 -8.86167472e-05 1.68745100e-04
      1.68977436e-04 6.03170411e-05 0. 0. 0. 0. 0. 0. 0. 0. 0. 0.
      -6.66976689e-07 1.10513909e-04 1.68789615e-04 5.92936231e-05
      -1.69990017e-04 -1.69759354e-04 8.14775631e-05 1.10513909e-04
      1.69846724e-04 5.90131167e-05 6.97005305e-07 0. 0. 0. 0. 0. 0. 0.
      0. 0. 1.14947142e-07 1.07679996e-04 1.69592124e-04 5.66665803e-05
      -1.68557279e-04 -1.67750215e-04 1.08669556e-04 1.69714840e-04
      1.70079060e-04 5.92454526e-05 0. 0. 0. 0. 0. 0. 0. 0. 0. 0.
      5.72612237e-07 1.10359775e-04 1.67505510e-04 1.26961754e-06
      -1.09952722e-04 -1.67509163e-04 1.08771223e-04 1.70079060e-04
      5.87807808e-05 0. 2.32335111e-07 0. 0. 0. 0. 0. 0. 0. 0. 0.
      -1.28943566e-06 -1.85376521e-07 1.10373810e-04 6.44717829e-07
      -6.17130013e-07 5.68667247e-06 1.69964100e-04 1.68415965e-04
      5.92454526e-05 2.17320780e-06 2.32335111e-07 0. 0. 0. 0. 0. 0. 0.
      0. 0. 6.74746445e-07 9.36824449e-07 -1.69269537e-04
      -5.85784765e-05 1.95641223e-06 1.68303450e-04 5.77863393e-05
      5.98848419e-05 4.34641578e-07 4.64670222e-07 0. 0. 0. 0. 0. 0. 0.
      0. 0. 0. -1.38989367e-06 -6.44717829e-07 5.94871096e-07
      9.26899588e-07 -6.41065071e-07 -9.17453633e-07 8.09511619e-07
      -1.24126507e-06 2.32335111e-07 4.34641578e-07 2.32335111e-07 0. 0.
      0. 0. 0. 0. 0. 0. 0. 0. 0. 0. 0. 0. 0. 0. 0. 0. 0. 0. 0. 0. 0. 0.
      0. 0. 0. 0. 0. 0. 0. 0. 0. 0. 0. 0. 0. 0. 0. 0. 0. 0. 0. 0. 0. 0.
      0. 0. 0. 0. 0. 0. 0. 0. 0. 0. 0. 0. 0. 0. 0. 0. 0. 0. 0. 0. 0. 0.
      0. 0. 0. 0. 0. 0. 0. 0. 0. 0. 0. 0. 0. 0. 0. 0. 0. 0. 0. 0. 0. 0.
      0. 0. 0. 0. 0. 0. 0. 0. 0. 0. 0. 0. 0. 0. 0. 0. 0. 0. 0. 0. 0. 0.
      0. 0. 0. 0. 0. 0. 0. 0. 0. 0. 0. 0. 0. 0. 0. 0. 0.</_>
    <_>
      -1.29247655e-06 1.48749632e-06 6.69107294e-07 -5.84222380e-06
      1.35089260e-06 1.00173179e-06 -1.07551591e-06 0. 2.81556186e-06
      1.79436131e-06 -1.92705740e-09 0. 0. 0. 0. 0. 0. 0. 0. 0.
      -4.47039156e-06 0. 2.44160265e-06 3.13994533e-05 -7.87299939e-07
      -5.05439721e-06 1.10724648e-06 -2.52563368e-05 -4.09218757e-07
      -8.04784975e-07 0. 0. 0. 0. 0. 0. 0. 0. 0. 0. 8.53336360e-07
      -1.54438453e-06 -5.51475023e-06 -2.07688822e-06 1.84870615e-07
      8.05711011e-07 -3.69336794e-06 -6.22368191e-07 -2.54946008e-05
      1.40199973e-06 6.01039073e-06 0. 0. 0. 0. 0. 0. 0. 0. 0.
      -6.51133132e-06 2.93843150e-05 -4.06575815e-20 1.65008591e-04
      2.55315157e-04 -1.29247655e-06 2.55680225e-05 -1.03768014e-06
      -1.29659340e-04 -2.45699795e-07 0. 0. 0. 0. 0. 0. 0. 0. 0. 0.
      2.51908034e-07 2.30364585e-05 -1.87700903e-06 -2.80280346e-05
      3.42139356e-06 1.49828702e-06 2.38250868e-05 9.80791924e-07
      2.27217737e-04 2.54636834e-04 3.00519537e-06 0. 0. 0. 0. 0. 0. 0.
      0. 0. 1.97390227e-06 2.69062366e-05 -4.29517797e-07
      -3.58245452e-04 -2.76553765e-04 -1.39188614e-06 2.39181227e-05
      -1.00173179e-06 3.33184173e-04 2.55441613e-04 -1.92705740e-09 0.
      0. 0. 0. 0. 0. 0. 0. 0. 1.00173179e-06 3.57022538e-04
      2.81295157e-04 -3.58318415e-04 -6.10482995e-04 -6.11356925e-04
      -2.55927385e-04 3.34039476e-04 6.13016717e-04 2.54335318e-04 0. 0.
      0. 0. 0. 0. 0. 0. 0. 0. 7.38673577e-07 6.09676295e-04
      2.82347843e-04 -3.58984136e-04 -6.14172837e-04 -6.11046562e-04
      -2.54164130e-04 -6.12219026e-07 3.28260590e-04 2.58662243e-04 0.
      0. 0. 0. 0. 0. 0. 0. 0. 0. 2.21602068e-06 2.37244385e-05
      2.82529209e-06 -2.23228599e-05 -3.37295205e-06 -7.05062405e-07
      2.66905263e-05 -2.53841572e-04 -1.00173179e-06 -2.68007225e-05
      3.00519537e-06 0. 0. 0. 0. 0. 0. 0. 0. 0. -2.32912157e-06
      -2.51300226e-04 -1.03658556e-06 -2.68343338e-05 -1.08832523e-06
      3.74028900e-06 3.56174773e-04 2.80940061e-04 4.07291708e-07
      -2.73135283e-05 0. 0. 0. 0. 0. 0. 0. 0. 0. 0. 2.93123298e-06
      2.81851062e-05 -3.02871683e-07 3.28985247e-04 2.57368200e-04
      -8.51581206e-07 2.64629962e-05 -4.06575815e-20 -3.60984704e-04
      -2.80135282e-04 1.00076829e-06 0. 0. 0. 0. 0. 0. 0. 0. 0.
      -4.40829490e-06 -3.28400813e-04 -2.52475962e-04 2.68492363e-06
      3.62855729e-07 -1.30225953e-06 -1.47734715e-06 -4.79127948e-06
      -2.46936706e-05 2.90547223e-06 1.00173179e-06 0. 0. 0. 0. 0. 0. 0.
      0. 0. 4.33873538e-06 -2.54134147e-06 -1.02076679e-04
      1.02000085e-05 1.03534296e-06 -1.18998150e-06 -1.73734312e-04
      -2.62507237e-05 1.85905762e-07 2.00153659e-06 0. 0. 0. 0. 0. 0. 0.
      0. 0. 0. 1.11234738e-06 -2.14258944e-06 -4.20460537e-07
      1.29563750e-06 -1.03534296e-06 1.41708460e-06 1.91715549e-06
      -8.14583416e-07 1.06757284e-07 -3.01735076e-06 9.99804797e-07 0.
      0. 0. 0. 0. 0. 0. 0. 0. 0. 0. 0. 0. 0. 0. 0. 0. 0. 0. 0. 0. 0. 0.
      0. 0. 0. 0. 0. 0. 0. 0. 0. 0. 0. 0. 0. 0. 0. 0. 0. 0. 0. 0. 0. 0.
      0. 0. 0. 0. 0. 0. 0. 0. 0. 0. 0. 0. 0. 0. 0. 0. 0. 0. 0. 0. 0. 0.
      0. 0. 0. 0. 0. 0. 0. 0. 0. 0. 0. 0. 0. 0. 0. 0. 0. 0. 0. 0. 0. 0.
      0. 0. 0. 0. 0. 0. 0. 0. 0. 0. 0. 0. 0. 0. 0. 0. 0. 0. 0. 0. 0. 0.
      0. 0. 0. 0. 0. 0. 0. 0. 0. 0. 0. 0. 0. 0. 0. 0. 0. 0.</_>
    <_>
      -2.95570317e-07 -3.26440045e-06 1.20578261e-06 7.80337984e-07
      -8.67002655e-07 -1.87752369e-06 2.59076359e-07 -8.02664317e-07
      1.01418811e-06 -4.28099112e-09 -9.22473419e-07 0. 0. 0. 0. 0. 0.
      0. 0. 0. -5.39423636e-05 -1.86150521e-06 -1.33073195e-06
      6.02086147e-05 1.63002960e-06 -5.90224226e-06 5.75687318e-06
      -5.90031705e-05 0. -1.07888233e-07 0. 0. 0. 0. 0. 0. 0. 0. 0. 0.
      1.57761212e-06 -2.06979879e-04 -1.31406239e-04 -2.21248592e-06
      -4.29357186e-07 8.02664317e-07 1.03975729e-07 4.64313104e-07
      -6.13007869e-05 -2.23263736e-08 3.90643834e-07 0. 0. 0. 0. 0. 0.
      0. 0. 0. -4.59085140e-06 6.16566831e-05 1.73400531e-06
      -6.06289468e-05 2.09400576e-04 1.10180690e-06 5.91883618e-05
      -1.84232226e-06 -1.29001492e-04 -7.84102376e-05 -6.14982298e-07 0.
      0. 0. 0. 0. 0. 0. 0. 0. 2.64498658e-06 5.80215965e-05
      1.54585518e-06 -6.31700168e-05 6.29823887e-07 -1.08317018e-07
      6.18690756e-05 2.78458956e-05 7.29023327e-07 -6.23596279e-05
      1.95321917e-07 0. 0. 0. 0. 0. 0. 0. 0. 0. -2.70054761e-06
      -2.10307218e-04 8.75256433e-07 -5.93549194e-05 3.81963082e-06
      -1.37052439e-06 5.89459778e-05 2.62407520e-05 3.07491149e-07
      -6.14576056e-05 0. 0. 0. 0. 0. 0. 0. 0. 0. 0. -2.58603859e-06
      6.33092277e-05 -4.22841777e-06 -6.49124631e-05 -7.71185739e-07
      -3.21065727e-06 6.48334317e-05 5.11006533e-07 -6.51073009e-08
      -6.18078775e-05 -9.22473419e-07 0. 0. 0. 0. 0. 0. 0. 0. 0.
      -2.03515413e-07 2.66633520e-04 7.63026890e-07 -3.32818337e-04
      -5.43888600e-04 -5.39372093e-04 -2.13291700e-04 1.02773708e-06
      -1.07929543e-06 -6.03517037e-05 0. 0. 0. 0. 0. 0. 0. 0. 0. 0.
      -1.07051801e-06 3.32678639e-04 2.72982114e-04 -3.31312534e-04
      -5.44897921e-04 -5.42785507e-04 -2.09033184e-04 -2.11148756e-04
      2.71352386e-04 2.10346087e-04 2.48440256e-06 0. 0. 0. 0. 0. 0. 0.
      0. 0. 0. 3.31317919e-04 5.38689434e-04 2.10103710e-04
      2.98713786e-07 -5.56636087e-06 6.60773730e-05 -1.30975843e-06
      2.72180507e-04 2.11174221e-04 -5.35259005e-06 0. 0. 0. 0. 0. 0. 0.
      0. 0. 1.54899874e-06 3.28450638e-04 5.40946319e-04 5.43852861e-04
      2.13151667e-04 -2.67423107e-04 -2.13529027e-04 2.71915807e-04
      2.09517952e-04 0. 8.28134205e-07 0. 0. 0. 0. 0. 0. 0. 0. 0.
      -1.06737457e-06 4.27578516e-06 3.31847346e-04 2.71370489e-04
      -1.01418811e-06 -4.43636918e-06 6.85716223e-05 2.66730087e-04
      2.11174221e-04 1.19620165e-06 8.28134205e-07 0. 0. 0. 0. 0. 0. 0.
      0. 0. -1.79766960e-06 2.86190061e-06 -2.70524237e-04
      -2.07160003e-04 2.64710195e-07 2.70766614e-04 2.07861682e-04
      2.12458515e-04 2.39240336e-07 1.65626841e-06 -2.14103602e-06 0. 0.
      0. 0. 0. 0. 0. 0. 0. 1.52128212e-06 -7.94130642e-07
      -3.24183674e-07 -1.86053867e-07 -2.64710195e-07 1.38616804e-06
      5.85750399e-07 -8.02664317e-07 8.28134205e-07 2.39240336e-07
      8.28134205e-07 0. 0. 0. 0. 0. 0. 0. 0. 0. 0. 0. 0. 0. 0. 0. 0. 0.
      0. 0. 0. 0. 0. 0. 0. 0. 0. 0. 0. 0. 0. 0. 0. 0. 0. 0. 0. 0. 0. 0.
      0. 0. 0. 0. 0. 0. 0. 0. 0. 0. 0. 0. 0. 0. 0. 0. 0. 0. 0. 0. 0. 0.
      0. 0. 0. 0. 0. 0. 0. 0. 0. 0. 0. 0. 0. 0. 0. 0. 0. 0. 0. 0. 0. 0.
      0. 0. 0. 0. 0. 0. 0. 0. 0. 0. 0. 0. 0. 0. 0. 0. 0. 0. 0. 0. 0. 0.
      0. 0. 0. 0. 0. 0. 0. 0. 0. 0. 0. 0. 0. 0. 0. 0. 0. 0. 0. 0. 0. 0.
      0. 0.</_>
    <_>
      5.70155208e-11 2.04172199e-08 -6.72484532e-07 5.70155208e-11
      -1.38603161e-06 6.92958793e-07 6.53103996e-07 7.12396343e-07
      7.12510428e-07 1.34704237e-06 0. 0. 0. 0. 0. 0. 0. 0. 0. 0.
      -1.34508309e-06 1.34289576e-06 1.01028184e-06 9.05091802e-05
      5.22093023e-06 -1.68397412e-06 4.74338450e-20 8.58740095e-05 0.
      3.56255214e-07 0. 0. 0. 0. 0. 0. 0. 0. 0. 0. 2.54977692e-07
      7.12396343e-07 8.91437958e-05 1.75924622e-04 -3.57234853e-07
      -3.56198171e-07 1.76719026e-04 1.76382266e-04 8.62302113e-05
      3.56255214e-07 2.02056367e-06 0. 0. 0. 0. 0. 0. 0. 0. 0.
      7.12396343e-07 8.90834635e-05 1.76046495e-04 8.52207959e-05
      -8.81139640e-05 -1.75945155e-04 8.87465358e-05 1.76025962e-04
      8.58739513e-05 0. 0. 0. 0. 0. 0. 0. 0. 0. 0. 0. 2.95926156e-07
      9.08458242e-05 1.76045505e-04 -9.01744352e-05 -1.75688212e-04
      -3.35780953e-07 9.08450747e-05 1.76362839e-04 1.76382266e-04
      8.62302113e-05 1.01028184e-06 0. 0. 0. 0. 0. 0. 0. 0. 0.
      -2.76488578e-07 9.08246002e-05 1.76321890e-04 -9.07836511e-05
      -1.75015739e-04 6.51030689e-07 9.04887056e-05 1.76026078e-04
      1.76719026e-04 8.58739513e-05 0. 0. 0. 0. 0. 0. 0. 0. 0. 0.
      3.36760593e-07 9.01725361e-05 -2.28062083e-10 -9.21921164e-05
      3.96167025e-07 -4.09484713e-08 -1.33054414e-06 1.76719026e-04
      1.76382266e-04 8.58739513e-05 0. 0. 0. 0. 0. 0. 0. 0. 0. 0.
      3.98548003e-08 1.75291992e-04 7.13490067e-07 -8.94202822e-05
      -2.04742356e-08 -6.72427518e-07 7.07326706e-07 1.76362839e-04
      1.75669760e-04 8.66059563e-05 0. 0. 0. 0. 0. 0. 0. 0. 0. 0. 0.
      -8.58865533e-05 4.74338450e-20 8.48315758e-05 0. 1.26016184e-08
      2.52039695e-06 9.08324728e-05 1.76382266e-04 8.55371909e-05
      1.01028184e-06 0. 0. 0. 0. 0. 0. 0. 0. 0. 3.43653596e-07
      -8.75922196e-05 -6.73521185e-07 8.58739513e-05 3.36760593e-07
      3.12741719e-07 8.87717397e-05 1.76706424e-04 1.76719026e-04
      8.58739513e-05 0. 0. 0. 0. 0. 0. 0. 0. 0. 0. 2.52032368e-08
      -8.55623948e-05 -2.52032368e-08 1.74982459e-04 8.52508383e-05
      3.74565445e-07 9.08198708e-05 1.76719026e-04 8.52004305e-05 0.
      3.36760593e-07 0. 0. 0. 0. 0. 0. 0. 0. 0. -1.76719026e-04
      -1.76020301e-04 8.94704644e-05 1.76719026e-04 1.74614775e-04
      1.75975612e-04 1.76375383e-04 1.74678979e-04 8.58739513e-05
      1.78127596e-06 3.36760593e-07 0. 0. 0. 0. 0. 0. 0. 0. 0.
      -1.75015739e-04 -1.76681220e-04 -3.74565445e-07 8.94590412e-05
      1.76719026e-04 1.74677785e-04 8.41775473e-05 8.58991552e-05
      3.56255214e-07 6.73521185e-07 0. 0. 0. 0. 0. 0. 0. 0. 0. 0.
      7.25112045e-07 -6.93015807e-07 2.52032368e-08 1.69758903e-06
      -3.49362210e-07 3.29867618e-07 1.70448197e-06 3.43653596e-07
      3.36760593e-07 3.56255214e-07 3.36760593e-07 0. 0. 0. 0. 0. 0. 0.
      0. 0. 0. 0. 0. 0. 0. 0. 0. 0. 0. 0. 0. 0. 0. 0. 0. 0. 0. 0. 0. 0.
      0. 0. 0. 0. 0. 0. 0. 0. 0. 0. 0. 0. 0. 0. 0. 0. 0. 0. 0. 0. 0. 0.
      0. 0. 0. 0. 0. 0. 0. 0. 0. 0. 0. 0. 0. 0. 0. 0. 0. 0. 0. 0. 0. 0.
      0. 0. 0. 0. 0. 0. 0. 0. 0. 0. 0. 0. 0. 0. 0. 0. 0. 0. 0. 0. 0. 0.
      0. 0. 0. 0. 0. 0. 0. 0. 0. 0. 0. 0. 0. 0. 0. 0. 0. 0. 0. 0. 0. 0.
      0. 0. 0. 0. 0. 0. 0. 0. 0. 0. 0. 0.</_>
    <_>
      4.32591577e-07 -5.26522683e-07 -7.09258529e-07 6.07185200e-07
      -3.58424671e-07 -1.05471565e-06 -3.58424671e-07 -3.50833858e-07 0.
      0. 0. 0. 0. 0. 0. 0. 0. 0. 0. 0. -2.60212090e-07 1.24115797e-06
      -3.65788537e-07 6.06617732e-07 -9.23046973e-05 -1.99635164e-04
      -2.02638650e-04 -1.77902947e-07 -7.95995902e-07 0. 0. 0. 0. 0. 0.
      0. 0. 0. 0. 0. -1.33675940e-06 -1.09260021e-04 1.14461568e-06
      -4.32591577e-07 -9.09658920e-05 -2.02974523e-04 -2.02978961e-04
      -2.02253257e-04 0. -3.17512718e-06 0. 0. 0. 0. 0. 0. 0. 0. 0. 0.
      9.15904602e-05 7.09258529e-07 8.89514737e-08 1.99219110e-04
      1.09161017e-04 -2.21410756e-09 -2.02262105e-04 -2.02108247e-04
      -5.64597428e-07 0. 0. 0. 0. 0. 0. 0. 0. 0. 0. 0. 9.23838452e-05
      -9.24968408e-05 -1.08904911e-04 2.02978961e-04 1.10711968e-04
      1.29334660e-06 -2.02097173e-04 -2.02536001e-04 -2.01391391e-04
      -3.17512718e-06 0. 0. 0. 0. 0. 0. 0. 0. 0. 0. -3.58424671e-07
      -2.01545263e-04 -1.09988097e-04 2.02185169e-04 1.09873836e-04
      -1.50304038e-06 -2.02620533e-04 -2.02974523e-04 -7.93781794e-07 0.
      0. 0. 0. 0. 0. 0. 0. 0. 0. 0. 3.63404325e-07 1.27621149e-07
      2.28687122e-06 2.02019844e-04 1.07691259e-04 2.16295803e-06
      -2.02108247e-04 -2.02809912e-04 -2.21410756e-09 -2.38134544e-06 0.
      0. 0. 0. 0. 0. 0. 0. 0. 0. -7.09258529e-07 3.68383951e-07
      9.23002663e-05 2.02978961e-04 1.10221903e-04 -2.02192765e-04
      -2.02618321e-04 -1.69046515e-07 -7.93781794e-07 0. 0. 0. 0. 0. 0.
      0. 0. 0. 0. 0. 9.39350116e-07 -9.74767147e-08 9.15828641e-05
      2.02615556e-04 -9.31698814e-05 -2.02541385e-04 -2.02943993e-04
      -2.33097950e-08 0. 0. 0. 0. 0. 0. 0. 0. 0. 0. 0. 0.
      -8.86797352e-07 -1.06531468e-06 9.22072213e-05 2.17600314e-06
      -9.22305262e-05 -2.01903676e-04 -7.51814014e-07 -7.84341012e-07
      -7.95995902e-07 0. 0. 0. 0. 0. 0. 0. 0. 0. 0. 0. 0.
      -4.77515584e-07 2.56758381e-06 1.04820327e-20 -9.14711927e-05
      4.32591577e-07 -7.95995902e-07 0. 0. 0. 0. 0. 0. 0. 0. 0. 0. 0. 0.
      0. -4.75730886e-08 -8.63487571e-07 -1.09838322e-04 1.77285256e-06
      -9.31006944e-05 -2.02102121e-04 -2.02262105e-04 -2.02127121e-04
      -2.02978961e-04 0. 0. 0. 0. 0. 0. 0. 0. 0. 0. 0. 0.
      -1.07802822e-04 -1.11037662e-04 1.16548975e-08 1.04820327e-20
      -9.23096741e-05 -2.02147989e-04 -2.01768693e-04 -2.02978961e-04 0.
      0. 0. 0. 0. 0. 0. 0. 0. 0. 0. -2.84257766e-07 -1.33528135e-06
      8.65183154e-07 3.63404325e-07 0. 9.04385388e-07 -8.86797352e-07
      -8.51832681e-07 0. 0. 0. 0. 0. 0. 0. 0. 0. 0. 0. 0. 0. 0. 0. 0. 0.
      0. 0. 0. 0. 0. 0. 0. 0. 0. 0. 0. 0. 0. 0. 0. 0. 0. 0. 0. 0. 0. 0.
      0. 0. 0. 0. 0. 0. 0. 0. 0. 0. 0. 0. 0. 0. 0. 0. 0. 0. 0. 0. 0. 0.
      0. 0. 0. 0. 0. 0. 0. 0. 0. 0. 0. 0. 0. 0. 0. 0. 0. 0. 0. 0. 0. 0.
      0. 0. 0. 0. 0. 0. 0. 0. 0. 0. 0. 0. 0. 0. 0. 0. 0. 0. 0. 0. 0. 0.
      0. 0. 0. 0. 0. 0. 0. 0. 0. 0. 0. 0. 0. 0. 0. 0. 0. 0. 0. 0. 0. 0.
      0. 0. 0. 0. 0.</_>
    <_>
      4.21463795e-07 -6.68986218e-07 0. 1.73941373e-07 0. 0. 0.
      -6.68986218e-07 0. -1.33797244e-06 0. 0. 0. 0. 0. 0. 0. 0. 0. 0.
      0. -1.67246559e-04 -1.07968313e-04 2.11758237e-21 -6.28706912e-05
      -1.69748557e-04 -1.69253515e-04 -1.70591491e-04 -1.70591491e-04
      -1.33797244e-06 0. 0. 0. 0. 0. 0. 0. 0. 0. 0. 4.21463795e-07
      -1.07473265e-04 6.68986218e-07 9.16508611e-07 -6.17066617e-05
      -1.69922496e-04 -1.70591491e-04 -1.69253515e-04 -6.68986218e-07 0.
      0. 0. 0. 0. 0. 0. 0. 0. 0. 0. 6.26231704e-05 1.69922496e-04
      1.70591491e-04 1.67346909e-04 1.07968313e-04 -1.70591491e-04
      -1.69922496e-04 -6.68986218e-07 -6.68986218e-07 0. 0. 0. 0. 0. 0.
      0. 0. 0. 0. 0. 6.22017105e-05 1.07473265e-04 6.28706912e-05
      1.70591491e-04 -6.21281288e-05 -1.69327090e-04 0. -6.68986218e-07
      -6.68986218e-07 0. 0. 0. 0. 0. 0. 0. 0. 0. 0. 0. 6.68986218e-07
      -2.67594487e-06 6.26231704e-05 1.70591491e-04 -6.35396791e-05
      -1.69922496e-04 0. 0. 0. -2.00695854e-06 0. 0. 0. 0. 0. 0. 0. 0.
      0. 0. -2.42842248e-06 1.68585518e-06 6.31182193e-05
      -4.21463795e-07 -6.32185765e-05 -1.68484170e-04 -1.70591491e-04 0.
      0. 0. 0. 0. 0. 0. 0. 0. 0. 0. 0. 0. 0. 4.95044844e-07
      6.08637347e-05 1.70591491e-04 -6.31182193e-05 -1.69253515e-04
      -1.70591491e-04 -1.70591491e-04 0. -1.33797244e-06 0. 0. 0. 0. 0.
      0. 0. 0. 0. 0. 1.26439136e-06 -3.76639491e-06 6.26231704e-05
      1.70343963e-04 1.06877866e-04 0. -1.70591491e-04 -1.70591491e-04
      -1.70591491e-04 0. 0. 0. 0. 0. 0. 0. 0. 0. 0. 0. -6.68986218e-07
      4.95044844e-07 6.24492313e-05 1.69922496e-04 1.06804284e-04
      -6.68986218e-07 -1.70591491e-04 -1.69253515e-04 -1.70588712e-04
      -2.76687917e-09 0. 0. 0. 0. 0. 0. 0. 0. 0. 0. 0. -1.70170024e-04
      -1.06208878e-04 1.70591491e-04 1.06630338e-04 4.21463795e-07
      -1.70591491e-04 -1.69922496e-04 -7.05554157e-07 0. 0. 0. 0. 0. 0.
      0. 0. 0. 0. 0. 3.21103471e-07 -1.70591491e-04 -1.05466308e-04
      -4.95044844e-07 -6.35396791e-05 -1.69748557e-04 -1.69922496e-04
      -1.69922496e-04 0. -3.33663047e-06 0. 0. 0. 0. 0. 0. 0. 0. 0. 0.
      -6.68986218e-07 6.43826061e-05 -1.07968313e-04 2.11758237e-21
      2.00695854e-06 -6.31182193e-05 -1.70591491e-04 -1.33797244e-06
      -6.74519981e-07 0. 0. 0. 0. 0. 0. 0. 0. 0. 0. 0. 4.21463795e-07
      -1.73941373e-07 1.73941373e-07 2.47522422e-07 -2.00695854e-06
      1.26439136e-06 0. -6.68986218e-07 0. -6.66219364e-07 0. 0. 0. 0.
      0. 0. 0. 0. 0. 0. 0. 0. 0. 0. 0. 0. 0. 0. 0. 0. 0. 0. 0. 0. 0. 0.
      0. 0. 0. 0. 0. 0. 0. 0. 0. 0. 0. 0. 0. 0. 0. 0. 0. 0. 0. 0. 0. 0.
      0. 0. 0. 0. 0. 0. 0. 0. 0. 0. 0. 0. 0. 0. 0. 0. 0. 0. 0. 0. 0. 0.
      0. 0. 0. 0. 0. 0. 0. 0. 0. 0. 0. 0. 0. 0. 0. 0. 0. 0. 0. 0. 0. 0.
      0. 0. 0. 0. 0. 0. 0. 0. 0. 0. 0. 0. 0. 0. 0. 0. 0. 0. 0. 0. 0. 0.
      0. 0. 0. 0. 0. 0. 0. 0. 0. 0. 0. 0. 0. 0. 0. 0.</_>
    <_>
      3.37687055e-07 -2.56159410e-07 -1.28079705e-07 6.75374110e-07
      -4.10018174e-07 -1.28079705e-07 -1.23005452e-06 -1.28079705e-07
      -5.38024835e-07 -3.84239144e-07 0. 0. 0. 0. 0. 0. 0. 0. 0. 0.
      -3.26603258e-05 1.07619576e-06 4.94738852e-05 1.37214971e-04
      8.59005959e-05 -1.36411516e-04 -1.37214971e-04 -1.37214971e-04
      -1.36945950e-04 -5.38329743e-07 0. 0. 0. 0. 0. 0. 0. 0. 0. 0.
      8.15276380e-08 5.06947435e-05 1.36676870e-04 1.36493036e-04
      8.61733351e-05 -1.36138769e-04 -1.36394927e-04 -1.36830728e-04
      -3.38909595e-05 -6.78871800e-07 0. 0. 0. 0. 0. 0. 0. 0. 0. 0.
      5.02939220e-05 1.37214971e-04 1.37214971e-04 1.35136710e-04
      -5.05758617e-05 -1.37214971e-04 -1.36958799e-04 -1.35164868e-04
      -1.36129747e-04 0. 0. 0. 0. 0. 0. 0. 0. 0. 0. 0. 5.10324317e-05
      8.61102017e-05 4.98797126e-05 1.35984912e-04 -4.96369430e-05
      -1.34971851e-04 -1.36958799e-04 -1.37214971e-04 -6.84801998e-05
      -9.52139942e-07 0. 0. 0. 0. 0. 0. 0. 0. 0. 0. 2.81938469e-07
      -8.20036348e-07 5.04220006e-05 8.20036348e-07 -5.14424501e-05 0.
      -1.36394927e-04 -1.36394927e-04 -6.95424533e-05 -2.73500035e-07 0.
      0. 0. 0. 0. 0. 0. 0. 0. 0. 2.00410838e-07 1.22266852e-06
      5.09766833e-05 -3.37687055e-07 -5.07688856e-05 1.68843530e-06
      -1.36958799e-04 -1.37214971e-04 -3.36132034e-05 -4.05603629e-07 0.
      0. 0. 0. 0. 0. 0. 0. 0. 0. 0. 4.00821676e-07 -8.59005959e-05
      1.28079705e-07 8.59821230e-05 0. -1.36394927e-04 -1.36676870e-04
      -1.32335458e-07 -1.36750018e-07 0. 0. 0. 0. 0. 0. 0. 0. 0. 0.
      4.74963286e-07 2.00410838e-07 -8.48967320e-05 -2.00410838e-07
      -5.10416285e-05 -1.37214971e-04 -1.37214971e-04 -1.37214971e-04
      -1.36676870e-04 -1.37086885e-04 0. 0. 0. 0. 0. 0. 0. 0. 0. 0. 0.
      -1.36814138e-04 -8.61102017e-05 5.38097879e-07 -5.11047620e-05
      -1.36676870e-04 -1.37214971e-04 -1.37214971e-04 -1.37214971e-04
      -1.36394927e-04 0. 0. 0. 0. 0. 0. 0. 0. 0. 0. -5.38097879e-07
      3.37687055e-07 5.21178226e-05 1.37214971e-04 8.54348255e-05
      -1.81470455e-06 -1.37214971e-04 -1.36138769e-04 -1.04144616e-04
      -2.05009087e-06 0. 0. 0. 0. 0. 0. 0. 0. 0. 0. -2.74552463e-07 0.
      5.11047620e-05 1.35737951e-04 8.52344165e-05 1.37276231e-07
      -1.37214971e-04 -1.37214971e-04 -1.37214971e-04 -1.28079705e-07 0.
      0. 0. 0. 0. 0. 0. 0. 0. 0. -5.38097879e-07 5.15797256e-05
      5.01658433e-05 1.37214971e-04 1.37214971e-04 8.61102017e-05
      -1.37214971e-04 -1.36676870e-04 -1.36804942e-04 0. 0. 0. 0. 0. 0.
      0. 0. 0. 0. 0. 3.37687055e-07 4.00821676e-07 -4.00821676e-07
      -3.37687055e-07 -1.07619576e-06 4.74963286e-07 0. -5.38097879e-07
      0. 0. 0. 0. 0. 0. 0. 0. 0. 0. 0. 0. 0. 0. 0. 0. 0. 0. 0. 0. 0. 0.
      0. 0. 0. 0. 0. 0. 0. 0. 0. 0. 0. 0. 0. 0. 0. 0. 0. 0. 0. 0. 0. 0.
      0. 0. 0. 0. 0. 0. 0. 0. 0. 0. 0. 0. 0. 0. 0. 0. 0. 0. 0. 0. 0. 0.
      0. 0. 0. 0. 0. 0. 0. 0. 0. 0. 0. 0. 0. 0. 0. 0. 0. 0. 0. 0. 0. 0.
      0. 0. 0. 0. 0. 0. 0. 0. 0. 0. 0. 0. 0. 0. 0. 0. 0. 0. 0. 0. 0. 0.
      0. 0. 0. 0. 0. 0. 0. 0. 0. 0. 0. 0. 0. 0. 0. 0. 0. 0. 0. 0. 0. 0.</_>
    <_>
      4.11972650e-07 -6.30505042e-07 -4.27231839e-07 3.94540479e-07
      -6.82907228e-07 -5.15572538e-07 -5.97518522e-07 -3.08753130e-07 0.
      0. 0. 0. 0. 0. 0. 0. 0. 0. 0. 0. -9.59944591e-05 1.49718733e-06
      -2.93203411e-05 3.81432500e-07 -1.00551377e-04 -2.24942472e-04
      -2.26016273e-04 -2.26821052e-04 -9.54954303e-05 -3.74491890e-07
      -7.48983780e-07 0. 0. 0. 0. 0. 0. 0. 0. 0. 4.28517637e-07
      1.02003571e-04 9.54692805e-05 2.60784276e-07 -1.01687721e-04
      -2.26630771e-04 -2.25068521e-04 -2.26446122e-04 -9.54954303e-05 0.
      0. 0. 0. 0. 0. 0. 0. 0. 0. 0. 1.00503385e-04 1.63112316e-04
      1.61199623e-05 6.45757837e-07 4.57383358e-05 0. -2.00305203e-06
      -1.35023711e-07 0. -1.12347561e-06 -3.74491890e-07 0. 0. 0. 0. 0.
      0. 0. 0. 0. 1.01991958e-04 -7.54899111e-06 -1.24464757e-04
      1.31700115e-04 1.24673621e-04 1.07223411e-06 -1.06288394e-06 0. 0.
      0. -1.12347561e-06 0. 0. 0. 0. 0. 0. 0. 0. 0. -4.92972170e-08
      -1.30935703e-04 -1.22992176e-04 3.15252521e-07 -1.01684222e-04
      -1.59062198e-04 -9.52982155e-05 -1.54327608e-06 -3.74491890e-07
      -7.48983780e-07 0. 0. 0. 0. 0. 0. 0. 0. 0. 0. 4.01969629e-07
      -1.30130415e-04 -1.23057791e-04 2.76315973e-07 -1.02271864e-04
      -2.24441508e-04 -2.25882570e-04 -2.26299322e-04 -9.54954303e-05 0.
      -3.74491890e-07 0. 0. 0. 0. 0. 0. 0. 0. 0. -2.82603736e-07
      6.85460577e-07 1.01203725e-04 2.26381933e-04 1.24378028e-04
      -1.30836197e-04 -2.26880293e-04 -2.26322023e-04 -9.54954303e-05 0.
      -1.87245939e-06 0. 0. 0. 0. 0. 0. 0. 0. 0. 1.46327102e-06
      -2.87774782e-07 1.01183083e-04 2.25847820e-04 1.23114747e-04
      -1.20818754e-06 -1.30869623e-04 -2.26880293e-04 -2.26505799e-04
      -9.51209367e-05 -1.12347561e-06 0. 0. 0. 0. 0. 0. 0. 0. 0.
      -5.92393619e-08 4.29447397e-07 1.01871752e-04 2.24723131e-04
      1.24378028e-04 -1.57626266e-06 -1.31384862e-04 -2.26305812e-04
      -2.26880293e-04 -9.54954303e-05 0. 0. 0. 0. 0. 0. 0. 0. 0. 0.
      -1.26101008e-06 -2.10025493e-04 -1.22284255e-04 1.31621811e-04
      1.22372046e-04 -2.05195832e-07 -1.31700115e-04 -2.24704083e-04
      -9.47464505e-05 0. -3.74491890e-07 0. 0. 0. 0. 0. 0. 0. 0. 0.
      1.60787852e-06 -1.47062165e-04 -1.23862803e-04 1.05701747e-06
      -1.02044258e-04 -2.25786294e-04 -2.24819349e-04 -2.26821052e-04
      -9.54954303e-05 -2.57617376e-06 -3.74491890e-07 0. 0. 0. 0. 0. 0.
      0. 0. 0. 0. 1.03965533e-04 -3.03170455e-05 6.30505042e-07
      -1.16890547e-19 -1.02502258e-04 -9.47464505e-05 -1.18478724e-07
      -5.15234717e-07 -7.48983780e-07 0. 0. 0. 0. 0. 0. 0. 0. 0. 0.
      -1.42748064e-07 -2.18049308e-06 9.75514013e-07 4.01969629e-07
      -6.33713455e-07 1.46327102e-06 -2.12017835e-06 -6.30505042e-07
      -3.74491890e-07 -5.15234717e-07 -3.74491890e-07 0. 0. 0. 0. 0. 0.
      0. 0. 0. 0. 0. 0. 0. 0. 0. 0. 0. 0. 0. 0. 0. 0. 0. 0. 0. 0. 0. 0.
      0. 0. 0. 0. 0. 0. 0. 0. 0. 0. 0. 0. 0. 0. 0. 0. 0. 0. 0. 0. 0. 0.
      0. 0. 0. 0. 0. 0. 0. 0. 0. 0. 0. 0. 0. 0. 0. 0. 0. 0. 0. 0. 0. 0.
      0. 0. 0. 0. 0. 0. 0. 0. 0. 0. 0. 0. 0. 0. 0. 0. 0. 0. 0. 0. 0. 0.
      0. 0. 0. 0. 0. 0. 0. 0. 0. 0. 0. 0. 0. 0. 0. 0. 0. 0. 0. 0. 0. 0.
      0. 0. 0. 0. 0. 0. 0. 0. 0. 0. 0. 0. 0.</_>
    <_>
      2.04363886e-07 0. 0. 5.77025219e-07 -7.72277872e-07 0.
      -8.41487164e-08 0. -8.41487164e-08 -2.06438744e-06 0. 0. 0. 0. 0.
      0. 0. 0. 0. 0. 0. 1.29210969e-06 9.93059948e-05 1.96930865e-04
      -1.00814483e-04 -1.96101391e-04 -1.96846711e-04 -1.94782333e-04 0.
      -1.37625841e-06 0. 0. 0. 0. 0. 0. 0. 0. 0. 0. -2.54815291e-06
      1.01902231e-04 1.96930865e-04 -2.88512609e-07 -1.01223210e-04
      -1.96930865e-04 0. -8.56426595e-07 -1.37625841e-06 -7.72277872e-07
      0. 0. 0. 0. 0. 0. 0. 0. 0. 0. 1.01102996e-04 1.95990287e-04
      -2.71050543e-20 -1.99808301e-06 -1.01102996e-04 -2.52446142e-07
      -6.88129205e-07 -1.46040713e-06 -8.41487164e-08 0. 0. 0. 0. 0. 0.
      0. 0. 0. 0. 0. 1.01586760e-04 9.22761174e-05 -9.32797120e-05
      -2.71050543e-20 9.65429499e-05 4.29854765e-07 0. 0.
      -6.88129205e-07 -1.10887277e-06 0. 0. 0. 0. 0. 0. 0. 0. 0. 0.
      7.72277872e-07 -1.94866472e-04 -9.49714449e-05 6.88129205e-07
      -1.01586760e-04 -1.96678418e-04 -1.95554603e-04 -1.37625841e-06 0.
      0. 0. 0. 0. 0. 0. 0. 0. 0. 0. 0. -1.06079051e-06 -1.94667940e-04
      -9.29642483e-05 -3.72661304e-07 -1.01364552e-04 -1.95067551e-04
      -1.96762572e-04 -1.94178341e-04 -2.21460523e-05 -6.88129205e-07 0.
      0. 0. 0. 0. 0. 0. 0. 0. 0. 0. -1.96131630e-04 -9.51758047e-05
      2.25817348e-05 9.36523793e-05 0. -1.96930865e-04 -1.96846711e-04
      -1.96930865e-04 -6.88129205e-07 0. 0. 0. 0. 0. 0. 0. 0. 0. 0.
      4.34466415e-07 -1.96189489e-04 -9.55754222e-05 1.95670204e-04
      9.46829314e-05 -1.11864836e-06 -8.41487164e-08 -1.96500347e-04
      -1.96930865e-04 0. 0. 0. 0. 0. 0. 0. 0. 0. 0. 0. -1.38087000e-06
      -1.94409004e-04 -9.50286340e-05 1.96158580e-04 9.43405030e-05
      -3.41758749e-07 -4.25907473e-07 -1.96930865e-04 -1.96158580e-04
      -7.72277872e-07 0. 0. 0. 0. 0. 0. 0. 0. 0. 0. -4.25907473e-07
      -1.96211826e-04 -9.37423538e-05 2.18042933e-05 9.42833140e-05
      -1.42006542e-07 -1.75472946e-04 -1.95732675e-04 -1.96930865e-04 0.
      0. 0. 0. 0. 0. 0. 0. 0. 0. 0. 1.59846638e-06 -1.09299144e-04
      -9.28893205e-05 -7.99233192e-07 -1.02274891e-04 -1.95333720e-04
      -1.96584500e-04 -1.96930865e-04 0. -1.54455574e-06 0. 0. 0. 0. 0.
      0. 0. 0. 0. 0. -1.71801707e-06 1.02243321e-04 9.99094191e-05
      4.20743589e-07 2.06438744e-06 -1.01209487e-04 -1.09267712e-04
      -1.02988793e-06 -2.31683362e-06 0. 0. 0. 0. 0. 0. 0. 0. 0. 0. 0.
      3.72661304e-07 7.99233192e-07 7.45322609e-07 -7.13867848e-07 0.
      -1.98090311e-06 -5.98816598e-07 0. 0. 0. 0. 0. 0. 0. 0. 0. 0. 0.
      0. 0. 0. 0. 0. 0. 0. 0. 0. 0. 0. 0. 0. 0. 0. 0. 0. 0. 0. 0. 0. 0.
      0. 0. 0. 0. 0. 0. 0. 0. 0. 0. 0. 0. 0. 0. 0. 0. 0. 0. 0. 0. 0. 0.
      0. 0. 0. 0. 0. 0. 0. 0. 0. 0. 0. 0. 0. 0. 0. 0. 0. 0. 0. 0. 0. 0.
      0. 0. 0. 0. 0. 0. 0. 0. 0. 0. 0. 0. 0. 0. 0. 0. 0. 0. 0. 0. 0. 0.
      0. 0. 0. 0. 0. 0. 0. 0. 0. 0. 0. 0. 0. 0. 0. 0. 0. 0. 0. 0. 0. 0.
      0. 0. 0. 0. 0. 0. 0. 0. 0. 0. 0. 0.</_>
    <_>
      5.60160970e-07 -8.39022334e-07 0. 1.12032194e-06 -2.51706706e-06
      0. 0. -1.67804467e-06 0. 0. 0. 0. 0. 0. 0. 0. 0. 0. 0. 0.
      -8.39022334e-07 -2.10594604e-04 -1.43398764e-04 8.39022334e-07
      -6.99917655e-05 -2.11991355e-04 -2.13950698e-04 -2.12272644e-04
      -2.13950698e-04 0. 0. 0. 0. 0. 0. 0. 0. 0. 0. 0. 5.60160970e-07
      -1.42841047e-04 2.71050543e-20 -5.60160970e-07 -6.94340415e-05
      -2.13111663e-04 -2.13950698e-04 -2.13111663e-04 -2.13950698e-04 0.
      0. 0. 0. 0. 0. 0. 0. 0. 0. 0. 7.05519269e-05 2.13950698e-04
      2.13950698e-04 2.10878337e-04 1.40881704e-04 -8.39022334e-07
      -2.13111663e-04 -2.12272644e-04 0. 0. 0. 0. 0. 0. 0. 0. 0. 0. 0.
      0. 7.16698123e-05 1.42002027e-04 7.08307925e-05 2.13950698e-04
      1.43956495e-04 1.68048291e-06 -2.12272644e-04 -2.13950698e-04 0.
      0. 0. 0. 0. 0. 0. 0. 0. 0. 0. 0. 8.39022334e-07 -2.51706706e-06
      7.13909467e-05 2.13950698e-04 1.38085772e-04 -2.13950698e-04
      -2.13950698e-04 0. 0. 0. 0. 0. 0. 0. 0. 0. 0. 0. 0. 0.
      -3.07722803e-06 2.24064388e-06 7.02706311e-05 2.13390536e-04
      1.42557299e-04 -2.11149891e-04 -2.13111663e-04 0. 0. 0. 0. 0. 0.
      0. 0. 0. 0. 0. 0. 0. 0. -2.81299577e-07 6.99917655e-05
      2.13950698e-04 -7.11096509e-05 -2.13950698e-04 -2.13111663e-04
      -1.67804467e-06 0. 0. 0. 0. 0. 0. 0. 0. 0. 0. 0. 0. 8.41460519e-07
      2.78861364e-07 7.05519269e-05 2.11154766e-04 -6.85950217e-05
      -2.13950698e-04 -1.67804467e-06 0. 0. 0. 0. 0. 0. 0. 0. 0. 0. 0.
      0. 0. 0. 5.57722728e-07 7.02706311e-05 2.13111663e-04
      -7.11096509e-05 -2.13950698e-04 0. -1.67804467e-06 0. 0. 0. 0. 0.
      0. 0. 0. 0. 0. 0. 0. -2.51706706e-06 -1.95690609e-06
      7.27901352e-05 2.71050543e-20 -6.97129071e-05 -2.10034443e-04
      -5.03413412e-06 0. 0. 0. 0. 0. 0. 0. 0. 0. 0. 0. 0. 0.
      1.11544546e-06 0. 7.11096509e-05 -5.57722728e-07 -7.08307925e-05
      1.12032194e-06 0. -2.51706706e-06 0. 0. 0. 0. 0. 0. 0. 0. 0. 0. 0.
      0. -8.39022334e-07 7.19511081e-05 -1.43398764e-04 8.39022334e-07
      8.39022334e-07 1.39484953e-04 0. 0. 0. 0. 0. 0. 0. 0. 0. 0. 0. 0.
      0. 0. 5.60160970e-07 5.57722728e-07 -5.57722728e-07 2.78861364e-07
      -4.19511161e-06 1.68048291e-06 0. -2.51706706e-06 0. 0. 0. 0. 0.
      0. 0. 0. 0. 0. 0. 0. 0. 0. 0. 0. 0. 0. 0. 0. 0. 0. 0. 0. 0. 0. 0.
      0. 0. 0. 0. 0. 0. 0. 0. 0. 0. 0. 0. 0. 0. 0. 0. 0. 0. 0. 0. 0. 0.
      0. 0. 0. 0. 0. 0. 0. 0. 0. 0. 0. 0. 0. 0. 0. 0. 0. 0. 0. 0. 0. 0.
      0. 0. 0. 0. 0. 0. 0. 0. 0. 0. 0. 0. 0. 0. 0. 0. 0. 0. 0. 0. 0. 0.
      0. 0. 0. 0. 0. 0. 0. 0. 0. 0. 0. 0. 0. 0. 0. 0. 0. 0. 0. 0. 0. 0.
      0. 0. 0. 0. 0. 0. 0. 0. 0. 0. 0. 0. 0. 0. 0. 0. 0.</_>
    <_>
      4.01287537e-08 -4.67153370e-07 0. -1.21488642e-06 -2.33576685e-07
      0. -1.23034363e-06 0. 0. -8.54517452e-07 -1.73504180e-08 0. 0. 0.
      0. 0. 0. 0. 0. 0. -1.68365841e-06 1.71369709e-06 1.03816419e-04
      1.12146081e-04 -1.03994847e-04 -2.17201974e-04 -2.18060450e-04
      -1.10960798e-04 -1.73504180e-08 -8.54517452e-07 0. 0. 0. 0. 0. 0.
      0. 0. 0. 0. -6.91820730e-07 1.04438070e-04 5.20220165e-05
      -4.44843266e-07 -1.03373197e-04 -2.17873108e-04 -2.18496381e-04
      -2.17795648e-04 -1.11128458e-04 -5.20512522e-08 0. 0. 0. 0. 0. 0.
      0. 0. 0. 0. 1.02132763e-04 1.11771405e-04 -4.19281309e-20
      1.04804858e-04 1.14025468e-04 -4.04714513e-07 -1.07333224e-04
      -2.18075467e-04 -1.10735898e-04 -2.21217829e-06 0. 0. 0. 0. 0. 0.
      0. 0. 0. 0. 1.04867897e-04 5.89945466e-06 -1.13613460e-04
      1.07333224e-04 1.14615905e-04 1.13217254e-06 -1.07566797e-04
      -2.18294022e-04 -1.11154484e-04 -8.54517452e-07 0. 0. 0. 0. 0. 0.
      0. 0. 0. 0. 6.54491259e-07 -1.07333224e-04 -1.12576570e-04
      -4.19281309e-20 2.52776499e-06 -1.82237466e-06 -1.07535576e-04
      -2.18496381e-04 -1.10735898e-04 0. -1.73504180e-08 0. 0. 0. 0. 0.
      0. 0. 0. 0. 4.12005278e-07 1.37465861e-06 -1.63240622e-06
      6.29381873e-07 -1.03873186e-04 -2.15431515e-04 -2.18029221e-04
      -1.10758439e-04 0. -4.27258726e-07 0. 0. 0. 0. 0. 0. 0. 0. 0. 0.
      0. 8.24010556e-07 -2.68388339e-06 -4.19281309e-20 -1.04594190e-04
      -2.18075467e-04 -2.17873108e-04 -2.18262794e-04 -1.11163157e-04
      -8.67520900e-09 0. 0. 0. 0. 0. 0. 0. 0. 0. 0. 1.33452977e-06
      -1.07154796e-04 -1.13183640e-04 1.07621949e-04 1.12069283e-04
      -6.23271831e-07 -1.07940294e-04 -2.17452194e-04 -2.18496381e-04
      -1.10727226e-04 0. 0. 0. 0. 0. 0. 0. 0. 0. 0. -4.35933941e-07
      -2.16738059e-04 -1.12811766e-04 1.06678730e-04 1.11767578e-04
      -2.02357256e-07 -4.67153370e-07 -1.07333224e-04 -2.18496381e-04
      -1.11163157e-04 0. 0. 0. 0. 0. 0. 0. 0. 0. 0. -6.07071797e-07
      -1.06326363e-04 -1.11866924e-04 1.07332038e-04 1.12342990e-04
      -8.64139281e-07 -1.06912310e-04 -2.18496381e-04 -2.18470348e-04
      -1.10308640e-04 -8.67520900e-09 0. 0. 0. 0. 0. 0. 0. 0. 0.
      5.26376425e-07 -1.07535576e-04 -1.12546964e-04 4.38733252e-07
      -1.05303829e-04 -2.16983419e-04 -2.18496381e-04 -2.18294022e-04
      -1.10308640e-04 -1.28177624e-06 0. 0. 0. 0. 0. 0. 0. 0. 0. 0.
      -4.04714513e-07 1.05461564e-04 1.04003753e-04 5.95620550e-05
      2.33576685e-07 -1.04594190e-04 -2.18075467e-04 -1.11569054e-04 0.
      -1.73504180e-08 0. 0. 0. 0. 0. 0. 0. 0. 0. 0. 2.39286759e-08
      1.54499915e-07 -7.77771788e-07 -8.90932572e-09 -2.33576685e-07
      1.10095311e-06 -1.68247766e-06 0. -4.20914603e-07 -1.70903490e-06
      -1.73504180e-08 0. 0. 0. 0. 0. 0. 0. 0. 0. 0. 0. 0. 0. 0. 0. 0. 0.
      0. 0. 0. 0. 0. 0. 0. 0. 0. 0. 0. 0. 0. 0. 0. 0. 0. 0. 0. 0. 0. 0.
      0. 0. 0. 0. 0. 0. 0. 0. 0. 0. 0. 0. 0. 0. 0. 0. 0. 0. 0. 0. 0. 0.
      0. 0. 0. 0. 0. 0. 0. 0. 0. 0. 0. 0. 0. 0. 0. 0. 0. 0. 0. 0. 0. 0.
      0. 0. 0. 0. 0. 0. 0. 0. 0. 0. 0. 0. 0. 0. 0. 0. 0. 0. 0. 0. 0. 0.
      0. 0. 0. 0. 0. 0. 0. 0. 0. 0. 0. 0. 0. 0. 0. 0. 0. 0. 0. 0. 0. 0.
      0. 0.</_>
    <_>
      -1.57832943e-07 -3.91270163e-07 0. -3.39094299e-08 0.
      -1.12938700e-07 -1.77483685e-06 -1.12938700e-07 -2.25877400e-07
      -3.49017796e-07 -1.17381046e-06 0. 0. 0. 0. 0. 0. 0. 0. 0.
      -1.40317127e-07 1.24449684e-06 9.84859362e-05 1.00027151e-04
      -9.97730240e-05 -2.16445464e-04 -2.15665539e-04 -1.00122910e-04 0.
      -8.95479047e-07 0. 0. 0. 0. 0. 0. 0. 0. 0. 0. -7.15551380e-07
      1.83599004e-05 1.12938700e-07 -4.59314634e-07 -9.97974203e-05
      -2.15656401e-04 -2.17572800e-04 -2.16509623e-04 -9.98868345e-05
      -8.10974313e-07 0. 0. 0. 0. 0. 0. 0. 0. 0. 0. 9.96597446e-05
      1.00399993e-04 2.04539447e-06 1.15730225e-04 1.16485986e-04 0.
      -1.18372744e-04 -2.17346926e-04 -1.88382168e-04 -9.97738898e-05
      -7.82540326e-07 0. 0. 0. 0. 0. 0. 0. 0. 0. 9.99852709e-05
      -6.73676141e-07 -1.16554227e-04 1.17798903e-04 1.17918338e-04
      9.60542593e-07 -8.21583526e-05 -1.17868534e-04 -2.16525747e-04
      -1.01282902e-04 0. 0. 0. 0. 0. 0. 0. 0. 0. 0. 7.06863261e-08
      -2.16190281e-04 -1.17059826e-04 1.18468510e-04 1.16203955e-04
      -8.55529436e-07 -6.60323785e-05 -1.17658587e-04 -2.17181529e-04
      -9.93403737e-05 0. 0. 0. 0. 0. 0. 0. 0. 0. 0. -4.75244093e-07
      -1.15735769e-04 -1.16871975e-04 1.17339594e-04 1.17107702e-04
      7.13260192e-07 -1.17317468e-04 -2.16398985e-04 -2.17572800e-04
      -9.97738898e-05 -1.17381046e-06 0. 0. 0. 0. 0. 0. 0. 0. 0. 0.
      -1.17402349e-04 -1.17127871e-04 8.08671530e-07 -9.97756651e-05
      -2.16816581e-04 -2.16398985e-04 -2.16666056e-04 -2.17346926e-04
      -1.00112709e-04 0. 0. 0. 0. 0. 0. 0. 0. 0. 0. 9.86673740e-07
      3.93912046e-07 -1.81391606e-05 2.23235531e-07 -1.00623271e-04
      -2.17110850e-04 -2.16790257e-04 -2.16832515e-04 -9.97738898e-05 0.
      0. 0. 0. 0. 0. 0. 0. 0. 0. 0. 0. -6.92751883e-07 9.90478802e-05
      2.16328306e-04 1.16427196e-04 -2.53124608e-06 -1.15951079e-04
      -2.17572800e-04 -9.97738898e-05 0. -1.95635084e-06 0. 0. 0. 0. 0.
      0. 0. 0. 0. -3.91270163e-07 -5.49103106e-07 1.00665522e-04
      2.17572800e-04 1.15980722e-04 -1.17339594e-04 -2.17223787e-04
      -1.00122910e-04 0. 0. 0. 0. 0. 0. 0. 0. 0. 0. 0. 0. 1.11369161e-06
      0. 9.96650269e-05 9.89015680e-05 -1.00681005e-04 -2.16541230e-04
      -1.28181986e-04 -9.97738898e-05 0. -1.95635084e-06 0. 0. 0. 0. 0.
      0. 0. 0. 0. 0. -1.56508065e-06 1.01363556e-04 -1.81391606e-05
      1.28674924e-06 3.49017796e-07 1.77426064e-05 0. -7.40287987e-07
      -3.91270163e-07 0. -7.82540326e-07 0. 0. 0. 0. 0. 0. 0. 0. 0.
      1.20498527e-07 -2.59229324e-07 2.31502142e-08 -1.08666393e-06
      -3.49017796e-07 1.03912782e-06 -3.91270163e-07 -1.12938700e-07 0.
      -3.91270163e-07 0. 0. 0. 0. 0. 0. 0. 0. 0. 0. 0. 0. 0. 0. 0. 0. 0.
      0. 0. 0. 0. 0. 0. 0. 0. 0. 0. 0. 0. 0. 0. 0. 0. 0. 0. 0. 0. 0. 0.
      0. 0. 0. 0. 0. 0. 0. 0. 0. 0. 0. 0. 0. 0. 0. 0. 0. 0. 0. 0. 0. 0.
      0. 0. 0. 0. 0. 0. 0. 0. 0. 0. 0. 0. 0. 0. 0. 0. 0. 0. 0. 0. 0. 0.
      0. 0. 0. 0. 0. 0. 0. 0. 0. 0. 0. 0. 0. 0. 0. 0. 0. 0. 0. 0. 0. 0.
      0. 0. 0. 0. 0. 0. 0. 0. 0. 0. 0. 0. 0. 0. 0. 0. 0. 0. 0. 0. 0. 0.
      0. 0. 0.</_>
    <_>
      5.18927436e-07 -5.71540113e-07 -1.62749700e-06 1.03785487e-06
      -1.20619211e-06 -5.27978443e-07 -3.15559134e-08 0. 0. 0. 0. 0. 0.
      0. 0. 0. 0. 0. 0. 0. -2.11191377e-06 2.13592534e-06 1.54873196e-04
      2.87852454e-04 -1.69585064e-06 -2.87386123e-04 -8.04675801e-06 0.
      0. 0. 0. 0. 0. 0. 0. 0. 0. 0. 0. 0. 3.92703782e-07 1.53326910e-04
      2.88423995e-04 2.86722876e-04 -1.53280213e-04 -2.87852454e-04 0.
      0. 0. 0. 0. 0. 0. 0. 0. 0. 0. 0. 0. 0. 1.54873196e-04
      2.87292904e-04 2.87852454e-04 2.83069559e-04 -1.54810084e-04
      -2.88329320e-04 -6.31118269e-08 0. 0. 0. 0. 0. 0. 0. 0. 0. 0. 0.
      0. 0. 1.56553302e-04 1.31798515e-04 1.55485337e-04 1.35525272e-20
      -1.53089364e-04 1.02880392e-06 0. 0. 0. 0. 0. 0. 0. 0. 0. 0. 0. 0.
      0. 0. 7.51176259e-08 -1.17463617e-06 1.55941161e-04 9.46677403e-08
      -1.56044873e-04 -1.80928816e-06 0. 0. 0. 0. 0. 0. 0. 0. 0. 0. 0.
      0. 0. 0. -4.87371551e-07 2.07570974e-06 -1.32326502e-04
      5.26126840e-08 1.33125082e-04 2.00354702e-06 0. 0. 0. 0. 0. 0. 0.
      0. 0. 0. 0. 0. 0. 0. -5.71540113e-07 -4.22753061e-07
      -1.30676490e-04 5.27978443e-07 1.31766967e-04 0. 0. 0. 0. 0. 0. 0.
      0. 0. 0. 0. 0. 0. 0. 0. 1.55678231e-06 -2.87811854e-04
      -1.33550799e-04 2.85549700e-04 1.31900786e-04 0. -3.15559134e-08
      0. 0. 0. 0. 0. 0. 0. 0. 0. 0. 0. 0. 0. 0. -2.87199684e-04
      -1.32326502e-04 2.87292904e-04 1.32326502e-04 -3.39322332e-06
      -6.31118269e-08 0. 0. 0. 0. 0. 0. 0. 0. 0. 0. 0. 0. 0. 0.
      -2.87905073e-04 -1.30769709e-04 2.87292904e-04 1.31288645e-04
      5.18927436e-07 0. 0. 0. 0. 0. 0. 0. 0. 0. 0. 0. 0. 0. 0.
      -2.85975402e-04 -2.88423995e-04 1.56097492e-04 2.87199684e-04
      1.28414351e-04 -9.32195690e-08 0. 0. 0. 0. 0. 0. 0. 0. 0. 0. 0. 0.
      0. 0. -2.87292904e-04 -1.30769709e-04 1.51479966e-04
      2.86161841e-04 2.88423995e-04 1.32326502e-04 -3.15559134e-08 0. 0.
      0. 0. 0. 0. 0. 0. 0. 0. 0. 0. 0. 5.18927436e-07 9.32195690e-08
      1.03785487e-06 6.12147005e-07 -1.13107444e-06 4.25707867e-07 0. 0.
      0. 0. 0. 0. 0. 0. 0. 0. 0. 0. 0. 0. 0. 0. 0. 0. 0. 0. 0. 0. 0. 0.
      0. 0. 0. 0. 0. 0. 0. 0. 0. 0. 0. 0. 0. 0. 0. 0. 0. 0. 0. 0. 0. 0.
      0. 0. 0. 0. 0. 0. 0. 0. 0. 0. 0. 0. 0. 0. 0. 0. 0. 0. 0. 0. 0. 0.
      0. 0. 0. 0. 0. 0. 0. 0. 0. 0. 0. 0. 0. 0. 0. 0. 0. 0. 0. 0. 0. 0.
      0. 0. 0. 0. 0. 0. 0. 0. 0. 0. 0. 0. 0. 0. 0. 0. 0. 0. 0. 0. 0. 0.
      0. 0. 0. 0. 0. 0. 0. 0. 0. 0. 0. 0. 0. 0. 0. 0. 0. 0. 0. 0. 0. 0.</_>
    <_>
      0. -2.09990361e-07 4.44867538e-07 2.48868197e-08 4.44867538e-07 0.
      4.44867538e-07 -6.79744744e-07 0. -1.35948949e-06 0. 0. 0. 0. 0.
      0. 0. 0. 0. 0. 7.04631532e-07 -1.71295673e-04 -5.98936822e-05
      -7.04631532e-07 -2.66815378e-20 -1.33460264e-06 4.19980722e-07
      -1.72865155e-04 -1.72655156e-04 -1.35948949e-06 0. 0. 0. 0. 0. 0.
      0. 0. 0. 0. 8.89735077e-07 -9.39508709e-07 -4.15046144e-20
      1.35948949e-06 -4.69754355e-07 6.79744744e-07 -2.66815378e-20
      4.69754355e-07 -6.79744744e-07 2.71897898e-06 0. 0. 0. 0. 0. 0. 0.
      0. 0. 0. 0. 1.72210290e-04 1.73100023e-04 -6.79744744e-07
      2.45921478e-06 -1.73334905e-04 -2.09990361e-07 1.72185406e-04
      -6.79744744e-07 0. 0. 0. 0. 0. 0. 0. 0. 0. 0. 0. -4.69754355e-07
      1.72865155e-04 1.72445172e-04 0. -1.73334905e-04 -1.73334905e-04
      1.72865155e-04 1.71975407e-04 1.71295673e-04 2.71897898e-06 0. 0.
      0. 0. 0. 0. 0. 0. 0. 0. 1.12461225e-06 1.68836457e-04
      1.71950524e-04 6.79744744e-07 -1.73334905e-04 -1.71530541e-04
      1.72890039e-04 1.73334905e-04 6.79744744e-07 -2.03923423e-06 0. 0.
      0. 0. 0. 0. 0. 0. 0. 0. -2.71897898e-06 2.24922451e-06
      4.44867538e-07 -1.72865155e-04 -1.71110572e-04 -1.73334905e-04
      -4.69754355e-07 1.72865155e-04 0. 2.03923423e-06 0. 0. 0. 0. 0. 0.
      0. 0. 0. 0. 4.44867538e-07 4.44867538e-07 -2.03923423e-06 0.
      -1.73100023e-04 1.12461225e-06 -4.44867538e-07 -1.72865155e-04
      6.79744744e-07 -1.35948949e-06 0. 0. 0. 0. 0. 0. 0. 0. 0. 0.
      4.44867538e-07 -3.37383676e-06 4.44867538e-07 0. 1.73334905e-04
      1.73100023e-04 -7.04631532e-07 -1.72865155e-04 -1.73334905e-04 0.
      0. 0. 0. 0. 0. 0. 0. 0. 0. 0. 2.48868197e-08 2.22433778e-06
      2.48868197e-08 1.13441223e-04 1.72420274e-04 1.71320557e-04
      -1.71740539e-04 -1.71530541e-04 -1.72647022e-04 -8.13093948e-09 0.
      0. 0. 0. 0. 0. 0. 0. 0. 0. 0. -1.72160522e-04 -5.98936822e-05
      1.73334905e-04 1.72890039e-04 0. -1.72655156e-04 -1.72655156e-04
      -2.07338962e-06 0. 0. 0. 0. 0. 0. 0. 0. 0. 0. 0. 6.54857899e-07
      -1.73100023e-04 1.09972541e-06 -6.79744744e-07 -2.66815378e-20
      -2.34877177e-07 -2.09990361e-07 6.79744744e-07 1.73334905e-04
      -3.37433084e-06 0. 0. 0. 0. 0. 0. 0. 0. 0. 0. -6.79744744e-07
      1.72890039e-04 -2.66815378e-20 -2.34877177e-07 2.03923423e-06
      -4.44867538e-07 -1.38437622e-06 1.71530541e-04 1.72638902e-04 0.
      0. 0. 0. 0. 0. 0. 0. 0. 0. 0. 8.89735077e-07 -2.34877177e-07
      -6.79744744e-07 0. -2.03923423e-06 1.14949910e-06 7.04631532e-07
      -6.79744744e-07 0. -6.71613805e-07 0. 0. 0. 0. 0. 0. 0. 0. 0. 0.
      0. 0. 0. 0. 0. 0. 0. 0. 0. 0. 0. 0. 0. 0. 0. 0. 0. 0. 0. 0. 0. 0.
      0. 0. 0. 0. 0. 0. 0. 0. 0. 0. 0. 0. 0. 0. 0. 0. 0. 0. 0. 0. 0. 0.
      0. 0. 0. 0. 0. 0. 0. 0. 0. 0. 0. 0. 0. 0. 0. 0. 0. 0. 0. 0. 0. 0.
      0. 0. 0. 0. 0. 0. 0. 0. 0. 0. 0. 0. 0. 0. 0. 0. 0. 0. 0. 0. 0. 0.
      0. 0. 0. 0. 0. 0. 0. 0. 0. 0. 0. 0. 0. 0. 0. 0. 0. 0. 0. 0. 0. 0.
      0. 0. 0. 0. 0. 0. 0. 0. 0. 0.</_>
    <_>
      0. 9.17267528e-07 -1.54848067e-07 1.83834698e-06 -4.58214060e-07
      -1.54008674e-07 -1.37464212e-06 -1.54848067e-07 -8.07193601e-09
      -2.68508728e-07 0. 0. 0. 0. 0. 0. 0. 0. 0. 0. -3.76470707e-05 0.
      -1.16311719e-06 1.54493333e-04 1.55872622e-04 1.54848067e-07
      -2.44973035e-06 -1.55103044e-04 -1.55784393e-04 -1.45203717e-06 0.
      0. 0. 0. 0. 0. 0. 0. 0. 0. -3.09696134e-07 1.53419533e-04
      1.55105561e-04 1.55866292e-04 1.53881105e-04 1.22444544e-06
      9.16428121e-07 4.61186630e-07 -4.02344522e-05 -2.10746531e-08 0.
      0. 0. 0. 0. 0. 0. 0. 0. 0. -4.58214060e-07 1.56330847e-04
      1.55716945e-04 0. -1.55563772e-04 -1.56330003e-04 3.09696134e-07
      1.06662480e-06 -4.43125288e-07 0. 0. 0. 0. 0. 0. 0. 0. 0. 0. 0.
      -4.58214060e-07 1.55105561e-04 1.55092057e-04 -1.37464212e-06
      -1.55562928e-04 -1.54954512e-04 -9.18946284e-07 -6.12222721e-07
      1.11575343e-06 -9.57681863e-08 0. 0. 0. 0. 0. 0. 0. 0. 0. 0.
      3.03365994e-07 1.55414411e-04 1.53577741e-04 -1.54802183e-04
      -1.56329159e-04 6.12222721e-07 9.16428121e-07 9.14749364e-07
      1.70830276e-07 -6.25725932e-07 0. 0. 0. 0. 0. 0. 0. 0. 0. 0. 0.
      1.06959737e-06 5.75163384e-08 -1.55103873e-04 -1.55872622e-04 0.
      -9.14749364e-07 -1.22444544e-06 -3.87851505e-05 -8.91569059e-08 0.
      0. 0. 0. 0. 0. 0. 0. 0. 0. 0. 0. -1.55870948e-04 -1.56175985e-04
      4.59053439e-07 1.55718619e-04 9.15588714e-07 -1.54493333e-04
      -8.80422562e-08 -2.42205402e-07 0. 0. 0. 0. 0. 0. 0. 0. 0. 0.
      -6.13062127e-07 6.33295144e-07 -1.54491659e-04 -1.56330847e-04
      6.13062127e-07 -6.13062127e-07 -3.03495327e-08 -1.56310605e-04
      -1.55717775e-04 -1.56175985e-04 0. 0. 0. 0. 0. 0. 0. 0. 0. 0.
      1.23624079e-06 -1.56330847e-04 -1.55697548e-04 -1.35358607e-06
      -6.13062127e-07 6.13062127e-07 -1.56300492e-04 -1.55727888e-04
      -1.55717775e-04 -1.55414411e-04 0. 0. 0. 0. 0. 0. 0. 0. 0. 0.
      -6.13062127e-07 1.25647375e-06 0. 1.56330847e-04 1.53919056e-04
      -2.45224851e-06 -1.55717775e-04 -1.55104717e-04 -1.16386371e-04
      -2.29107036e-06 0. 0. 0. 0. 0. 0. 0. 0. 0. 0. -6.23178607e-07
      1.21600772e-06 1.55687434e-04 1.52079869e-04 1.55717775e-04
      1.55707661e-04 1.40607469e-19 -1.20589118e-06 1.40607469e-19
      -1.54848067e-07 0. 0. 0. 0. 0. 0. 0. 0. 0. 0. -6.13062127e-07
      1.54511887e-04 1.55717775e-04 1.56320719e-04 1.56330847e-04
      1.56330847e-04 -6.43411624e-07 -5.92829110e-07 4.58214060e-07 0.
      0. 0. 0. 0. 0. 0. 0. 0. 0. 0. 0. 2.41178236e-06 -1.22612425e-06
      -6.13062127e-07 -1.22612425e-06 -5.82712573e-07 1.23624079e-06
      5.92829110e-07 0. 0. 0. 0. 0. 0. 0. 0. 0. 0. 0. 0. 0. 0. 0. 0. 0.
      0. 0. 0. 0. 0. 0. 0. 0. 0. 0. 0. 0. 0. 0. 0. 0. 0. 0. 0. 0. 0. 0.
      0. 0. 0. 0. 0. 0. 0. 0. 0. 0. 0. 0. 0. 0. 0. 0. 0. 0. 0. 0. 0. 0.
      0. 0. 0. 0. 0. 0. 0. 0. 0. 0. 0. 0. 0. 0. 0. 0. 0. 0. 0. 0. 0. 0.
      0. 0. 0. 0. 0. 0. 0. 0. 0. 0. 0. 0. 0. 0. 0. 0. 0. 0. 0. 0. 0. 0.
      0. 0. 0. 0. 0. 0. 0. 0. 0. 0. 0. 0. 0. 0. 0. 0. 0. 0. 0. 0. 0. 0.
      0. 0. 0. 0. 0.</_>
    <_>
      -4.76454602e-07 1.10796407e-07 5.65300581e-07 -1.61227103e-06
      3.06615533e-07 5.98233783e-07 -5.28371345e-07 2.58685048e-07 0. 0.
      0. 0. 0. 0. 0. 0. 0. 0. 0. 0. -6.77098724e-05 -8.45131808e-07
      -7.41392068e-05 1.85535566e-06 -5.42101086e-20 -9.40472262e-07
      2.19216147e-07 -2.27807614e-04 -6.76554409e-05 -2.68829950e-07
      -5.37659901e-07 0. 0. 0. 0. 0. 0. 0. 0. 0. 1.12045620e-06
      2.26238524e-04 6.89830995e-05 -5.42101086e-20 3.46382279e-07
      -5.96066343e-08 5.37659901e-07 1.47518938e-06 -6.85516352e-05
      2.43081536e-06 0. 0. 0. 0. 0. 0. 0. 0. 0. 0. -2.78974852e-07
      1.20312237e-04 6.83985636e-05 -6.87081993e-05 -6.79766817e-05
      2.98033171e-08 2.27915778e-04 2.25824697e-04 7.35645299e-05
      -8.06489822e-07 -2.68829950e-07 0. 0. 0. 0. 0. 0. 0. 0. 0.
      1.93493506e-07 6.85470222e-05 -4.31888736e-07 -6.85516352e-05
      7.76055117e-07 -8.36585571e-07 2.25892290e-04 2.27921308e-04
      2.27313591e-04 2.43081536e-06 -8.06489822e-07 0. 0. 0. 0. 0. 0. 0.
      0. 0. 3.72309103e-07 6.72639726e-05 -9.03264834e-07
      -2.27662618e-04 -2.26521617e-04 -1.72238229e-04 1.59100106e-04
      2.27096752e-04 3.38873861e-07 -5.37659901e-07 0. 0. 0. 0. 0. 0. 0.
      0. 0. 0. -1.64596497e-06 -1.57728995e-04 -1.52382927e-04
      -2.27371114e-04 -2.26219869e-04 -2.28529010e-04 1.39666085e-07
      -3.94551904e-07 -6.82631508e-05 1.82311146e-06 -2.68829950e-07 0.
      0. 0. 0. 0. 0. 0. 0. 0. 1.50051264e-07 -1.37233474e-06
      -1.25632312e-06 0. -4.78780237e-07 6.80872254e-05 8.33187173e-08
      -2.27658005e-04 -6.79439327e-05 0. -1.34414972e-06 0. 0. 0. 0. 0.
      0. 0. 0. 0. 2.96470631e-07 -1.58535727e-06 3.57675930e-07
      -5.37659901e-07 2.28529010e-04 2.27514029e-04 6.78559954e-05
      -2.27926823e-04 -2.28260178e-04 -6.82828031e-05 -8.06489822e-07 0.
      0. 0. 0. 0. 0. 0. 0. 0. 5.43133922e-07 1.75118316e-06
      5.13330576e-07 1.51336251e-04 2.27509547e-04 2.26413365e-04
      -1.59287651e-04 -2.26349148e-04 -2.27632816e-04 -6.85516352e-05 0.
      0. 0. 0. 0. 0. 0. 0. 0. 0. 0. -2.26963952e-04 -8.43773596e-05
      1.59977368e-04 2.27429249e-04 -2.07624652e-07 -1.59081173e-04
      -2.27486395e-04 -6.80139783e-05 0. -2.68829950e-07 0. 0. 0. 0. 0.
      0. 0. 0. 0. 7.68307586e-07 -1.59616669e-04 2.32680947e-07
      -3.92531490e-07 5.37659901e-07 -3.01088278e-07 1.19635033e-07
      8.97790812e-07 1.59977368e-04 -3.13681107e-06 -2.68829950e-07 0.
      0. 0. 0. 0. 0. 0. 0. 0. -4.19737574e-07 2.27097611e-04
      6.85516352e-05 -3.01088278e-07 1.25921270e-06 -2.96470631e-07
      5.16824912e-05 1.58512979e-04 2.27901648e-04 -5.37659901e-07 0. 0.
      0. 0. 0. 0. 0. 0. 0. 0. 5.92941262e-07 -3.58097708e-07
      -6.88567525e-07 0. -1.46683738e-06 1.46856542e-06 1.32372847e-07
      -3.60130940e-07 -2.68829950e-07 -6.27362226e-07 -2.68829950e-07 0.
      0. 0. 0. 0. 0. 0. 0. 0. 0. 0. 0. 0. 0. 0. 0. 0. 0. 0. 0. 0. 0. 0.
      0. 0. 0. 0. 0. 0. 0. 0. 0. 0. 0. 0. 0. 0. 0. 0. 0. 0. 0. 0. 0. 0.
      0. 0. 0. 0. 0. 0. 0. 0. 0. 0. 0. 0. 0. 0. 0. 0. 0. 0. 0. 0. 0. 0.
      0. 0. 0. 0. 0. 0. 0. 0. 0. 0. 0. 0. 0. 0. 0. 0. 0. 0. 0. 0. 0. 0.
      0. 0. 0. 0. 0. 0. 0. 0. 0. 0. 0. 0. 0. 0. 0. 0. 0. 0. 0. 0. 0. 0.
      0. 0. 0. 0. 0. 0. 0. 0. 0. 0. 0. 0. 0. 0. 0. 0. 0. 0.</_>
    <_>
      -6.59918783e-07 6.43518206e-07 2.89966692e-07 -5.39940629e-07
      -3.25670783e-07 8.28698944e-07 -1.07422909e-06 2.85678055e-07
      -8.18779142e-08 -1.53530561e-06 0. 0. 0. 0. 0. 0. 0. 0. 0. 0.
      6.61519891e-07 -7.18367744e-07 -7.69558426e-07 1.50168969e-04
      1.41676146e-08 -7.83115865e-07 -8.70592146e-07 -1.50442531e-04
      5.93646462e-07 -1.02353715e-06 0. 0. 0. 0. 0. 0. 0. 0. 0. 0.
      2.05692615e-07 1.49551270e-04 1.49252926e-04 3.44127017e-07
      2.29462103e-07 5.13206544e-07 1.51309010e-04 1.50697189e-04
      -1.02353715e-06 6.38227164e-07 0. 0. 0. 0. 0. 0. 0. 0. 0. 0.
      2.43175208e-07 1.49600965e-04 9.43917485e-07 -1.50434251e-04
      -1.51054730e-04 -9.89878231e-07 1.51121756e-04 1.49372136e-04
      7.27660226e-05 0. 0. 0. 0. 0. 0. 0. 0. 0. 0. 0. -2.40942200e-07
      1.50522974e-04 -5.21484424e-07 -1.50880805e-04 2.77555301e-07
      -2.63687070e-07 1.50172797e-04 1.51071887e-04 1.50252148e-04
      3.10715535e-07 0. 0. 0. 0. 0. 0. 0. 0. 0. 0. 5.97935070e-07
      2.32364954e-07 -5.52744723e-07 -1.50743697e-04 -1.51379849e-04
      -1.48701132e-04 -4.28862545e-09 8.43891685e-05 3.07968406e-07 0.
      0. 0. 0. 0. 0. 0. 0. 0. 0. 0. -8.28998282e-07 -1.49912172e-04
      -7.85276570e-05 -1.50486812e-04 -1.49323678e-04 -1.51379849e-04
      -5.18796867e-07 -5.50689094e-07 -2.11049592e-05 4.12136700e-07 0.
      0. 0. 0. 0. 0. 0. 0. 0. 0. 2.61631442e-07 -1.51347223e-04
      -1.50375810e-04 -4.58845216e-06 2.75344547e-07 1.50005770e-04
      2.45230837e-07 -1.50442531e-04 -1.51071887e-04 -5.11768576e-07 0.
      0. 0. 0. 0. 0. 0. 0. 0. 0. 2.89966692e-07 -1.50468812e-04
      -1.50844251e-04 -9.23605853e-07 1.51116168e-04 1.50498134e-04
      1.50123247e-04 -1.50442531e-04 -1.51379849e-04 0. 0. 0. 0. 0. 0.
      0. 0. 0. 0. 0. 1.66794919e-07 -1.49185769e-04 -1.49941436e-04
      7.39415045e-05 1.50564403e-04 1.50509950e-04 8.81720666e-07
      -1.50826192e-04 -1.50192558e-04 -5.93646462e-07 0. 0. 0. 0. 0. 0.
      0. 0. 0. 0. -6.09252027e-07 -1.48822306e-04 -7.72745916e-05
      2.11269507e-05 1.51089887e-04 -1.20289849e-06 -1.29643653e-04
      -1.50968015e-04 -1.51379849e-04 0. 0. 0. 0. 0. 0. 0. 0. 0. 0. 0.
      8.69900020e-07 -8.80478692e-05 -8.84759743e-07 -3.29959391e-07
      1.35525272e-20 3.87450172e-07 -3.31851879e-07 1.35525272e-20
      1.51379849e-04 -1.18729292e-06 0. 0. 0. 0. 0. 0. 0. 0. 0. 0.
      -4.96162954e-07 1.49984466e-04 1.51216096e-04 1.05709788e-07
      1.00793147e-06 2.06196290e-07 -1.09284849e-06 1.50841806e-04
      1.49598913e-04 0. 0. 0. 0. 0. 0. 0. 0. 0. 0. 0. 5.79933385e-07
      2.89966692e-07 -2.63687070e-07 -9.05552554e-07 -2.63687070e-07
      -3.94013817e-08 -3.73737066e-07 0. 0. 0. 0. 0. 0. 0. 0. 0. 0. 0.
      0. 0. 0. 0. 0. 0. 0. 0. 0. 0. 0. 0. 0. 0. 0. 0. 0. 0. 0. 0. 0. 0.
      0. 0. 0. 0. 0. 0. 0. 0. 0. 0. 0. 0. 0. 0. 0. 0. 0. 0. 0. 0. 0. 0.
      0. 0. 0. 0. 0. 0. 0. 0. 0. 0. 0. 0. 0. 0. 0. 0. 0. 0. 0. 0. 0. 0.
      0. 0. 0. 0. 0. 0. 0. 0. 0. 0. 0. 0. 0. 0. 0. 0. 0. 0. 0. 0. 0. 0.
      0. 0. 0. 0. 0. 0. 0. 0. 0. 0. 0. 0. 0. 0. 0. 0. 0. 0. 0. 0. 0. 0.
      0. 0. 0. 0. 0. 0. 0. 0. 0. 0. 0. 0.</_>
    <_>
      0. 1.83685131e-07 4.73914014e-07 1.95545226e-06 -2.90761659e-06
      4.33630953e-09 4.73914014e-07 -2.25435360e-06 0. 0. 0. 0. 0. 0. 0.
      0. 0. 0. 0. 0. 8.32611647e-07 -2.85175745e-04 -1.65489269e-04
      -8.23939047e-07 1.12717680e-06 -2.94565183e-07 -2.60004231e-06
      -2.83860543e-04 -2.86459719e-04 0. 0. 0. 0. 0. 0. 0. 0. 0. 0. 0.
      9.47828028e-07 -2.61738774e-06 -1.12284056e-06 5.42101086e-20
      -1.29351668e-06 1.11850420e-06 5.42101086e-20 1.62003587e-07
      -2.87116505e-04 3.26420445e-06 0. 0. 0. 0. 0. 0. 0. 0. 0. 0. 0.
      2.86956172e-04 2.86772498e-04 0. -3.63033962e-07 -1.12284056e-06
      1.79348817e-07 9.56500685e-07 3.93552036e-05 0. 0. 0. 0. 0. 0. 0.
      0. 0. 0. 0. 9.47828028e-07 2.85000715e-04 2.86482275e-04 0. 0.
      8.67261907e-09 9.34819070e-07 -1.12284056e-06 2.85797985e-04
      3.26420445e-06 0. 0. 0. 0. 0. 0. 0. 0. 0. 0. 1.60109084e-06
      2.82152905e-04 2.85483315e-04 1.12284056e-06 -5.62721152e-06
      -2.85833346e-04 -4.73914014e-07 2.87421426e-04 4.06411164e-05 0.
      0. 0. 0. 0. 0. 0. 0. 0. 0. 0. -4.50870721e-06 3.19350897e-06
      4.43823524e-07 1.31086199e-06 2.36956998e-06 -2.87430099e-04
      -1.70676202e-07 2.86132243e-04 1.54334131e-07 2.44815328e-06 0. 0.
      0. 0. 0. 0. 0. 0. 0. 0. 4.73914014e-07 -6.53262816e-07
      -1.11850420e-06 0. -2.86772498e-04 -6.48926516e-07 6.48926516e-07
      -9.56500685e-07 8.16051113e-07 3.13583200e-07 0. 0. 0. 0. 0. 0. 0.
      0. 0. 0. -9.60052262e-07 2.25790518e-06 -2.02660635e-06
      -9.09341082e-08 1.21245478e-07 -9.60052262e-07 2.85422691e-04
      1.29785303e-06 0. 0. 0. 0. 0. 0. 0. 0. 0. 0. 0. 0. 2.56903104e-06
      -3.55183897e-06 2.22759400e-06 1.17566371e-04 1.23367874e-06
      1.69235716e-06 -1.00956765e-06 4.17627575e-07 1.12717680e-06 0. 0.
      0. 0. 0. 0. 0. 0. 0. 0. 0. -9.09341082e-08 3.77594984e-06
      3.93261762e-05 3.29059640e-06 -1.32069340e-06 -2.85115122e-04
      -1.24842234e-06 0. 0. 0. 0. 0. 0. 0. 0. 0. 0. 0. 0. 0.
      -1.38123141e-06 -9.22552999e-07 2.84523267e-04 -1.27481428e-06
      3.03113694e-08 9.27420388e-06 2.87095841e-04 2.86716910e-04
      2.87430099e-04 0. 0. 0. 0. 0. 0. 0. 0. 0. 0. 0. -3.03113694e-08
      2.86610419e-04 5.42101086e-20 4.78250342e-07 3.32090781e-06
      2.86044873e-04 2.83259258e-04 2.86640716e-04 2.87430099e-04 0. 0.
      0. 0. 0. 0. 0. 0. 0. 0. 0. -4.05321271e-06 3.14762019e-07
      -6.06227388e-08 0. -1.24842234e-06 -1.17669231e-06 2.56903104e-06
      -1.66241364e-06 0. 0. 0. 0. 0. 0. 0. 0. 0. 0. 0. 0. 0. 0. 0. 0. 0.
      0. 0. 0. 0. 0. 0. 0. 0. 0. 0. 0. 0. 0. 0. 0. 0. 0. 0. 0. 0. 0. 0.
      0. 0. 0. 0. 0. 0. 0. 0. 0. 0. 0. 0. 0. 0. 0. 0. 0. 0. 0. 0. 0. 0.
      0. 0. 0. 0. 0. 0. 0. 0. 0. 0. 0. 0. 0. 0. 0. 0. 0. 0. 0. 0. 0. 0.
      0. 0. 0. 0. 0. 0. 0. 0. 0. 0. 0. 0. 0. 0. 0. 0. 0. 0. 0. 0. 0. 0.
      0. 0. 0. 0. 0. 0. 0. 0. 0. 0. 0. 0. 0. 0. 0. 0. 0. 0. 0. 0. 0. 0.
      0. 0. 0. 0. 0.</_>
    <_>
      -3.49550817e-07 9.00498833e-07 7.13730174e-07 -2.43247996e-06
      -8.34824121e-08 1.84326746e-06 -1.28178692e-06 6.14422504e-07 0.
      -6.76598461e-07 -3.85325762e-08 0. 0. 0. 0. 0. 0. 0. 0. 0.
      -1.75048694e-06 6.14422504e-07 2.52558930e-05 9.17669022e-05
      8.64783033e-07 -2.40606232e-06 -9.45747558e-07 -9.03527762e-05
      2.19725251e-07 -6.76598461e-07 0. 0. 0. 0. 0. 0. 0. 0. 0. 0.
      1.13594706e-06 2.61698471e-04 4.35957409e-05 -5.42101086e-20
      -3.86784876e-07 8.56768338e-07 -5.42101086e-20 3.49754941e-07
      -9.09035298e-05 -1.15597736e-07 0. 0. 0. 0. 0. 0. 0. 0. 0. 0.
      -2.79554229e-06 9.16466743e-05 -3.25828267e-07 -8.95081175e-05
      6.39576683e-07 -3.49550817e-07 9.09805967e-05 -1.19850858e-06
      -2.49851637e-05 -4.91290348e-06 0. 0. 0. 0. 0. 0. 0. 0. 0. 0.
      -3.33725552e-07 9.03527762e-05 -1.85909278e-06 -9.11792085e-05
      1.47768731e-06 -1.74775408e-07 8.91159143e-05 -2.50360557e-07
      1.92662881e-08 -6.76598461e-07 0. 0. 0. 0. 0. 0. 0. 0. 0. 0.
      9.64090759e-07 9.07819776e-05 5.40589511e-08 -2.64047849e-04
      -9.06308414e-05 -2.54449581e-08 9.09051232e-05 -5.42101086e-20
      -6.56167540e-05 0. -3.85325762e-08 0. 0. 0. 0. 0. 0. 0. 0. 0. 0.
      6.99336510e-07 -1.59419451e-05 -2.62931426e-04 -2.61383626e-04
      -2.64380302e-04 -1.51492134e-06 1.73606095e-04 2.58257842e-07
      -3.38299230e-07 0. 0. 0. 0. 0. 0. 0. 0. 0. 0. 7.13730174e-07
      9.93076981e-08 -1.73908193e-04 -2.65087408e-04 -2.64395989e-04
      -8.72680346e-07 7.57460668e-07 -2.64252973e-04 -9.11792085e-05
      1.79349115e-07 0. 0. 0. 0. 0. 0. 0. 0. 0. 0. 7.13730174e-07
      -1.73113498e-04 -2.64190894e-04 -9.06308414e-05 2.64039845e-04
      2.63904803e-04 8.96774000e-05 -2.63578986e-04 -2.65087408e-04
      -9.08216462e-05 0. 0. 0. 0. 0. 0. 0. 0. 0. 0. -1.42605950e-06
      -2.60787609e-04 -2.63935159e-04 9.09967639e-05 2.64412025e-04
      2.62089452e-04 2.03936497e-06 -1.73194465e-04 -2.63365859e-04
      -9.18612059e-05 0. 0. 0. 0. 0. 0. 0. 0. 0. 0. -1.20631921e-06
      -1.69417457e-04 -8.29034179e-05 1.73933324e-04 2.61470937e-04
      -3.65580235e-07 -1.72868647e-04 -2.65087408e-04 -2.65029608e-04
      -9.05026100e-05 -1.92662881e-08 0. 0. 0. 0. 0. 0. 0. 0. 0.
      9.10827282e-07 -1.73075154e-04 -9.37732864e-07 -1.03955847e-06
      2.90274716e-06 5.30940099e-07 -1.42746035e-06 1.53876124e-06
      1.74584799e-04 -2.37888366e-06 0. 0. 0. 0. 0. 0. 0. 0. 0. 0.
      -3.49550817e-07 2.62960530e-04 9.23604020e-05 4.90136226e-05
      1.82790117e-07 1.69782879e-06 -2.01704324e-06 1.73552035e-04
      2.63041438e-04 -3.85325762e-08 0. 0. 0. 0. 0. 0. 0. 0. 0. 0.
      1.42746035e-06 1.73374559e-07 -1.03154377e-06 -1.36398592e-06
      -1.82790117e-07 -5.37553944e-07 2.70368446e-07 -1.36398592e-06 0.
      -1.35319692e-06 -3.85325762e-08 0. 0. 0. 0. 0. 0. 0. 0. 0. 0. 0.
      0. 0. 0. 0. 0. 0. 0. 0. 0. 0. 0. 0. 0. 0. 0. 0. 0. 0. 0. 0. 0. 0.
      0. 0. 0. 0. 0. 0. 0. 0. 0. 0. 0. 0. 0. 0. 0. 0. 0. 0. 0. 0. 0. 0.
      0. 0. 0. 0. 0. 0. 0. 0. 0. 0. 0. 0. 0. 0. 0. 0. 0. 0. 0. 0. 0. 0.
      0. 0. 0. 0. 0. 0. 0. 0. 0. 0. 0. 0. 0. 0. 0. 0. 0. 0. 0. 0. 0. 0.
      0. 0. 0. 0. 0. 0. 0. 0. 0. 0. 0. 0. 0. 0. 0. 0. 0. 0. 0. 0. 0. 0.
      0. 0. 0. 0. 0. 0. 0. 0.</_>
    <_>
      -1.77881850e-06 8.70719873e-07 3.69454682e-07 2.38106372e-06
      -2.71922289e-07 -5.84005839e-08 -1.78236314e-06 -5.19954540e-07
      -1.55820408e-06 -1.19799643e-06 -1.06337632e-08 0. 0. 0. 0. 0. 0.
      0. 0. 0. 9.38549874e-07 -5.19954540e-07 3.20405775e-07
      6.83775143e-05 5.43844578e-07 -1.19526271e-06 2.17391630e-06
      -6.78270444e-05 7.74098680e-07 -7.86191208e-07 0. 0. 0. 0. 0. 0.
      0. 0. 0. 0. -6.70454426e-07 6.63777246e-05 5.36071184e-07
      7.08917502e-09 -2.10228472e-06 8.79007985e-07 2.16840434e-19
      2.51119701e-07 -7.06323772e-05 2.46665309e-06 -1.63153379e-06 0.
      0. 0. 0. 0. 0. 0. 0. 0. -9.97245934e-07 6.98746007e-05
      -2.56777497e-07 -6.96026764e-05 -3.71110758e-07 5.20064480e-09
      7.02440520e-05 -5.40532483e-07 2.21477626e-06 -9.03869818e-07
      -7.08917502e-09 0. 0. 0. 0. 0. 0. 0. 0. 0. -8.89409250e-07
      6.86548665e-05 1.55986368e-06 -6.99650409e-05 2.81963452e-07
      3.31211480e-09 6.78951546e-05 9.91884548e-08 -9.34952084e-07
      -6.83887920e-05 -8.15766896e-07 0. 0. 0. 0. 0. 0. 0. 0. 0.
      3.45564672e-07 2.71922289e-07 -2.36002870e-06 -6.88825530e-05
      -8.79007985e-07 -5.21610616e-07 7.11334651e-05 2.61520995e-07
      -1.97013505e-04 -6.87841602e-05 0. 0. 0. 0. 0. 0. 0. 0. 0. 0.
      -3.56118153e-06 -2.23440104e-04 -2.00627299e-04 -6.82785540e-05
      2.89052622e-07 -3.55763700e-06 7.14717098e-05 -1.57335239e-06
      -2.96375511e-04 -6.79373625e-05 -1.06337632e-08 0. 0. 0. 0. 0. 0.
      0. 0. 0. 3.65910097e-07 -2.27071287e-04 -2.96761078e-04
      -2.96764396e-04 -2.95963779e-04 1.41101987e-06 1.88853022e-09
      -2.95191043e-04 -2.94444384e-04 -7.11371031e-05 0. 0. 0. 0. 0. 0.
      0. 0. 0. 0. -2.75466874e-07 1.96376277e-06 -2.26799355e-04
      -2.94989120e-04 2.16840434e-19 -2.75466874e-07 -6.47396348e-07
      -2.95969046e-04 -7.02440520e-05 0. 0. 0. 0. 0. 0. 0. 0. 0. 0. 0.
      2.72919556e-06 -5.50933748e-07 -6.41456268e-07 1.94909895e-04
      2.95878534e-04 2.93887249e-04 -2.22043396e-04 -2.96277984e-04
      -6.90791785e-05 0. -1.37733434e-06 0. 0. 0. 0. 0. 0. 0. 0. 0.
      -2.75466874e-07 1.19833010e-06 -8.89409250e-07 2.97043414e-04
      2.92202865e-04 -2.26799355e-04 -2.95878534e-04 -7.02440520e-05 0.
      0. 0. 0. 0. 0. 0. 0. 0. 0. 0. 0. -1.23976477e-07 1.93030883e-06
      2.94129277e-04 6.54665128e-05 1.77881850e-06 4.89965885e-07
      2.75466874e-07 2.25268494e-04 2.97043414e-04 -1.37733434e-06 0. 0.
      0. 0. 0. 0. 0. 0. 0. 0. -1.10186750e-06 2.94623140e-04
      7.02440520e-05 1.31636648e-06 2.16840434e-19 2.27074823e-04
      2.94680212e-04 2.95237085e-04 2.96767947e-04 0. -5.50933748e-07 0.
      0. 0. 0. 0. 0. 0. 0. 0. -2.66822781e-06 3.06173115e-06
      -1.44034300e-06 -5.50933748e-07 0. -1.46989771e-06 2.45372871e-06
      6.41456268e-07 0. -2.75466874e-07 0. 0. 0. 0. 0. 0. 0. 0. 0. 0. 0.
      0. 0. 0. 0. 0. 0. 0. 0. 0. 0. 0. 0. 0. 0. 0. 0. 0. 0. 0. 0. 0. 0.
      0. 0. 0. 0. 0. 0. 0. 0. 0. 0. 0. 0. 0. 0. 0. 0. 0. 0. 0. 0. 0. 0.
      0. 0. 0. 0. 0. 0. 0. 0. 0. 0. 0. 0. 0. 0. 0. 0. 0. 0. 0. 0. 0. 0.
      0. 0. 0. 0. 0. 0. 0. 0. 0. 0. 0. 0. 0. 0. 0. 0. 0. 0. 0. 0. 0. 0.
      0. 0. 0. 0. 0. 0. 0. 0. 0. 0. 0. 0. 0. 0. 0. 0. 0. 0. 0. 0. 0. 0.
      0. 0. 0. 0. 0. 0. 0. 0. 0.</_>
    <_>
      0. 2.63237098e-07 -2.54616793e-07 7.76780780e-07 -1.00284569e-06
      7.27487645e-07 -4.31015312e-09 2.42495901e-07 0. 0. 0. 0. 0. 0. 0.
      0. 0. 0. 0. 0. -2.17444537e-07 2.25255278e-07 2.42495901e-07
      1.26346436e-04 1.09908899e-06 -9.69983603e-07 -1.03570778e-06
      5.17853891e-07 5.01422846e-07 0. 0. 0. 0. 0. 0. 0. 0. 0. 0. 0.
      7.10247036e-07 1.26342115e-04 1.26124680e-04 1.27845575e-04
      -7.81090932e-07 -3.04931861e-20 1.27862819e-04 1.27862819e-04 0.
      1.03570778e-06 0. 0. 0. 0. 0. 0. 0. 0. 0. 0. 2.42495901e-07
      1.27118896e-04 1.27106774e-04 -7.56039583e-07 -1.25606821e-04
      -1.27849897e-04 1.26859974e-04 1.26859974e-04 6.18364502e-05 0. 0.
      0. 0. 0. 0. 0. 0. 0. 0. 0. -8.62030625e-09 1.26847852e-04
      1.27135339e-04 -1.26371480e-04 -1.27131018e-04 -4.97112694e-07
      1.26859974e-04 1.27603897e-04 1.27344960e-04 1.03570778e-06 0. 0.
      0. 0. 0. 0. 0. 0. 0. 0. -4.92802542e-07 1.27858511e-04
      1.27077423e-04 -1.27348467e-04 -1.27862819e-04 7.30988233e-07
      1.27862819e-04 1.27862819e-04 2.58926946e-07 0. 0. 0. 0. 0. 0. 0.
      0. 0. 0. 0. 0. 2.07411972e-08 -6.60263686e-05 -1.27102467e-04
      2.30374994e-07 -8.62030625e-09 1.25865743e-04 1.27344960e-04
      2.42495901e-07 7.76780780e-07 0. 0. 0. 0. 0. 0. 0. 0. 0. 0.
      -2.54616793e-07 -8.62030625e-09 -1.27357082e-04 -1.27862819e-04
      2.54616793e-07 1.26621788e-04 1.27862819e-04 5.17853891e-07
      2.58926946e-07 0. 0. 0. 0. 0. 0. 0. 0. 0. 0. 0. 2.42495901e-07
      -1.27086038e-04 -1.27620326e-04 -1.00284569e-06 1.27862819e-04
      1.27603897e-04 1.26584622e-04 5.17853891e-07 0. 0. 0. 0. 0. 0. 0.
      0. 0. 0. 0. 0. 7.76780780e-07 -1.26650339e-04 -1.27086038e-04
      6.18364502e-05 1.27603897e-04 1.25631064e-04 2.58926946e-07
      2.42495901e-07 5.01422846e-07 0. 0. 0. 0. 0. 0. 0. 0. 0. 0. 0. 0.
      -1.26568179e-04 -6.60263686e-05 1.27361403e-04 1.27620326e-04 0.
      5.01422846e-07 0. 0. 0. 0. 0. 0. 0. 0. 0. 0. 0. 0. 0.
      -1.27135339e-04 -1.27603897e-04 1.26827115e-04 1.27361403e-04
      1.26358558e-04 1.27102467e-04 1.27377833e-04 1.27862819e-04
      1.27862819e-04 0. 0. 0. 0. 0. 0. 0. 0. 0. 0. 0. -1.27361403e-04
      -2.42495901e-07 1.26358558e-04 1.26601051e-04 1.27862819e-04
      1.27620326e-04 1.26083192e-04 1.27620326e-04 1.27862819e-04 0. 0.
      0. 0. 0. 0. 0. 0. 0. 0. 0. 4.84991801e-07 -2.58926946e-07 0. 0.
      -5.01422846e-07 5.17853891e-07 7.76780780e-07 0. 0. 0. 0. 0. 0. 0.
      0. 0. 0. 0. 0. 0. 0. 0. 0. 0. 0. 0. 0. 0. 0. 0. 0. 0. 0. 0. 0. 0.
      0. 0. 0. 0. 0. 0. 0. 0. 0. 0. 0. 0. 0. 0. 0. 0. 0. 0. 0. 0. 0. 0.
      0. 0. 0. 0. 0. 0. 0. 0. 0. 0. 0. 0. 0. 0. 0. 0. 0. 0. 0. 0. 0. 0.
      0. 0. 0. 0. 0. 0. 0. 0. 0. 0. 0. 0. 0. 0. 0. 0. 0. 0. 0. 0. 0. 0.
      0. 0. 0. 0. 0. 0. 0. 0. 0. 0. 0. 0. 0. 0. 0. 0. 0. 0. 0. 0. 0. 0.
      0. 0. 0. 0. 0. 0. 0. 0. 0. 0. 0. 0. 0. 0. 0. 0.</_>
    <_>
      0. 6.41984570e-07 0. 6.41984570e-07 -6.41984570e-07 0.
      -1.92595371e-06 6.41984570e-07 -5.49186609e-07 1.28396914e-06 0.
      0. 0. 0. 0. 0. 0. 0. 0. 0. 0. 1.61780103e-04 1.61780103e-04
      1.63706063e-04 1.63064076e-04 0. -1.28396914e-06 0. 2.74593305e-07
      4.59602404e-07 0. 0. 0. 0. 0. 0. 0. 0. 0. 0. 0. 1.63064076e-04
      1.62422089e-04 1.62422089e-04 1.62422089e-04 6.41984570e-07
      1.28396914e-06 -1.28396914e-06 -2.35211974e-05 -8.26993698e-07 0.
      0. 0. 0. 0. 0. 0. 0. 0. 0. -6.41984570e-07 6.41984570e-07 0.
      6.41984570e-07 -1.63706063e-04 0. -6.41984570e-07 -1.59854157e-04
      -1.39450480e-04 0. 0. 0. 0. 0. 0. 0. 0. 0. 0. 0. 6.41984570e-07 0.
      0. -1.92595371e-06 6.41984570e-07 1.92595371e-06 -1.63706063e-04
      -1.63064076e-04 -9.28575828e-05 -1.19418939e-06 0. 0. 0. 0. 0. 0.
      0. 0. 0. 0. 0. 1.28396914e-06 -6.41984570e-07 -1.62422089e-04 0.
      1.63064076e-04 -1.62422089e-04 -1.62422089e-04 -9.33603005e-05
      1.37637585e-06 0. 0. 0. 0. 0. 0. 0. 0. 0. 0. 2.56793828e-06 0. 0.
      0. 6.41984570e-07 1.63706063e-04 0. -1.63706063e-04
      -2.35210009e-05 -4.59798031e-07 0. 0. 0. 0. 0. 0. 0. 0. 0. 0. 0.
      0. -1.61138130e-04 -1.63706063e-04 1.63706063e-04 1.62422089e-04
      1.28396914e-06 6.41984570e-07 -9.26023631e-08 1.00918021e-06 0. 0.
      0. 0. 0. 0. 0. 0. 0. 0. -6.41984570e-07 3.85190742e-06
      -1.61780103e-04 -1.63706063e-04 -1.63064076e-04 -1.63706063e-04 0.
      0. 6.41984570e-07 -1.63706063e-04 0. 0. 0. 0. 0. 0. 0. 0. 0. 0.
      6.41984570e-07 -1.63706063e-04 -1.63064076e-04 -1.62422089e-04
      -1.63064076e-04 -1.62422089e-04 0. -1.28396914e-06 -6.41984570e-07
      -1.61780103e-04 0. 0. 0. 0. 0. 0. 0. 0. 0. 0. -6.41984570e-07
      1.63706063e-04 1.63706063e-04 0. 0. -2.56793828e-06 0.
      6.41984570e-07 6.41984570e-07 -3.20992285e-06 0. 0. 0. 0. 0. 0. 0.
      0. 0. 0. -6.41984570e-07 1.63706063e-04 1.61780103e-04
      1.62422089e-04 1.63064076e-04 1.63064076e-04 -6.41984570e-07
      -6.41984570e-07 -1.63706063e-04 1.28396914e-06 0. 0. 0. 0. 0. 0.
      0. 0. 0. 0. 5.29395592e-23 -6.41984570e-07 1.63064076e-04
      1.63706063e-04 1.61780103e-04 1.63706063e-04 0. -1.61780103e-04
      -1.61138130e-04 0. 0. 0. 0. 0. 0. 0. 0. 0. 0. 0. 0. 6.41984570e-07
      -6.41984570e-07 -6.41984570e-07 6.41984570e-07 -6.41984570e-07 0.
      5.29395592e-23 0. 0. 0. 0. 0. 0. 0. 0. 0. 0. 0. 0. 0. 0. 0. 0. 0.
      0. 0. 0. 0. 0. 0. 0. 0. 0. 0. 0. 0. 0. 0. 0. 0. 0. 0. 0. 0. 0. 0.
      0. 0. 0. 0. 0. 0. 0. 0. 0. 0. 0. 0. 0. 0. 0. 0. 0. 0. 0. 0. 0. 0.
      0. 0. 0. 0. 0. 0. 0. 0. 0. 0. 0. 0. 0. 0. 0. 0. 0. 0. 0. 0. 0. 0.
      0. 0. 0. 0. 0. 0. 0. 0. 0. 0. 0. 0. 0. 0. 0. 0. 0. 0. 0. 0. 0. 0.
      0. 0. 0. 0. 0. 0. 0. 0. 0. 0. 0. 0. 0. 0. 0. 0. 0. 0. 0. 0. 0. 0.
      0. 0. 0. 0. 0.</_>
    <_>
      -4.08470981e-07 1.94799509e-06 -2.35259563e-06 1.81054793e-06
      -5.42047758e-07 0. -1.53952396e-06 1.67697112e-06 0.
      3.89599018e-06 0. 0. 0. 0. 0. 0. 0. 0. 0. 0. -1.07101703e-04
      4.89217753e-04 1.05424733e-04 2.74894234e-07 1.08409552e-06
      4.12341336e-07 -8.16941963e-07 2.71023879e-07 3.92578630e-04
      3.48751905e-06 -8.16941963e-07 0. 0. 0. 0. 0. 0. 0. 0. 0.
      -4.08470981e-07 4.96738707e-04 1.01666192e-04 -3.89599018e-06
      7.74069253e-09 -4.08470981e-07 8.16941963e-07 3.07904793e-06
      -1.02212107e-04 0. 0. 0. 0. 0. 0. 0. 0. 0. 0. 0. -1.81441817e-06
      -4.48112496e-06 -3.91039095e-04 -1.02212107e-04 -4.12071095e-05
      4.96738707e-04 4.92980180e-04 -1.94799509e-06 1.94799509e-06
      -1.22541292e-06 -4.08470981e-07 0. 0. 0. 0. 0. 0. 0. 0. 0.
      3.89599018e-06 -3.93391703e-04 -4.94924316e-04 -1.07239153e-04
      4.95199172e-04 4.96330264e-04 -2.74894234e-07 1.94799509e-06
      1.94799509e-06 0. -1.22541292e-06 0. 0. 0. 0. 0. 0. 0. 0. 0.
      -1.81054793e-06 -3.80305515e-04 -4.93706611e-04 -4.93659696e-04
      5.02704279e-06 -1.12718271e-06 -1.04022656e-04 -1.81441817e-06
      -4.08470981e-07 5.02704279e-06 0. 0. 0. 0. 0. 0. 0. 0. 0. 0.
      7.37963865e-06 -3.92578630e-04 -4.95917920e-04 -5.42101086e-20
      -5.42101086e-20 6.15809586e-06 -5.42101086e-20 -4.93659696e-04
      -1.04160099e-04 0. -4.08470981e-07 0. 0. 0. 0. 0. 0. 0. 0. 0. 0.
      -5.42047758e-07 1.08796587e-06 0. 4.93659696e-04 1.00126665e-04
      4.61857189e-06 4.08470981e-07 -1.04160099e-04 3.89599018e-06
      -2.04235494e-06 0. 0. 0. 0. 0. 0. 0. 0. 0. -7.57953611e-09
      1.92006701e-06 0. -2.74894234e-07 -5.30759053e-07 -8.20651167e-07
      1.04160099e-04 -5.42101086e-20 4.08470981e-07 -1.03751634e-04
      -1.22541292e-06 0. 0. 0. 0. 0. 0. 0. 0. 0. 1.37447117e-07
      -4.31209600e-07 1.48735836e-07 -1.08409552e-06 4.00891452e-07
      -2.40866882e-07 1.04122206e-04 -5.30759053e-07 -4.06856429e-07
      -1.03753242e-04 0. 0. 0. 0. 0. 0. 0. 0. 0. 0. -5.19470291e-07
      6.96305578e-05 2.59735145e-07 -1.03076003e-04 0. -8.13071608e-07
      1.04030238e-04 -1.48735836e-07 4.05232896e-07 0. -4.08470981e-07
      0. 0. 0. 0. 0. 0. 0. 0. 0. 3.93311922e-07 3.50603004e-05
      -1.22541292e-06 1.29867573e-07 4.04761806e-07 5.42047758e-07
      -4.08470981e-07 -1.22288043e-07 -1.04160099e-04 8.21785591e-07
      -4.08470981e-07 0. 0. 0. 0. 0. 0. 0. 0. 0. 4.08470981e-07
      -2.27386092e-08 1.03900369e-04 2.59735145e-07 -1.22541292e-06
      7.57953611e-09 8.16941963e-07 -1.65788754e-06 1.22218387e-06
      -8.16941963e-07 0. 0. 0. 0. 0. 0. 0. 0. 0. 0. -2.74894234e-07
      -9.24070946e-07 4.00891452e-07 0. 6.83365215e-07 0.
      -2.71023879e-07 1.48735836e-07 -4.08470981e-07 1.61454539e-09
      -4.08470981e-07 0. 0. 0. 0. 0. 0. 0. 0. 0. 0. 0. 0. 0. 0. 0. 0. 0.
      0. 0. 0. 0. 0. 0. 0. 0. 0. 0. 0. 0. 0. 0. 0. 0. 0. 0. 0. 0. 0. 0.
      0. 0. 0. 0. 0. 0. 0. 0. 0. 0. 0. 0. 0. 0. 0. 0. 0. 0. 0. 0. 0. 0.
      0. 0. 0. 0. 0. 0. 0. 0. 0. 0. 0. 0. 0. 0. 0. 0. 0. 0. 0. 0. 0. 0.
      0. 0. 0. 0. 0. 0. 0. 0. 0. 0. 0. 0. 0. 0. 0. 0. 0. 0. 0. 0. 0. 0.
      0. 0. 0. 0. 0. 0. 0. 0. 0. 0. 0. 0. 0. 0. 0. 0. 0. 0. 0. 0. 0. 0.
      0. 0.</_>
    <_>
      -1.69240514e-06 8.54300310e-07 0. -8.48198113e-07 -8.50935862e-07
      -6.72889477e-09 -8.46202568e-07 8.54300310e-07 -1.71965709e-07
      -3.38403197e-07 0. 0. 0. 0. 0. 0. 0. 0. 0. 0. 0. 2.12741710e-04
      2.13606108e-04 2.17843219e-04 8.09776868e-09 8.56295912e-07
      -8.59033662e-07 8.60402508e-07 2.17846580e-04 3.43931418e-07 0. 0.
      0. 0. 0. 0. 0. 0. 0. 0. -1.71133843e-06 2.17836481e-04
      2.16992281e-04 -8.59033662e-07 8.30007025e-07 -8.50935862e-07
      2.17829758e-04 2.14437474e-04 -5.10368920e-07 -8.54300310e-07 0.
      0. 0. 0. 0. 0. 0. 0. 0. 0. -1.00933422e-08 -1.68904069e-06
      -2.17846580e-04 -2.15290405e-04 -2.17846580e-04 2.15307969e-04
      2.16987552e-04 -1.36887357e-09 6.82334587e-07 0. 0. 0. 0. 0. 0. 0.
      0. 0. 0. 0. 1.70386727e-06 -1.89332852e-08 -2.16982808e-04
      -2.17846580e-04 2.17000372e-04 2.17838489e-04 -6.72889477e-09
      8.54300310e-07 1.71965709e-07 -1.54216320e-06 0. 0. 0. 0. 0. 0. 0.
      0. 0. 0. 0. -2.14415180e-04 -2.16139350e-04 -2.17831752e-04
      4.73332129e-09 1.69776513e-06 -2.17837107e-04 -8.67400729e-07 0.
      2.56290105e-06 0. 0. 0. 0. 0. 0. 0. 0. 0. 0. 2.56153203e-06
      -2.16992281e-04 -2.17832378e-04 1.14349448e-20 8.69753706e-07
      1.14349448e-20 1.69240514e-06 -2.17814188e-04 -4.45335900e-05
      -6.82334587e-07 0. 0. 0. 0. 0. 0. 0. 0. 0. 0. -6.72889477e-09
      -2.17839857e-04 -2.12741710e-04 -4.59070770e-06 2.17830384e-04
      2.16137982e-04 1.14349448e-20 8.46202568e-07 -2.17846580e-04
      1.02626598e-06 0. 0. 0. 0. 0. 0. 0. 0. 0. 0. -9.46664258e-09
      -2.12716041e-04 -2.17330686e-04 -6.80488426e-07 -1.35968980e-06
      -1.76699032e-07 2.17338064e-04 1.71965709e-07 1.14349448e-20 0. 0.
      0. 0. 0. 0. 0. 0. 0. 0. 0. -5.14610122e-07 -2.17496068e-04
      -2.16319168e-04 0. -1.69078561e-07 8.49567016e-07 2.15973632e-04
      -1.03099933e-06 -1.50348348e-20 -3.80503082e-23 0. 0. 0. 0. 0. 0.
      0. 0. 0. 0. -8.49813034e-07 2.03280388e-06 3.43931418e-07
      -8.77111233e-05 0. -1.69464670e-06 4.55519912e-05 -5.00902274e-07
      1.14349448e-20 0. 0. 0. 0. 0. 0. 0. 0. 0. 0. 0. 5.13256055e-07
      8.66207556e-05 -2.36726873e-06 2.04177832e-06 1.14349448e-20
      1.02651211e-06 -8.54300310e-07 -8.54300310e-07 0. -7.61006164e-23
      0. 0. 0. 0. 0. 0. 0. 0. 0. 0. 8.40100370e-07 -1.52716825e-06
      2.17488443e-04 8.59828560e-07 -2.21214395e-06 3.41044284e-07
      1.55092823e-06 6.76001150e-07 -3.47415857e-23 0. 0. 0. 0. 0. 0. 0.
      0. 0. 0. 0. -6.82088569e-07 8.54300310e-07 -5.05389494e-07
      -1.54191707e-06 2.22634390e-06 -1.89332852e-08 -1.86661248e-06
      8.54300310e-07 0. 0. 0. 0. 0. 0. 0. 0. 0. 0. 0. 0. 0. 0. 0. 0. 0.
      0. 0. 0. 0. 0. 0. 0. 0. 0. 0. 0. 0. 0. 0. 0. 0. 0. 0. 0. 0. 0. 0.
      0. 0. 0. 0. 0. 0. 0. 0. 0. 0. 0. 0. 0. 0. 0. 0. 0. 0. 0. 0. 0. 0.
      0. 0. 0. 0. 0. 0. 0. 0. 0. 0. 0. 0. 0. 0. 0. 0. 0. 0. 0. 0. 0. 0.
      0. 0. 0. 0. 0. 0. 0. 0. 0. 0. 0. 0. 0. 0. 0. 0. 0. 0. 0. 0. 0. 0.
      0. 0. 0. 0. 0. 0. 0. 0. 0. 0. 0. 0. 0. 0. 0. 0. 0. 0. 0. 0. 0. 0.
      0. 0. 0. 0. 0.</_>
    <_>
      0. 1.05879118e-22 0. 8.87826843e-07 -2.66348047e-06 0. 0.
      -8.87826843e-07 0. 1.77565369e-06 0. 0. 0. 0. 0. 0. 0. 0. 0. 0.
      -8.87826843e-07 -8.87826843e-07 2.71050543e-20 8.87826843e-07
      8.87826843e-07 8.87826843e-07 -1.77565369e-06 1.77565369e-06
      2.71050543e-20 1.77565369e-06 0. 0. 0. 0. 0. 0. 0. 0. 0. 0. 0.
      2.71050543e-20 -8.87826843e-07 -1.77565369e-06 2.71050543e-20 0.
      2.71050543e-20 -8.87826843e-07 -2.25508018e-04 0. 0. 0. 0. 0. 0.
      0. 0. 0. 0. 0. 0. 8.87826843e-07 0. 8.87826843e-07 -2.66348047e-06
      2.25508018e-04 0. -2.23732364e-04 8.87826843e-07 0. 0. 0. 0. 0. 0.
      0. 0. 0. 0. 0. 1.77565369e-06 -8.87826843e-07 0. 0. 2.26395845e-04
      2.26395845e-04 -2.24620191e-04 -2.25508018e-04 8.87826843e-07 0.
      0. 0. 0. 0. 0. 0. 0. 0. 0. 0. 0. 8.87826843e-07 8.87826843e-07 0.
      2.21956710e-04 -8.87826843e-07 -2.26395845e-04 0. 0.
      2.66348047e-06 0. 0. 0. 0. 0. 0. 0. 0. 0. 0. 4.23516474e-22 0.
      -8.87826843e-07 2.26395845e-04 2.26395845e-04 2.71050543e-20
      8.87826843e-07 0. 0. 0. 0. 0. 0. 0. 0. 0. 0. 0. 0. 0. 0.
      -8.87826843e-07 1.77565369e-06 0. 2.71050543e-20 -1.77565369e-06
      8.87826843e-07 2.24620191e-04 0. 1.77565369e-06 0. 0. 0. 0. 0. 0.
      0. 0. 0. 0. -8.87826843e-07 5.32696095e-06 -1.71647719e-06
      -8.87647218e-08 -2.26277494e-04 -2.26395845e-04 2.26336662e-04
      2.26395845e-04 2.26395845e-04 0. 0. 0. 0. 0. 0. 0. 0. 0. 0. 0.
      8.87826843e-07 -3.43295437e-06 8.58238593e-07 -3.43295437e-06
      -2.23791547e-04 -2.23791547e-04 2.23821131e-04 2.24561023e-04
      2.26392178e-04 3.67269570e-09 0. 0. 0. 0. 0. 0. 0. 0. 0. 0.
      -8.87647218e-08 2.26307078e-04 2.23821131e-04 -2.23821131e-04
      -2.26307078e-04 -2.24561023e-04 2.24501840e-04 2.25508018e-04
      9.36537390e-07 0. 0. 0. 0. 0. 0. 0. 0. 0. 0. 0. -8.28650343e-07
      2.24679374e-04 2.23732364e-04 8.58238593e-07 2.95882394e-08
      9.26147823e-06 2.25508018e-04 2.25419251e-04 0. 4.42811597e-06 0.
      0. 0. 0. 0. 0. 0. 0. 0. 0. 8.58238593e-07 -2.95882394e-08
      2.71050543e-20 8.87826843e-07 -5.91764788e-08 2.25419251e-04
      2.25537602e-04 1.77565369e-06 8.95172263e-07 0. 0. 0. 0. 0. 0. 0.
      0. 0. 0. 0. -3.43295437e-06 2.95882394e-08 8.28650343e-07 0.
      1.65730069e-06 -2.57471584e-06 0. -9.17415093e-07 0.
      8.84154133e-07 0. 0. 0. 0. 0. 0. 0. 0. 0. 0. 0. 0. 0. 0. 0. 0. 0.
      0. 0. 0. 0. 0. 0. 0. 0. 0. 0. 0. 0. 0. 0. 0. 0. 0. 0. 0. 0. 0. 0.
      0. 0. 0. 0. 0. 0. 0. 0. 0. 0. 0. 0. 0. 0. 0. 0. 0. 0. 0. 0. 0. 0.
      0. 0. 0. 0. 0. 0. 0. 0. 0. 0. 0. 0. 0. 0. 0. 0. 0. 0. 0. 0. 0. 0.
      0. 0. 0. 0. 0. 0. 0. 0. 0. 0. 0. 0. 0. 0. 0. 0. 0. 0. 0. 0. 0. 0.
      0. 0. 0. 0. 0. 0. 0. 0. 0. 0. 0. 0. 0. 0. 0. 0. 0. 0. 0. 0. 0. 0.
      0. 0. 0.</_>
    <_>
      -2.99385761e-07 7.75574335e-07 -2.54076649e-09 -2.86459181e-06
      -1.70676373e-07 -5.08153297e-09 -1.38897747e-06 1.11692714e-06
      -3.94510721e-07 1.59057493e-06 0. 0. 0. 0. 0. 0. 0. 0. 0. 0.
      -3.82396365e-06 2.81463086e-04 2.84021109e-04 8.46872281e-05
      9.65963864e-07 2.96845002e-07 -1.91475533e-06 2.02946729e-04
      2.84816400e-04 4.07042762e-07 0. 0. 0. 0. 0. 0. 0. 0. 0. 0.
      -8.36209495e-07 2.83870148e-04 3.81739919e-05 -2.22877270e-06
      -3.01926519e-07 -1.68135600e-07 8.13151629e-20 -1.71420277e-06
      -8.12956932e-05 0. 0. 0. 0. 0. 0. 0. 0. 0. 0. 0. -3.97643726e-06
      -2.00261478e-04 -2.84813868e-04 -7.99883928e-05 -1.70676373e-07
      2.84519570e-04 8.08986370e-05 -2.82904191e-04 -1.80390751e-04
      -1.57804288e-06 0. 0. 0. 0. 0. 0. 0. 0. 0. 0. 1.76379206e-06
      -2.02946729e-04 -2.84645736e-04 -8.20181085e-05 2.84475042e-04
      2.84668000e-04 -2.02968979e-04 -2.83551053e-04 -8.09011763e-05
      -6.43279293e-07 0. 0. 0. 0. 0. 0. 0. 0. 0. 0. -1.48422501e-07
      -1.98338210e-04 -2.82604800e-04 -2.84813868e-04 2.03310337e-04
      2.81869987e-04 -2.02946729e-04 -2.84808775e-04 -8.16964675e-05
      1.77273841e-06 0. 0. 0. 0. 0. 0. 0. 0. 0. 0. 4.46008607e-06
      -2.96845002e-07 -2.01358693e-04 7.86620205e-07 1.59057493e-06
      6.15943861e-07 3.48975021e-07 -8.17212640e-05 -3.94510721e-07
      -3.21639646e-07 0. 0. 0. 0. 0. 0. 0. 0. 0. 0. 0. -2.54076649e-09
      -1.99447517e-04 -2.84816400e-04 3.43893504e-07 -1.43856676e-06
      9.46250736e-07 1.70676373e-07 -8.20181085e-05 2.23385427e-06 0. 0.
      0. 0. 0. 0. 0. 0. 0. 0. 0. -1.96267414e-04 -2.83844187e-04
      -8.15060775e-05 -1.13664021e-06 -9.46250736e-07 8.15652165e-05
      1.34702748e-06 8.13151629e-20 -8.16964675e-05 0. 0. 0. 0. 0. 0. 0.
      0. 0. 0. -3.88244700e-07 -2.84133712e-04 -2.83147732e-04
      -8.18671397e-05 -3.87329663e-07 5.71453086e-07 2.84475042e-04
      7.97842513e-05 -7.22416360e-07 -8.12956932e-05 0. 0. 0. 0. 0. 0.
      0. 0. 0. 0. -8.47400543e-07 8.46809635e-05 1.70676373e-07
      -8.25906027e-05 -1.72900616e-06 -1.14290617e-06 8.24188828e-05
      -1.11692714e-06 8.13151629e-20 -8.13748266e-05 0. 0. 0. 0. 0. 0.
      0. 0. 0. 0. -1.90389471e-07 8.22616566e-05 -2.60865181e-06
      1.20233017e-06 1.72900616e-06 9.46250736e-07 -1.11692714e-06
      -1.76942393e-07 -8.13748266e-05 4.79913865e-07 0. 0. 0. 0. 0. 0.
      0. 0. 0. 0. 8.15000533e-07 -1.07721621e-06 1.84834527e-04
      4.51005180e-05 -3.18010484e-06 1.52488485e-06 4.00776742e-07
      -8.02641662e-05 2.16724902e-06 0. 0. 0. 0. 0. 0. 0. 0. 0. 0. 0.
      -4.00776742e-07 6.24611118e-07 -7.81840356e-07 -1.18979813e-06
      3.18010484e-06 -1.35420851e-06 -1.42511965e-06 3.27905667e-07
      -4.00776742e-07 -1.28655859e-06 0. 0. 0. 0. 0. 0. 0. 0. 0. 0. 0.
      0. 0. 0. 0. 0. 0. 0. 0. 0. 0. 0. 0. 0. 0. 0. 0. 0. 0. 0. 0. 0. 0.
      0. 0. 0. 0. 0. 0. 0. 0. 0. 0. 0. 0. 0. 0. 0. 0. 0. 0. 0. 0. 0. 0.
      0. 0. 0. 0. 0. 0. 0. 0. 0. 0. 0. 0. 0. 0. 0. 0. 0. 0. 0. 0. 0. 0.
      0. 0. 0. 0. 0. 0. 0. 0. 0. 0. 0. 0. 0. 0. 0. 0. 0. 0. 0. 0. 0. 0.
      0. 0. 0. 0. 0. 0. 0. 0. 0. 0. 0. 0. 0. 0. 0. 0. 0. 0. 0. 0. 0. 0.
      0. 0. 0. 0. 0. 0. 0. 0. 0.</_>
