<?xml version="1.0"?>
<opencv_storage>
<opencv_ml_svm>
  <format>3</format>
  <svmType>C_SVC</svmType>
  <kernel>
    <type>LINEAR</type></kernel>
  <C>1.</C>
  <term_criteria><epsilon>1.1920928955078125e-07</epsilon>
    <iterations>1000</iterations></term_criteria>
  <var_count>400</var_count>
  <class_count>11</class_count>
  <class_labels type_id="opencv-matrix">
    <rows>11</rows>
    <cols>1</cols>
    <dt>i</dt>
    <data>
      0 1 2 3 4 5 6 7 8 9 10</data></class_labels>
  <sv_total>55</sv_total>
  <support_vectors>
    <_>
      -3.85158643e-07 1.29576961e-06 1.85474143e-08 5.12777888e-07 0.
      4.31099181e-07 2.58226555e-06 0. 8.73944202e-07 1.72439672e-06 0.
      0. 0. 0. 0. 0. 0. 0. 0. 0. 9.27370714e-09 -1.28989677e-06
      -1.20883604e-04 -1.11209985e-04 1.22659811e-04 2.18423083e-04
      1.12295085e-04 1.11650355e-04 0. 4.36972101e-07 0. 0. 0. 0. 0. 0.
      0. 0. 0. 0. 4.59405456e-08 -1.23142730e-04 -1.09930290e-04
      3.66611204e-07 1.21681311e-04 2.20930480e-04 2.20921196e-04
      2.20490096e-04 1.10367262e-04 4.36972101e-07 2.58659497e-06 0. 0.
      0. 0. 0. 0. 0. 0. 0. -1.21739926e-04 -1.10376532e-04 0.
      -1.04912382e-04 1.07490132e-05 9.27370714e-09 1.11427886e-04
      2.20917806e-04 1.09930290e-04 0. 0. 0. 0. 0. 0. 0. 0. 0. 0. 0.
      -1.22659811e-04 1.36469343e-05 9.78361641e-05 -1.13152280e-04
      -9.88538013e-05 -2.96678337e-07 1.11427886e-04 2.21358176e-04
      2.20927075e-04 1.10367262e-04 1.29329749e-06 0. 0. 0. 0. 0. 0. 0.
      0. 0. -4.40372872e-07 1.11409339e-04 9.78855096e-05
      -1.10563211e-04 -9.60780744e-05 4.27698382e-07 1.10563211e-04
      2.20490096e-04 2.21358176e-04 1.09930290e-04 0. 0. 0. 0. 0. 0. 0.
      0. 0. 0. -2.39923441e-08 1.09031855e-04 9.82061756e-05
      -1.12767120e-04 -9.76107767e-05 -1.90724575e-06 9.27370714e-09
      2.21358176e-04 2.20927075e-04 1.09930290e-04 0. 0. 0. 0. 0. 0. 0.
      0. 0. 0. 0. 2.19502326e-04 9.82706624e-05 -1.11427886e-04
      -9.82061756e-05 4.36972101e-07 4.31099181e-07 2.21348906e-04
      2.20053131e-04 1.10810106e-04 0. 0. 0. 0. 0. 0. 0. 0. 0. 0.
      -1.15547584e-06 1.10935696e-04 9.91812776e-05 -1.10517271e-04
      -9.79280449e-05 9.27370714e-09 2.36479536e-06 1.11418609e-04
      2.20927075e-04 1.09499189e-04 1.29329749e-06 0. 0. 0. 0. 0. 0. 0.
      0. 0. 4.27698382e-07 1.08323569e-04 9.73532515e-05 -1.10559813e-04
      -9.77843520e-05 3.00069019e-06 1.10572488e-04 2.21348906e-04
      2.21358176e-04 1.09930290e-04 0. 0. 0. 0. 0. 0. 0. 0. 0. 0.
      1.85474143e-08 1.11455280e-04 9.70414258e-05 -1.29236889e-06
      1.16600522e-05 7.37616688e-08 1.11409339e-04 2.21358176e-04
      1.09068089e-04 0. 4.31099181e-07 0. 0. 0. 0. 0. 0. 0. 0. 0.
      -1.93165056e-06 8.80745745e-07 -1.34256325e-05 9.65825279e-07
      1.23509337e-04 2.20550763e-04 2.20930480e-04 2.18765708e-04
      1.09930290e-04 2.18486048e-06 4.31099181e-07 0. 0. 0. 0. 0. 0. 0.
      0. 0. 1.29329749e-06 -1.24270373e-04 -1.20031604e-04
      -1.09930290e-04 0. 1.20566328e-04 1.08633591e-04 1.09948836e-04
      4.36972101e-07 8.62198362e-07 0. 0. 0. 0. 0. 0. 0. 0. 0. 0.
      4.98059251e-07 -9.65825279e-07 -7.51769846e-07 1.66578161e-06
      4.27698382e-07 1.47095335e-07 2.14529359e-06 4.27698382e-07
      4.31099181e-07 4.36972101e-07 4.31099181e-07 0. 0. 0. 0. 0. 0. 0.
      0. 0. 0. 0. 0. 0. 0. 0. 0. 0. 0. 0. 0. 0. 0. 0. 0. 0. 0. 0. 0. 0.
      0. 0. 0. 0. 0. 0. 0. 0. 0. 0. 0. 0. 0. 0. 0. 0. 0. 0. 0. 0. 0. 0.
      0. 0. 0. 0. 0. 0. 0. 0. 0. 0. 0. 0. 0. 0. 0. 0. 0. 0. 0. 0. 0. 0.
      0. 0. 0. 0. 0. 0. 0. 0. 0. 0. 0. 0. 0. 0. 0. 0. 0. 0. 0. 0. 0. 0.
      0. 0. 0. 0. 0. 0. 0. 0. 0. 0. 0. 0. 0. 0. 0. 0. 0. 0. 0. 0. 0. 0.
      0. 0. 0. 0. 0. 0. 0. 0. 0. 0. 0. 0.</_>
    <_>
      5.47567311e-07 -4.25588553e-07 -2.94005048e-07 -1.38138006e-07
      9.52427257e-08 -1.17339698e-06 1.24216706e-06 -4.91025162e-07
      1.54092447e-06 1.19871413e-06 0. 0. 0. 0. 0. 0. 0. 0. 0. 0.
      -4.62810334e-07 -4.91025162e-07 -8.87586284e-05 -7.60367548e-05
      -6.68684891e-07 -1.25352344e-07 9.14273755e-07 7.65084551e-05
      -7.19593572e-07 7.70462236e-07 0. 0. 0. 0. 0. 0. 0. 0. 0. 0.
      -7.79356753e-07 -2.70766672e-04 -7.53026470e-05 -1.31802949e-06
      9.59468935e-07 -4.45789908e-07 -1.11447480e-06 4.01415832e-07
      7.64873912e-05 -1.43811491e-07 1.79807125e-06 0. 0. 0. 0. 0. 0. 0.
      0. 0. -4.91025162e-07 -7.55764559e-05 2.28568439e-07
      1.32319430e-04 7.44367208e-05 5.47567311e-07 -7.68120663e-05
      4.43740724e-08 -4.87933903e-05 0. 0. 0. 0. 0. 0. 0. 0. 0. 0. 0.
      6.93718732e-07 -7.82204879e-05 1.57481281e-06 7.64355646e-05
      -2.64725877e-08 7.45468469e-07 -7.58704191e-05 5.79115635e-07
      1.57458331e-07 7.62742129e-05 8.99035626e-07 0. 0. 0. 0. 0. 0. 0.
      0. 0. -5.29108149e-07 -7.50158360e-05 -4.28769482e-07
      7.55707806e-05 1.96917631e-06 -1.36414587e-06 -7.77101814e-05
      -2.99678533e-07 1.83618351e-04 7.64180295e-05 0. 0. 0. 0. 0. 0. 0.
      0. 0. 0. 2.99678533e-07 1.94608554e-04 1.45133672e-04
      7.47169397e-05 -2.13067688e-06 0. -7.52017368e-05 4.57136878e-07
      2.72095203e-04 7.57323214e-05 0. 0. 0. 0. 0. 0. 0. 0. 0. 0.
      -6.18677404e-07 2.70070392e-04 2.72885896e-04 7.64180295e-05
      -2.28568439e-07 -2.70357239e-04 -7.74104992e-05 2.72205856e-04
      2.70816730e-04 7.77286405e-05 0. 0. 0. 0. 0. 0. 0. 0. 0. 0.
      -1.72887482e-07 1.94788809e-04 2.72044330e-04 7.68638201e-05
      -2.72885896e-04 -2.72109755e-04 -7.57323214e-05 1.95463173e-04
      2.72586214e-04 7.61183474e-05 8.99035626e-07 0. 0. 0. 0. 0. 0. 0.
      0. 0. -6.85705288e-07 1.92260006e-04 2.71600846e-04
      -1.38182921e-04 -2.72134756e-04 -2.69093143e-04 1.93876127e-04
      2.71273864e-04 2.71815748e-04 7.64180295e-05 0. 0. 0. 0. 0. 0. 0.
      0. 0. 0. 1.76381945e-06 1.94529581e-04 5.71898163e-05
      -9.93357162e-07 -1.93143816e-04 1.94238032e-06 1.94302600e-04
      2.72885896e-04 7.58186725e-05 0. 2.99678533e-07 0. 0. 0. 0. 0. 0.
      0. 0. 0. -2.52471705e-06 1.46592322e-06 -7.55037545e-05
      1.07014080e-06 -1.09513462e-06 -1.96170072e-06 1.23735481e-06
      -2.04595995e-06 -1.96467867e-04 3.85231124e-06 2.99678533e-07 0.
      0. 0. 0. 0. 0. 0. 0. 0. 1.34482548e-06 -2.70401622e-04
      -2.72286532e-04 -7.61894553e-05 -1.35525272e-20 -5.03253148e-07
      -1.39072523e-04 -1.94531167e-04 -2.72115431e-04 5.99357065e-07 0.
      0. 0. 0. 0. 0. 0. 0. 0. 0. -4.04428242e-08 -8.41572330e-07
      1.54092447e-06 8.99035626e-07 0. -8.06747522e-08 8.05231593e-07 0.
      2.99678533e-07 7.70462236e-07 2.99678533e-07 0. 0. 0. 0. 0. 0. 0.
      0. 0. 0. 0. 0. 0. 0. 0. 0. 0. 0. 0. 0. 0. 0. 0. 0. 0. 0. 0. 0. 0.
      0. 0. 0. 0. 0. 0. 0. 0. 0. 0. 0. 0. 0. 0. 0. 0. 0. 0. 0. 0. 0. 0.
      0. 0. 0. 0. 0. 0. 0. 0. 0. 0. 0. 0. 0. 0. 0. 0. 0. 0. 0. 0. 0. 0.
      0. 0. 0. 0. 0. 0. 0. 0. 0. 0. 0. 0. 0. 0. 0. 0. 0. 0. 0. 0. 0. 0.
      0. 0. 0. 0. 0. 0. 0. 0. 0. 0. 0. 0. 0. 0. 0. 0. 0. 0. 0. 0. 0. 0.
      0. 0. 0. 0. 0. 0. 0. 0. 0. 0. 0. 0.</_>
    <_>
      3.88158043e-07 -3.88158043e-07 3.88158043e-07 -3.89301590e-07
      3.82081737e-07 1.98260722e-07 1.16676119e-06 -7.77459604e-07
      1.15839782e-06 -7.61876379e-07 0. 0. 0. 0. 0. 0. 0. 0. 0. 0.
      1.91040868e-07 -1.95919827e-04 -1.97466376e-04 -5.11345388e-05
      -5.73122634e-07 -2.15577779e-06 1.55491921e-06 -1.47307568e-04
      -1.98252208e-04 -9.75720354e-07 0. 0. 0. 0. 0. 0. 0. 0. 0. 0.
      9.74576778e-07 -1.98061156e-04 -5.01611066e-05 5.87562283e-07
      7.70239751e-07 3.95377867e-07 -9.55204314e-07 1.35665857e-06
      5.03582232e-05 5.79198911e-07 1.18956427e-06 0. 0. 0. 0. 0. 0. 0.
      0. 0. 0. 1.46918261e-04 1.98252208e-04 9.81123667e-05
      5.05564822e-05 -1.97864050e-04 -5.05553398e-05 1.96500172e-04
      4.97790243e-05 0. 0. 0. 0. 0. 0. 0. 0. 0. 0. 0. -5.80342430e-07
      1.45966493e-04 1.97855683e-04 5.07247205e-05 -1.97269270e-04
      -1.97671863e-04 1.46931561e-04 1.97474743e-04 1.97276488e-04
      5.11356811e-05 5.94782136e-07 0. 0. 0. 0. 0. 0. 0. 0. 0.
      7.64163474e-07 1.44585880e-04 1.96519541e-04 5.07475233e-05
      -1.96879962e-04 -1.97086585e-04 1.46531253e-04 1.98053938e-04
      1.98252208e-04 4.82241048e-05 0. 0. 0. 0. 0. 0. 0. 0. 0. 0.
      -2.91157767e-06 1.47695726e-04 1.96699577e-04 -1.48106687e-04
      -1.97475892e-04 -1.98252208e-04 -5.07475233e-05 1.98252208e-04
      1.98053938e-04 5.05564822e-05 0. 0. 0. 0. 0. 0. 0. 0. 0. 0.
      1.91040868e-07 1.96500172e-04 1.95919827e-04 5.05564822e-05
      -1.98252208e-04 -1.95729925e-04 -5.15226966e-05 -1.91040868e-07
      1.96895548e-04 5.05409007e-05 0. 0. 0. 0. 0. 0. 0. 0. 0. 0.
      5.73122634e-07 1.42260717e-04 1.98252208e-04 5.09385645e-05 0.
      3.88158043e-07 -5.05564822e-05 -5.09446400e-05 -1.98260722e-07
      5.03582232e-05 5.94782136e-07 0. 0. 0. 0. 0. 0. 0. 0. 0.
      -7.77459604e-07 1.47695726e-04 1.97078218e-04 5.05564822e-05
      -3.88158043e-07 1.92184430e-07 -5.07475233e-05 9.75720354e-07
      1.97477434e-07 5.03590054e-05 0. 0. 0. 0. 0. 0. 0. 0. 0. 0.
      1.34943866e-06 -5.11345388e-05 -7.76316085e-07 1.97481961e-04
      5.24767565e-05 1.36273479e-06 -5.13327977e-05 7.77459604e-07
      -1.96785123e-07 0. 1.98260722e-07 0. 0. 0. 0. 0. 0. 0. 0. 0.
      -7.77459604e-07 -1.97079367e-04 -4.82241048e-05 6.09863722e-20
      -7.76316085e-07 -1.55263217e-06 3.95377867e-07 -6.02001990e-07
      5.05564822e-05 -3.98871265e-07 1.98260722e-07 0. 0. 0. 0. 0. 0. 0.
      0. 0. 1.99404269e-07 1.16447404e-06 -1.97855683e-04
      -5.05564822e-05 2.33237893e-06 -9.76863930e-07 -9.97733441e-05
      4.97778783e-05 -5.93215589e-07 3.96521443e-07 0. 0. 0. 0. 0. 0. 0.
      0. 0. 0. 1.16447404e-06 -7.77459604e-07 3.80938189e-07
      5.94782136e-07 -2.33237893e-06 9.82940151e-07 1.16068486e-06
      -7.77459604e-07 1.98260722e-07 -7.83279663e-10 1.98260722e-07 0.
      0. 0. 0. 0. 0. 0. 0. 0. 0. 0. 0. 0. 0. 0. 0. 0. 0. 0. 0. 0. 0. 0.
      0. 0. 0. 0. 0. 0. 0. 0. 0. 0. 0. 0. 0. 0. 0. 0. 0. 0. 0. 0. 0. 0.
      0. 0. 0. 0. 0. 0. 0. 0. 0. 0. 0. 0. 0. 0. 0. 0. 0. 0. 0. 0. 0. 0.
      0. 0. 0. 0. 0. 0. 0. 0. 0. 0. 0. 0. 0. 0. 0. 0. 0. 0. 0. 0. 0. 0.
      0. 0. 0. 0. 0. 0. 0. 0. 0. 0. 0. 0. 0. 0. 0. 0. 0. 0. 0. 0. 0. 0.
      0. 0. 0. 0. 0. 0. 0. 0. 0. 0. 0. 0. 0. 0. 0. 0. 0. 0.</_>
    <_>
      3.55151116e-07 3.89701285e-07 2.96162028e-07 3.55151116e-07
      -8.03841488e-07 4.48690372e-07 -1.04101446e-06 -5.89890803e-08
      7.10302231e-07 1.41227474e-06 0. 0. 0. 0. 0. 0. 0. 0. 0. 0.
      -1.50422156e-05 0. -8.88486113e-07 9.03609107e-05 2.19217953e-04
      -3.54486156e-06 -2.87991202e-20 -9.02083848e-05 -2.19403359e-04
      3.01597993e-07 0. 0. 0. 0. 0. 0. 0. 0. 0. 0. 1.10000349e-06
      -8.03841488e-07 8.97007048e-05 2.19134527e-04 2.18651287e-04
      1.72566115e-06 1.60768298e-06 -3.30712226e-07 -7.28561645e-05
      -6.14923465e-07 3.04607670e-06 0. 0. 0. 0. 0. 0. 0. 0. 0.
      -8.03841488e-07 9.05635316e-05 2.20021800e-04 1.29458262e-04
      -9.05045454e-05 -2.19666646e-04 -1.30050583e-04 2.80122572e-06
      -6.06748581e-05 -2.51684440e-07 0. 0. 0. 0. 0. 0. 0. 0. 0. 0.
      4.14140203e-07 9.01582898e-05 2.18534522e-04 1.25371167e-04
      -2.17221794e-04 -2.17102599e-04 -1.29340289e-04 -2.87991202e-20
      1.25626475e-05 1.27489242e-04 1.52303835e-06 0. 0. 0. 0. 0. 0. 0.
      0. 0. -1.17978161e-07 8.89558505e-05 2.18414119e-04
      -8.89558505e-05 -2.17635927e-04 3.55151116e-07 -1.28916028e-04
      1.10000349e-06 5.83923747e-06 1.28552434e-04 0. 0. 0. 0. 0. 0. 0.
      0. 0. 0. 5.07679431e-07 9.05045454e-05 2.18542205e-04
      -9.25942513e-05 -2.18507659e-04 0. -1.29340289e-04 -2.87991202e-20
      4.16154535e-06 1.29223845e-04 0. 0. 0. 0. 0. 0. 0. 0. 0. 0. 0.
      2.17940978e-04 8.03841488e-07 -9.05045454e-05 -5.89890803e-08
      7.10302231e-07 -1.28408356e-04 8.62830575e-07 6.09836206e-05
      1.29897511e-04 0. 0. 0. 0. 0. 0. 0. 0. 0. 0. -8.62830575e-07
      9.02083848e-05 2.58849172e-06 -9.05635316e-05 -2.19158959e-04
      -2.19666646e-04 -1.29458262e-04 -1.29813416e-04 3.55151116e-07
      -9.10122253e-05 1.52303835e-06 0. 0. 0. 0. 0. 0. 0. 0. 0. 0.
      -1.29458262e-04 -1.01535886e-06 -8.88378709e-05 -2.19514113e-04
      -2.18143599e-04 -1.29458262e-04 -3.55151116e-07 -2.87991202e-20
      -8.89558505e-05 0. 0. 0. 0. 0. 0. 0. 0. 0. 0. -1.52528344e-07
      9.03609107e-05 2.19311492e-04 2.19666646e-04 1.29863503e-04
      -1.87818944e-06 -1.30168570e-04 1.72566115e-06 -7.57328380e-05
      -4.01920761e-06 5.07679431e-07 0. 0. 0. 0. 0. 0. 0. 0. 0.
      -1.72566115e-06 1.72566115e-06 9.05635316e-05 2.18296133e-04
      2.18448666e-04 2.17738358e-04 -2.87991202e-20 -2.89354830e-06
      -9.05635316e-05 1.71676652e-06 5.07679431e-07 0. 0. 0. 0. 0. 0. 0.
      0. 0. 6.60207775e-07 2.02622772e-07 1.52528344e-07 9.05635316e-05
      2.20021800e-04 2.18498753e-04 -9.25942513e-05 -8.89904040e-05
      -2.18862799e-04 1.01535886e-06 0. 0. 0. 0. 0. 0. 0. 0. 0. 0.
      1.06545338e-06 0. -1.01535886e-06 6.60207775e-07 -1.72566115e-06
      1.01535886e-06 1.01535886e-06 -8.62830575e-07 5.07679431e-07
      3.55151116e-07 5.07679431e-07 0. 0. 0. 0. 0. 0. 0. 0. 0. 0. 0. 0.
      0. 0. 0. 0. 0. 0. 0. 0. 0. 0. 0. 0. 0. 0. 0. 0. 0. 0. 0. 0. 0. 0.
      0. 0. 0. 0. 0. 0. 0. 0. 0. 0. 0. 0. 0. 0. 0. 0. 0. 0. 0. 0. 0. 0.
      0. 0. 0. 0. 0. 0. 0. 0. 0. 0. 0. 0. 0. 0. 0. 0. 0. 0. 0. 0. 0. 0.
      0. 0. 0. 0. 0. 0. 0. 0. 0. 0. 0. 0. 0. 0. 0. 0. 0. 0. 0. 0. 0. 0.
      0. 0. 0. 0. 0. 0. 0. 0. 0. 0. 0. 0. 0. 0. 0. 0. 0. 0. 0. 0. 0. 0.
      0. 0. 0. 0. 0. 0. 0.</_>
    <_>
      5.98135955e-07 -8.50828428e-07 -3.27142772e-07 -2.97852330e-06
      6.65341702e-07 -6.78114361e-07 1.04247465e-06 -4.62639377e-07
      1.86161367e-06 9.88657575e-07 0. 0. 0. 0. 0. 0. 0. 0. 0. 0.
      -1.77057916e-06 -7.15331851e-07 -2.98593164e-04 -6.06520625e-05
      -5.35373147e-07 -3.03022989e-06 8.13151629e-20 -2.35832325e-04 0.
      9.30806834e-07 0. 0. 0. 0. 0. 0. 0. 0. 0. 0. 1.44343630e-06
      -3.82661000e-07 -5.94430167e-05 -1.52894279e-06 3.38198902e-07
      -6.65341702e-07 -1.20071479e-06 1.18349931e-06 6.39577265e-05
      9.30806834e-07 1.48298636e-06 0. 0. 0. 0. 0. 0. 0. 0. 0.
      -4.62639377e-07 5.47361742e-05 8.13151629e-20 2.96822418e-05
      6.08809241e-05 5.98135955e-07 2.35696833e-04 2.97508552e-04
      6.30269205e-05 0. 0. 0. 0. 0. 0. 0. 0. 0. 0. 0. 7.28104510e-07
      -6.52078161e-05 1.60892114e-06 6.31717703e-05 1.33962919e-06
      -2.65465133e-07 2.36025051e-04 3.00382671e-04 3.00135493e-04
      6.39577265e-05 7.41493182e-07 0. 0. 0. 0. 0. 0. 0. 0. 0.
      8.68043969e-07 -6.30269205e-05 -7.38075471e-07 -2.37023065e-04
      -2.95601872e-04 -2.97891209e-04 2.34130668e-04 2.98957515e-04
      3.00382671e-04 6.30269205e-05 0. 0. 0. 0. 0. 0. 0. 0. 0. 0.
      -2.10877806e-06 -6.09236704e-05 -2.46548410e-07 -2.34903215e-04
      -2.99186388e-04 -3.00382671e-04 -6.02883156e-05 8.13151629e-20
      3.00135493e-04 6.30269205e-05 0. 0. 0. 0. 0. 0. 0. 0. 0. 0.
      3.32670851e-07 2.94899917e-04 2.98951985e-04 6.11763608e-05
      -1.43066370e-06 -2.97003164e-04 -6.38588317e-05 1.29968527e-07
      2.98273866e-04 6.55721742e-05 0. 0. 0. 0. 0. 0. 0. 0. 0. 0.
      9.98012524e-07 2.31800266e-04 2.99920008e-04 6.36922632e-05 0.
      -3.27142772e-07 -6.25642788e-05 -6.36250552e-05 -2.47164394e-07
      6.27797563e-05 7.41493182e-07 0. 0. 0. 0. 0. 0. 0. 0. 0.
      -7.15331851e-07 2.37355736e-04 2.99173000e-04 6.21016443e-05
      -1.35496606e-07 7.77009461e-07 -6.33595919e-05 9.62496188e-07
      8.13151629e-20 6.30269205e-05 0. 0. 0. 0. 0. 0. 0. 0. 0. 0.
      2.19428443e-06 -6.39760256e-05 -1.19627191e-06 2.99119187e-04
      6.53305397e-05 1.57893294e-06 -6.42231898e-05 2.10324993e-06
      6.25325920e-05 0. 2.47164394e-07 0. 0. 0. 0. 0. 0. 0. 0. 0.
      -7.15331851e-07 -2.98692059e-04 -6.04182860e-05 1.38791813e-06
      -1.19627191e-06 -2.39254382e-06 1.90054766e-06 -1.11862607e-06
      6.30269205e-05 -1.23582197e-06 2.47164394e-07 0. 0. 0. 0. 0. 0. 0.
      0. 0. 6.91503033e-07 1.79440792e-06 -2.99888343e-04
      -6.30269205e-05 2.14599550e-06 -1.40683483e-06 -3.55402917e-05
      6.27925256e-05 -2.47164394e-07 4.94328788e-07 0. 0. 0. 0. 0. 0. 0.
      0. 0. 0. 1.79440792e-06 -2.10324993e-06 1.14628176e-06
      7.41493182e-07 -2.60863499e-06 1.33962919e-06 -2.55453507e-08
      -7.15331851e-07 2.47164394e-07 -2.47164394e-07 2.47164394e-07 0.
      0. 0. 0. 0. 0. 0. 0. 0. 0. 0. 0. 0. 0. 0. 0. 0. 0. 0. 0. 0. 0. 0.
      0. 0. 0. 0. 0. 0. 0. 0. 0. 0. 0. 0. 0. 0. 0. 0. 0. 0. 0. 0. 0. 0.
      0. 0. 0. 0. 0. 0. 0. 0. 0. 0. 0. 0. 0. 0. 0. 0. 0. 0. 0. 0. 0. 0.
      0. 0. 0. 0. 0. 0. 0. 0. 0. 0. 0. 0. 0. 0. 0. 0. 0. 0. 0. 0. 0. 0.
      0. 0. 0. 0. 0. 0. 0. 0. 0. 0. 0. 0. 0. 0. 0. 0. 0. 0. 0. 0. 0. 0.
      0. 0. 0. 0. 0. 0. 0. 0. 0. 0. 0. 0. 0. 0. 0. 0. 0. 0.</_>
    <_>
      -1.34606978e-06 1.58055150e-06 0. -4.06861955e-06 1.33534627e-06
      -1.23867233e-06 2.48806805e-06 0. 1.01273054e-06 5.50741277e-07 0.
      0. 0. 0. 0. 0. 0. 0. 0. 0. 1.00419061e-06 -2.92662139e-06
      -6.31901173e-07 2.55737454e-04 -2.10505527e-06 5.13780094e-07
      1.58055150e-06 -2.55395571e-04 0. -1.65611041e-07 0. 0. 0. 0. 0.
      0. 0. 0. 0. 0. -7.69708890e-07 -1.71835927e-06 2.54060229e-04
      5.76360947e-07 8.66382891e-07 -1.10086455e-06 3.93482100e-04
      4.00210702e-04 1.46806429e-04 -5.76360947e-07 3.45816557e-06 0. 0.
      0. 0. 0. 0. 0. 0. 0. -2.72254988e-06 2.54049490e-04 3.72694497e-20
      -6.62311379e-07 -2.56068597e-04 -2.01910484e-06 2.56068597e-04
      4.01791243e-04 1.45976388e-04 0. 0. 0. 0. 0. 0. 0. 0. 0. 0. 0.
      5.76360947e-07 2.54208746e-04 4.27829661e-07 -2.55361490e-04
      1.05604784e-06 1.67722555e-06 2.50236801e-04 4.03040642e-04
      4.01879370e-04 1.42413075e-04 1.72908278e-06 0. 0. 0. 0. 0. 0. 0.
      0. 0. 4.01676243e-06 -1.46972045e-04 -2.53288476e-06
      -2.52341852e-04 -3.99731012e-04 -3.97391472e-04 -1.46972045e-04
      1.71047548e-04 4.03040642e-04 1.46972045e-04 0. 0. 0. 0. 0. 0. 0.
      0. 0. 0. -9.66739861e-08 -1.45391488e-04 3.72694497e-20
      -2.56365660e-04 -3.96014977e-04 -4.03040642e-04 -1.46630162e-04
      3.63006643e-06 1.47988452e-04 1.46387130e-04 0. 0. 0. 0. 0. 0. 0.
      0. 0. 0. -8.10842664e-07 -3.41879229e-07 2.92662139e-06
      -8.55562903e-05 -1.81503322e-06 1.00419061e-06 -1.46395672e-04
      -3.31155690e-07 -2.58474211e-06 1.48823354e-04 0. 0. 0. 0. 0. 0.
      0. 0. 0. 0. 3.01257182e-06 -1.48980413e-04 2.64402274e-07
      1.46726830e-04 -9.07516608e-07 -1.25793576e-06 2.55072955e-04
      -1.46299004e-04 -5.76360947e-07 1.46395672e-04 1.72908278e-06 0.
      0. 0. 0. 0. 0. 0. 0. 0. -1.75470245e-06 -1.45217331e-04
      6.62311379e-07 1.46972045e-04 8.81340938e-08 4.16529383e-06
      2.53161241e-04 -9.66739861e-08 1.58055150e-06 1.45391488e-04 0. 0.
      0. 0. 0. 0. 0. 0. 0. 0. 1.10940448e-06 -1.43088226e-04
      1.76268188e-07 2.10507133e-05 1.49836080e-04 -2.90735784e-06
      -1.23590333e-04 7.61169019e-07 -2.57221312e-04 0. 5.76360947e-07
      0. 0. 0. 0. 0. 0. 0. 0. 0. 0. -2.53000500e-04 -1.46299004e-04
      9.07516608e-07 3.72694497e-20 1.99130136e-06 -1.42348040e-06
      -2.88180468e-06 1.46972045e-04 1.85984993e-06 5.76360947e-07 0. 0.
      0. 0. 0. 0. 0. 0. 0. 2.56766248e-06 -3.07296887e-06 9.76453634e-07
      -1.46531369e-04 2.66221900e-06 -2.56766248e-06 -1.54427471e-06
      1.46387130e-04 -3.73746411e-06 1.15272189e-06 0. 0. 0. 0. 0. 0. 0.
      0. 0. 0. 0. 0. 1.10086455e-06 1.18610679e-07 -9.07516608e-07
      -1.19542131e-06 1.59763135e-06 0. 5.76360947e-07 1.00419061e-06
      5.76360947e-07 0. 0. 0. 0. 0. 0. 0. 0. 0. 0. 0. 0. 0. 0. 0. 0. 0.
      0. 0. 0. 0. 0. 0. 0. 0. 0. 0. 0. 0. 0. 0. 0. 0. 0. 0. 0. 0. 0. 0.
      0. 0. 0. 0. 0. 0. 0. 0. 0. 0. 0. 0. 0. 0. 0. 0. 0. 0. 0. 0. 0. 0.
      0. 0. 0. 0. 0. 0. 0. 0. 0. 0. 0. 0. 0. 0. 0. 0. 0. 0. 0. 0. 0. 0.
      0. 0. 0. 0. 0. 0. 0. 0. 0. 0. 0. 0. 0. 0. 0. 0. 0. 0. 0. 0. 0. 0.
      0. 0. 0. 0. 0. 0. 0. 0. 0. 0. 0. 0. 0. 0. 0. 0. 0. 0. 0. 0. 0. 0.
      0. 0.</_>
    <_>
      4.28638742e-07 -4.28638742e-07 4.28638742e-07 4.28638742e-07
      -1.99850069e-06 2.37528198e-07 9.03695138e-07 -1.33233391e-06
      8.57277485e-07 9.50112792e-07 0. 0. 0. 0. 0. 0. 0. 0. 0. 0.
      -6.66166954e-07 -1.68540239e-04 -1.69159990e-04 -6.05232744e-05
      6.66166954e-07 -1.80739028e-06 1.08420217e-19 -1.07541906e-04
      -1.69872568e-04 4.28638742e-07 0. 0. 0. 0. 0. 0. 0. 0. 0. 0.
      1.09480561e-06 -1.69872568e-04 -6.05696914e-05 -8.57277485e-07
      4.28638742e-07 6.66166954e-07 1.08420217e-19 4.28638742e-07
      -1.08874236e-04 4.28638742e-07 1.42516922e-06 0. 0. 0. 0. 0. 0. 0.
      0. 0. 0. 1.09302877e-04 1.69872568e-04 6.05696914e-05
      5.85711896e-05 -2.37528198e-07 -6.07608017e-05 2.37528198e-07
      6.05696914e-05 0. 0. 0. 0. 0. 0. 0. 0. 0. 0. 0. 1.09480561e-06
      1.07397209e-04 1.69397506e-04 6.00482163e-05 1.14122338e-06
      2.37528198e-07 -5.92373581e-05 1.08420217e-19 1.69635037e-04
      6.09983290e-05 7.12584608e-07 0. 0. 0. 0. 0. 0. 0. 0. 0. 0.
      1.07304375e-04 1.69872568e-04 6.05696914e-05 -1.95208304e-06
      -1.69443927e-04 -6.18556078e-05 1.69635037e-04 1.69872568e-04
      6.05696914e-05 0. 0. 0. 0. 0. 0. 0. 0. 0. 0. -2.42713963e-06
      1.09302877e-04 1.67491846e-04 5.96195787e-05 8.57277485e-07
      -1.69872568e-04 -5.99035229e-05 1.69872568e-04 1.69635037e-04
      6.05696914e-05 0. 0. 0. 0. 0. 0. 0. 0. 0. 0. 0. 1.67445425e-04
      1.69206396e-04 6.05696914e-05 -1.69872568e-04 -1.69015286e-04
      -6.09519120e-05 1.68540239e-04 1.68777769e-04 6.16180769e-05 0. 0.
      0. 0. 0. 0. 0. 0. 0. 0. -6.66166954e-07 1.08874236e-04
      1.68589482e-04 6.04958259e-05 -1.69774081e-04 -1.69443927e-04
      1.09253633e-04 1.08874236e-04 1.69635037e-04 6.03321641e-05
      7.12584608e-07 0. 0. 0. 0. 0. 0. 0. 0. 0. 0. 1.06736697e-04
      1.69372885e-04 5.80035121e-05 -1.68351951e-04 -1.68114420e-04
      1.07378241e-04 1.69394683e-04 1.69872568e-04 6.05696914e-05 0. 0.
      0. 0. 0. 0. 0. 0. 0. 0. 7.83410940e-07 1.08609260e-04
      1.67090649e-04 1.49599555e-06 -1.07989508e-04 -1.66967540e-04
      1.07014777e-04 1.69872568e-04 6.00946332e-05 0. 2.37528198e-07 0.
      0. 0. 0. 0. 0. 0. 0. 0. -1.28308955e-06 4.92443561e-08
      1.09302877e-04 6.41544773e-07 -8.32655303e-07 5.84719010e-06
      1.69872568e-04 1.68182421e-04 6.05696914e-05 2.14319357e-06
      2.37528198e-07 0. 0. 0. 0. 0. 0. 0. 0. 0. 6.87962427e-07
      1.26129407e-06 -1.69397506e-04 -5.99035229e-05 1.94925656e-06
      1.68419952e-04 5.89780320e-05 6.14269666e-05 4.28638742e-07
      4.75056396e-07 0. 0. 0. 0. 0. 0. 0. 0. 0. 0. -1.28026284e-06
      -6.41544773e-07 8.08033121e-07 7.12584608e-07 -7.64655624e-07
      -7.83410940e-07 4.75056396e-07 -1.35695609e-06 2.37528198e-07
      4.28638742e-07 2.37528198e-07 0. 0. 0. 0. 0. 0. 0. 0. 0. 0. 0. 0.
      0. 0. 0. 0. 0. 0. 0. 0. 0. 0. 0. 0. 0. 0. 0. 0. 0. 0. 0. 0. 0. 0.
      0. 0. 0. 0. 0. 0. 0. 0. 0. 0. 0. 0. 0. 0. 0. 0. 0. 0. 0. 0. 0. 0.
      0. 0. 0. 0. 0. 0. 0. 0. 0. 0. 0. 0. 0. 0. 0. 0. 0. 0. 0. 0. 0. 0.
      0. 0. 0. 0. 0. 0. 0. 0. 0. 0. 0. 0. 0. 0. 0. 0. 0. 0. 0. 0. 0. 0.
      0. 0. 0. 0. 0. 0. 0. 0. 0. 0. 0. 0. 0. 0. 0. 0. 0. 0. 0. 0. 0. 0.
      0. 0. 0. 0. 0. 0. 0.</_>
    <_>
      -1.29247655e-06 1.48749632e-06 6.69107294e-07 -5.84222380e-06
      1.35089260e-06 1.00173179e-06 -1.07551591e-06 0. 2.81556186e-06
      1.79436131e-06 -1.92705740e-09 0. 0. 0. 0. 0. 0. 0. 0. 0.
      -4.47039156e-06 0. 2.44160265e-06 3.13994533e-05 -7.87299939e-07
      -5.05439721e-06 1.10724648e-06 -2.52563368e-05 -4.09218757e-07
      -8.04784975e-07 0. 0. 0. 0. 0. 0. 0. 0. 0. 0. 8.53336360e-07
      -1.54438453e-06 -5.51475023e-06 -2.07688822e-06 1.84870615e-07
      8.05711011e-07 -3.69336794e-06 -6.22368191e-07 -2.54946008e-05
      1.40199973e-06 6.01039073e-06 0. 0. 0. 0. 0. 0. 0. 0. 0.
      -6.51133132e-06 2.93843150e-05 -4.06575815e-20 1.65008591e-04
      2.55315157e-04 -1.29247655e-06 2.55680225e-05 -1.03768014e-06
      -1.29659340e-04 -2.45699795e-07 0. 0. 0. 0. 0. 0. 0. 0. 0. 0.
      2.51908034e-07 2.30364585e-05 -1.87700903e-06 -2.80280346e-05
      3.42139356e-06 1.49828702e-06 2.38250868e-05 9.80791924e-07
      2.27217737e-04 2.54636834e-04 3.00519537e-06 0. 0. 0. 0. 0. 0. 0.
      0. 0. 1.97390227e-06 2.69062366e-05 -4.29517797e-07
      -3.58245452e-04 -2.76553765e-04 -1.39188614e-06 2.39181227e-05
      -1.00173179e-06 3.33184173e-04 2.55441613e-04 -1.92705740e-09 0.
      0. 0. 0. 0. 0. 0. 0. 0. 1.00173179e-06 3.57022538e-04
      2.81295157e-04 -3.58318415e-04 -6.10482995e-04 -6.11356925e-04
      -2.55927385e-04 3.34039476e-04 6.13016717e-04 2.54335318e-04 0. 0.
      0. 0. 0. 0. 0. 0. 0. 0. 7.38673577e-07 6.09676295e-04
      2.82347843e-04 -3.58984136e-04 -6.14172837e-04 -6.11046562e-04
      -2.54164130e-04 -6.12219026e-07 3.28260590e-04 2.58662243e-04 0.
      0. 0. 0. 0. 0. 0. 0. 0. 0. 2.21602068e-06 2.37244385e-05
      2.82529209e-06 -2.23228599e-05 -3.37295205e-06 -7.05062405e-07
      2.66905263e-05 -2.53841572e-04 -1.00173179e-06 -2.68007225e-05
      3.00519537e-06 0. 0. 0. 0. 0. 0. 0. 0. 0. -2.32912157e-06
      -2.51300226e-04 -1.03658556e-06 -2.68343338e-05 -1.08832523e-06
      3.74028900e-06 3.56174773e-04 2.80940061e-04 4.07291708e-07
      -2.73135283e-05 0. 0. 0. 0. 0. 0. 0. 0. 0. 0. 2.93123298e-06
      2.81851062e-05 -3.02871683e-07 3.28985247e-04 2.57368200e-04
      -8.51581206e-07 2.64629962e-05 -4.06575815e-20 -3.60984704e-04
      -2.80135282e-04 1.00076829e-06 0. 0. 0. 0. 0. 0. 0. 0. 0.
      -4.40829490e-06 -3.28400813e-04 -2.52475962e-04 2.68492363e-06
      3.62855729e-07 -1.30225953e-06 -1.47734715e-06 -4.79127948e-06
      -2.46936706e-05 2.90547223e-06 1.00173179e-06 0. 0. 0. 0. 0. 0. 0.
      0. 0. 4.33873538e-06 -2.54134147e-06 -1.02076679e-04
      1.02000085e-05 1.03534296e-06 -1.18998150e-06 -1.73734312e-04
      -2.62507237e-05 1.85905762e-07 2.00153659e-06 0. 0. 0. 0. 0. 0. 0.
      0. 0. 0. 1.11234738e-06 -2.14258944e-06 -4.20460537e-07
      1.29563750e-06 -1.03534296e-06 1.41708460e-06 1.91715549e-06
      -8.14583416e-07 1.06757284e-07 -3.01735076e-06 9.99804797e-07 0.
      0. 0. 0. 0. 0. 0. 0. 0. 0. 0. 0. 0. 0. 0. 0. 0. 0. 0. 0. 0. 0. 0.
      0. 0. 0. 0. 0. 0. 0. 0. 0. 0. 0. 0. 0. 0. 0. 0. 0. 0. 0. 0. 0. 0.
      0. 0. 0. 0. 0. 0. 0. 0. 0. 0. 0. 0. 0. 0. 0. 0. 0. 0. 0. 0. 0. 0.
      0. 0. 0. 0. 0. 0. 0. 0. 0. 0. 0. 0. 0. 0. 0. 0. 0. 0. 0. 0. 0. 0.
      0. 0. 0. 0. 0. 0. 0. 0. 0. 0. 0. 0. 0. 0. 0. 0. 0. 0. 0. 0. 0. 0.
      0. 0. 0. 0. 0. 0. 0. 0. 0. 0. 0. 0. 0. 0. 0. 0. 0. 0.</_>
    <_>
      1.19525646e-06 -2.16326430e-06 1.23422080e-06 -2.22781796e-06 0.
      -2.18274636e-06 -2.18274636e-06 -1.94821865e-08 2.46844161e-06
      -4.67872439e-07 0. 0. 0. 0. 0. 0. 0. 0. 0. 0. -2.60831285e-07
      -5.11774078e-06 7.66348421e-07 -6.70722948e-05 5.21662571e-07
      -1.35183927e-06 3.31810065e-06 6.24849345e-05 0. 1.23422080e-06 0.
      0. 0. 0. 0. 0. 0. 0. 0. 0. 1.21473863e-06 -4.94847563e-06
      -6.51201335e-05 -2.46844161e-06 -1.72563762e-06 8.01976000e-07
      -2.71050543e-20 2.68492681e-06 6.63738319e-05 -1.74511979e-06
      1.53269684e-06 0. 0. 0. 0. 0. 0. 0. 0. 0. -1.20935681e-06
      -6.39302598e-05 2.34748154e-06 6.48787827e-05 6.48592977e-05
      1.23422080e-06 -6.76080526e-05 -2.68492681e-06 -3.14726320e-04 0.
      0. 0. 0. 0. 0. 0. 0. 0. 0. 0. 2.70440887e-06 -6.95655981e-05
      3.17561808e-06 6.29333226e-05 7.91212415e-07 -2.16326430e-06
      2.32088792e-06 2.43819591e-06 4.21356162e-06 6.04151537e-05
      7.66348421e-07 0. 0. 0. 0. 0. 0. 0. 0. 0. 0. -6.51396113e-05
      1.20935681e-06 6.51201335e-05 1.97570535e-06 4.12762631e-07
      -6.76134368e-05 5.38181277e-09 -2.71050543e-20 6.36499462e-05 0.
      0. 0. 0. 0. 0. 0. 0. 0. 0. 1.77520718e-07 -6.51006485e-05
      -4.65657013e-06 6.41178194e-05 -1.68129145e-06 -3.38760032e-07
      -6.18604754e-05 -2.71050543e-20 -2.55449464e-07 6.51396113e-05 0.
      0. 0. 0. 0. 0. 0. 0. 0. 0. 0. -4.21356162e-06 -2.71050543e-20
      -3.14726320e-04 -3.79344274e-04 -3.77339049e-04 -6.73774703e-05
      1.73101944e-06 -2.72389116e-06 6.85868290e-05 0. 0. 0. 0. 0. 0. 0.
      0. 0. 0. 0. 3.13492084e-04 -2.71050543e-20 -3.14726320e-04
      -3.78376251e-04 -3.77142045e-04 -6.51396113e-05 -6.48841669e-05
      3.79610487e-04 6.48841669e-05 7.66348421e-07 0. 0. 0. 0. 0. 0. 0.
      0. 0. 0. 3.11746990e-04 3.79355042e-04 6.51396113e-05
      -2.72389116e-06 -9.78771368e-07 -5.91809330e-05 -1.23422080e-06
      3.79865931e-04 6.51396113e-05 0. 0. 0. 0. 0. 0. 0. 0. 0. 0.
      2.46844161e-06 3.12513323e-04 3.72928480e-04 3.78631696e-04
      6.95655981e-05 -3.75907810e-04 -6.61183876e-05 3.78376251e-04
      6.46287153e-05 0. 2.55449464e-07 0. 0. 0. 0. 0. 0. 0. 0. 0.
      -1.48967035e-06 2.97934071e-06 3.14726320e-04 2.97934071e-06
      -2.46844161e-06 -4.93688322e-06 3.79865931e-04 3.77354474e-04
      6.51396113e-05 6.17110436e-06 2.55449464e-07 0. 0. 0. 0. 0. 0. 0.
      0. 0. 7.66348421e-07 2.21299229e-06 -3.79355042e-04
      -6.51396113e-05 1.48967035e-06 3.79099569e-04 6.41178194e-05
      6.61183876e-05 1.23422080e-06 5.10898928e-07 0. 0. 0. 0. 0. 0. 0.
      0. 0. 0. 3.70266253e-06 -4.46901095e-06 2.46844161e-06
      -2.21299229e-06 -1.48967035e-06 2.00056934e-06 5.10898928e-07 0.
      2.55449464e-07 1.23422080e-06 2.55449464e-07 0. 0. 0. 0. 0. 0. 0.
      0. 0. 0. 0. 0. 0. 0. 0. 0. 0. 0. 0. 0. 0. 0. 0. 0. 0. 0. 0. 0. 0.
      0. 0. 0. 0. 0. 0. 0. 0. 0. 0. 0. 0. 0. 0. 0. 0. 0. 0. 0. 0. 0. 0.
      0. 0. 0. 0. 0. 0. 0. 0. 0. 0. 0. 0. 0. 0. 0. 0. 0. 0. 0. 0. 0. 0.
      0. 0. 0. 0. 0. 0. 0. 0. 0. 0. 0. 0. 0. 0. 0. 0. 0. 0. 0. 0. 0. 0.
      0. 0. 0. 0. 0. 0. 0. 0. 0. 0. 0. 0. 0. 0. 0. 0. 0. 0. 0. 0. 0. 0.
      0. 0. 0. 0. 0. 0. 0. 0. 0. 0. 0. 0.</_>
    <_>
      4.28774838e-09 1.61535887e-08 -6.68283349e-07 4.28774838e-09
      -1.38602479e-06 6.88724697e-07 6.57362762e-07 7.03932983e-07
      7.12508495e-07 1.34703271e-06 0. 0. 0. 0. 0. 0. 0. 0. 0. 0.
      -1.34514221e-06 1.32610057e-06 1.01027456e-06 9.05004417e-05
      5.21254105e-06 -1.69665418e-06 -6.77626358e-20 8.58776257e-05 0.
      3.56254247e-07 0. 0. 0. 0. 0. 0. 0. 0. 0. 0. 2.63568324e-07
      7.03932983e-07 8.91477248e-05 1.75923895e-04 -3.57199525e-07
      -3.51966492e-07 1.76718167e-04 1.76381407e-04 8.62295929e-05
      3.56254247e-07 2.02054912e-06 0. 0. 0. 0. 0. 0. 0. 0. 0.
      7.03932983e-07 8.90959200e-05 1.76045593e-04 8.52116864e-05
      -8.81136657e-05 -1.75948619e-04 8.87462957e-05 1.76020869e-04
      8.58733329e-05 0. 0. 0. 0. 0. 0. 0. 0. 0. 0. 0. 3.04450992e-07
      9.08286238e-05 1.76044647e-04 -9.01698659e-05 -1.75683163e-04
      -3.35812899e-07 9.08448346e-05 1.76366200e-04 1.76381407e-04
      8.62295929e-05 1.01027456e-06 0. 0. 0. 0. 0. 0. 0. 0. 0.
      -2.89242678e-07 9.08243892e-05 1.76325324e-04 -9.07835056e-05
      -1.75014880e-04 6.46896751e-07 9.04800036e-05 1.76029440e-04
      1.76718167e-04 8.58733329e-05 0. 0. 0. 0. 0. 0. 0. 0. 0. 0.
      3.36758177e-07 9.01722597e-05 -1.71509935e-08 -9.21918618e-05
      3.91903882e-07 -4.08826750e-08 -2.51766295e-07 1.76718167e-04
      1.76381407e-04 8.58733329e-05 0. 0. 0. 0. 0. 0. 0. 0. 0. 0.
      3.13619033e-08 1.75286972e-04 7.13453744e-07 -8.94369659e-05
      -2.04413375e-08 -6.63995593e-07 1.76923731e-06 1.76366200e-04
      1.75668902e-04 8.66053379e-05 0. 0. 0. 0. 0. 0. 0. 0. 0. 0. 0.
      -8.58776257e-05 -6.77626358e-20 8.48392810e-05 0. 4.28774838e-09
      4.00363461e-07 9.08405418e-05 1.76381407e-04 8.55365797e-05
      1.01027456e-06 0. 0. 0. 0. 0. 0. 0. 0. 0. 3.51966492e-07
      -8.76331687e-05 -6.73516354e-07 8.58733329e-05 3.36758177e-07
      3.54311567e-07 8.87548740e-05 1.76713875e-04 1.76718167e-04
      8.58733329e-05 0. 0. 0. 0. 0. 0. 0. 0. 0. 0. 8.57549676e-09
      -8.55451508e-05 -8.57549676e-09 1.74964967e-04 8.52169687e-05
      3.49621416e-07 9.08362563e-05 1.76718167e-04 8.51998193e-05 0.
      3.36758177e-07 0. 0. 0. 0. 0. 0. 0. 0. 0. -1.76718167e-04
      -1.76036076e-04 8.94369659e-05 1.76718167e-04 1.74630550e-04
      1.76008005e-04 1.76366200e-04 1.74678120e-04 8.58733329e-05
      1.78127118e-06 3.36758177e-07 0. 0. 0. 0. 0. 0. 0. 0. 0.
      -1.75014880e-04 -1.76705304e-04 -3.49621416e-07 8.94588084e-05
      1.76718167e-04 1.74651999e-04 8.41852598e-05 8.58819112e-05
      3.56254247e-07 6.73516354e-07 0. 0. 0. 0. 0. 0. 0. 0. 0. 0.
      7.16796251e-07 -6.93012396e-07 8.57549676e-09 1.71420754e-06
      -3.41045933e-07 3.21549862e-07 1.72941589e-06 3.51966492e-07
      3.36758177e-07 3.56254247e-07 3.36758177e-07 0. 0. 0. 0. 0. 0. 0.
      0. 0. 0. 0. 0. 0. 0. 0. 0. 0. 0. 0. 0. 0. 0. 0. 0. 0. 0. 0. 0. 0.
      0. 0. 0. 0. 0. 0. 0. 0. 0. 0. 0. 0. 0. 0. 0. 0. 0. 0. 0. 0. 0. 0.
      0. 0. 0. 0. 0. 0. 0. 0. 0. 0. 0. 0. 0. 0. 0. 0. 0. 0. 0. 0. 0. 0.
      0. 0. 0. 0. 0. 0. 0. 0. 0. 0. 0. 0. 0. 0. 0. 0. 0. 0. 0. 0. 0. 0.
      0. 0. 0. 0. 0. 0. 0. 0. 0. 0. 0. 0. 0. 0. 0. 0. 0. 0. 0. 0. 0. 0.
      0. 0. 0. 0. 0. 0. 0. 0. 0. 0. 0. 0.</_>
    <_>
      4.32591577e-07 -5.26522683e-07 -7.09258529e-07 6.07185200e-07
      -3.58424671e-07 -1.05471565e-06 -3.58424671e-07 -3.50833858e-07 0.
      0. 0. 0. 0. 0. 0. 0. 0. 0. 0. 0. -2.60212090e-07 1.24115797e-06
      -3.65788537e-07 6.06617732e-07 -9.23046973e-05 -1.99635164e-04
      -2.02638650e-04 -1.77902947e-07 -7.95995902e-07 0. 0. 0. 0. 0. 0.
      0. 0. 0. 0. 0. -1.33675940e-06 -1.09260021e-04 1.14461568e-06
      -4.32591577e-07 -9.09658920e-05 -2.02974523e-04 -2.02978961e-04
      -2.02253257e-04 0. -3.17512718e-06 0. 0. 0. 0. 0. 0. 0. 0. 0. 0.
      9.15904602e-05 7.09258529e-07 8.89514737e-08 1.99219110e-04
      1.09161017e-04 -2.21410756e-09 -2.02262105e-04 -2.02108247e-04
      -5.64597428e-07 0. 0. 0. 0. 0. 0. 0. 0. 0. 0. 0. 9.23838452e-05
      -9.24968408e-05 -1.08904911e-04 2.02978961e-04 1.10711968e-04
      1.29334660e-06 -2.02097173e-04 -2.02536001e-04 -2.01391391e-04
      -3.17512718e-06 0. 0. 0. 0. 0. 0. 0. 0. 0. 0. -3.58424671e-07
      -2.01545263e-04 -1.09988097e-04 2.02185169e-04 1.09873836e-04
      -1.50304038e-06 -2.02620533e-04 -2.02974523e-04 -7.93781794e-07 0.
      0. 0. 0. 0. 0. 0. 0. 0. 0. 0. 3.63404325e-07 1.27621149e-07
      2.28687122e-06 2.02019844e-04 1.07691259e-04 2.16295803e-06
      -2.02108247e-04 -2.02809912e-04 -2.21410756e-09 -2.38134544e-06 0.
      0. 0. 0. 0. 0. 0. 0. 0. 0. -7.09258529e-07 3.68383951e-07
      9.23002663e-05 2.02978961e-04 1.10221903e-04 -2.02192765e-04
      -2.02618321e-04 -1.69046515e-07 -7.93781794e-07 0. 0. 0. 0. 0. 0.
      0. 0. 0. 0. 0. 9.39350116e-07 -9.74767147e-08 9.15828641e-05
      2.02615556e-04 -9.31698814e-05 -2.02541385e-04 -2.02943993e-04
      -2.33097950e-08 0. 0. 0. 0. 0. 0. 0. 0. 0. 0. 0. 0.
      -8.86797352e-07 -1.06531468e-06 9.22072213e-05 2.17600314e-06
      -9.22305262e-05 -2.01903676e-04 -7.51814014e-07 -7.84341012e-07
      -7.95995902e-07 0. 0. 0. 0. 0. 0. 0. 0. 0. 0. 0. 0.
      -4.77515584e-07 2.56758381e-06 1.04820327e-20 -9.14711927e-05
      4.32591577e-07 -7.95995902e-07 0. 0. 0. 0. 0. 0. 0. 0. 0. 0. 0. 0.
      0. -4.75730886e-08 -8.63487571e-07 -1.09838322e-04 1.77285256e-06
      -9.31006944e-05 -2.02102121e-04 -2.02262105e-04 -2.02127121e-04
      -2.02978961e-04 0. 0. 0. 0. 0. 0. 0. 0. 0. 0. 0. 0.
      -1.07802822e-04 -1.11037662e-04 1.16548975e-08 1.04820327e-20
      -9.23096741e-05 -2.02147989e-04 -2.01768693e-04 -2.02978961e-04 0.
      0. 0. 0. 0. 0. 0. 0. 0. 0. 0. -2.84257766e-07 -1.33528135e-06
      8.65183154e-07 3.63404325e-07 0. 9.04385388e-07 -8.86797352e-07
      -8.51832681e-07 0. 0. 0. 0. 0. 0. 0. 0. 0. 0. 0. 0. 0. 0. 0. 0. 0.
      0. 0. 0. 0. 0. 0. 0. 0. 0. 0. 0. 0. 0. 0. 0. 0. 0. 0. 0. 0. 0. 0.
      0. 0. 0. 0. 0. 0. 0. 0. 0. 0. 0. 0. 0. 0. 0. 0. 0. 0. 0. 0. 0. 0.
      0. 0. 0. 0. 0. 0. 0. 0. 0. 0. 0. 0. 0. 0. 0. 0. 0. 0. 0. 0. 0. 0.
      0. 0. 0. 0. 0. 0. 0. 0. 0. 0. 0. 0. 0. 0. 0. 0. 0. 0. 0. 0. 0. 0.
      0. 0. 0. 0. 0. 0. 0. 0. 0. 0. 0. 0. 0. 0. 0. 0. 0. 0. 0. 0. 0. 0.
      0. 0. 0. 0. 0.</_>
    <_>
      4.21463795e-07 -6.68986218e-07 0. 1.73941373e-07 0. 0. 0.
      -6.68986218e-07 0. -1.33797244e-06 0. 0. 0. 0. 0. 0. 0. 0. 0. 0.
      0. -1.67246559e-04 -1.07968313e-04 2.11758237e-21 -6.28706912e-05
      -1.69748557e-04 -1.69253515e-04 -1.70591491e-04 -1.70591491e-04
      -1.33797244e-06 0. 0. 0. 0. 0. 0. 0. 0. 0. 0. 4.21463795e-07
      -1.07473265e-04 6.68986218e-07 9.16508611e-07 -6.17066617e-05
      -1.69922496e-04 -1.70591491e-04 -1.69253515e-04 -6.68986218e-07 0.
      0. 0. 0. 0. 0. 0. 0. 0. 0. 0. 6.26231704e-05 1.69922496e-04
      1.70591491e-04 1.67346909e-04 1.07968313e-04 -1.70591491e-04
      -1.69922496e-04 -6.68986218e-07 -6.68986218e-07 0. 0. 0. 0. 0. 0.
      0. 0. 0. 0. 0. 6.22017105e-05 1.07473265e-04 6.28706912e-05
      1.70591491e-04 -6.21281288e-05 -1.69327090e-04 0. -6.68986218e-07
      -6.68986218e-07 0. 0. 0. 0. 0. 0. 0. 0. 0. 0. 0. 6.68986218e-07
      -2.67594487e-06 6.26231704e-05 1.70591491e-04 -6.35396791e-05
      -1.69922496e-04 0. 0. 0. -2.00695854e-06 0. 0. 0. 0. 0. 0. 0. 0.
      0. 0. -2.42842248e-06 1.68585518e-06 6.31182193e-05
      -4.21463795e-07 -6.32185765e-05 -1.68484170e-04 -1.70591491e-04 0.
      0. 0. 0. 0. 0. 0. 0. 0. 0. 0. 0. 0. 0. 4.95044844e-07
      6.08637347e-05 1.70591491e-04 -6.31182193e-05 -1.69253515e-04
      -1.70591491e-04 -1.70591491e-04 0. -1.33797244e-06 0. 0. 0. 0. 0.
      0. 0. 0. 0. 0. 1.26439136e-06 -3.76639491e-06 6.26231704e-05
      1.70343963e-04 1.06877866e-04 0. -1.70591491e-04 -1.70591491e-04
      -1.70591491e-04 0. 0. 0. 0. 0. 0. 0. 0. 0. 0. 0. -6.68986218e-07
      4.95044844e-07 6.24492313e-05 1.69922496e-04 1.06804284e-04
      -6.68986218e-07 -1.70591491e-04 -1.69253515e-04 -1.70588712e-04
      -2.76687917e-09 0. 0. 0. 0. 0. 0. 0. 0. 0. 0. 0. -1.70170024e-04
      -1.06208878e-04 1.70591491e-04 1.06630338e-04 4.21463795e-07
      -1.70591491e-04 -1.69922496e-04 -7.05554157e-07 0. 0. 0. 0. 0. 0.
      0. 0. 0. 0. 0. 3.21103471e-07 -1.70591491e-04 -1.05466308e-04
      -4.95044844e-07 -6.35396791e-05 -1.69748557e-04 -1.69922496e-04
      -1.69922496e-04 0. -3.33663047e-06 0. 0. 0. 0. 0. 0. 0. 0. 0. 0.
      -6.68986218e-07 6.43826061e-05 -1.07968313e-04 2.11758237e-21
      2.00695854e-06 -6.31182193e-05 -1.70591491e-04 -1.33797244e-06
      -6.74519981e-07 0. 0. 0. 0. 0. 0. 0. 0. 0. 0. 0. 4.21463795e-07
      -1.73941373e-07 1.73941373e-07 2.47522422e-07 -2.00695854e-06
      1.26439136e-06 0. -6.68986218e-07 0. -6.66219364e-07 0. 0. 0. 0.
      0. 0. 0. 0. 0. 0. 0. 0. 0. 0. 0. 0. 0. 0. 0. 0. 0. 0. 0. 0. 0. 0.
      0. 0. 0. 0. 0. 0. 0. 0. 0. 0. 0. 0. 0. 0. 0. 0. 0. 0. 0. 0. 0. 0.
      0. 0. 0. 0. 0. 0. 0. 0. 0. 0. 0. 0. 0. 0. 0. 0. 0. 0. 0. 0. 0. 0.
      0. 0. 0. 0. 0. 0. 0. 0. 0. 0. 0. 0. 0. 0. 0. 0. 0. 0. 0. 0. 0. 0.
      0. 0. 0. 0. 0. 0. 0. 0. 0. 0. 0. 0. 0. 0. 0. 0. 0. 0. 0. 0. 0. 0.
      0. 0. 0. 0. 0. 0. 0. 0. 0. 0. 0. 0. 0. 0. 0. 0.</_>
    <_>
      3.37687055e-07 -2.56159410e-07 -1.28079705e-07 6.75374110e-07
      -4.10018174e-07 -1.28079705e-07 -1.23005452e-06 -1.28079705e-07
      -5.38024835e-07 -3.84239144e-07 0. 0. 0. 0. 0. 0. 0. 0. 0. 0.
      -3.26603258e-05 1.07619576e-06 4.94738852e-05 1.37214971e-04
      8.59005959e-05 -1.36411516e-04 -1.37214971e-04 -1.37214971e-04
      -1.36945950e-04 -5.38329743e-07 0. 0. 0. 0. 0. 0. 0. 0. 0. 0.
      8.15276380e-08 5.06947435e-05 1.36676870e-04 1.36493036e-04
      8.61733351e-05 -1.36138769e-04 -1.36394927e-04 -1.36830728e-04
      -3.38909595e-05 -6.78871800e-07 0. 0. 0. 0. 0. 0. 0. 0. 0. 0.
      5.02939220e-05 1.37214971e-04 1.37214971e-04 1.35136710e-04
      -5.05758617e-05 -1.37214971e-04 -1.36958799e-04 -1.35164868e-04
      -1.36129747e-04 0. 0. 0. 0. 0. 0. 0. 0. 0. 0. 0. 5.10324317e-05
      8.61102017e-05 4.98797126e-05 1.35984912e-04 -4.96369430e-05
      -1.34971851e-04 -1.36958799e-04 -1.37214971e-04 -6.84801998e-05
      -9.52139942e-07 0. 0. 0. 0. 0. 0. 0. 0. 0. 0. 2.81938469e-07
      -8.20036348e-07 5.04220006e-05 8.20036348e-07 -5.14424501e-05 0.
      -1.36394927e-04 -1.36394927e-04 -6.95424533e-05 -2.73500035e-07 0.
      0. 0. 0. 0. 0. 0. 0. 0. 0. 2.00410838e-07 1.22266852e-06
      5.09766833e-05 -3.37687055e-07 -5.07688856e-05 1.68843530e-06
      -1.36958799e-04 -1.37214971e-04 -3.36132034e-05 -4.05603629e-07 0.
      0. 0. 0. 0. 0. 0. 0. 0. 0. 0. 4.00821676e-07 -8.59005959e-05
      1.28079705e-07 8.59821230e-05 0. -1.36394927e-04 -1.36676870e-04
      -1.32335458e-07 -1.36750018e-07 0. 0. 0. 0. 0. 0. 0. 0. 0. 0.
      4.74963286e-07 2.00410838e-07 -8.48967320e-05 -2.00410838e-07
      -5.10416285e-05 -1.37214971e-04 -1.37214971e-04 -1.37214971e-04
      -1.36676870e-04 -1.37086885e-04 0. 0. 0. 0. 0. 0. 0. 0. 0. 0. 0.
      -1.36814138e-04 -8.61102017e-05 5.38097879e-07 -5.11047620e-05
      -1.36676870e-04 -1.37214971e-04 -1.37214971e-04 -1.37214971e-04
      -1.36394927e-04 0. 0. 0. 0. 0. 0. 0. 0. 0. 0. -5.38097879e-07
      3.37687055e-07 5.21178226e-05 1.37214971e-04 8.54348255e-05
      -1.81470455e-06 -1.37214971e-04 -1.36138769e-04 -1.04144616e-04
      -2.05009087e-06 0. 0. 0. 0. 0. 0. 0. 0. 0. 0. -2.74552463e-07 0.
      5.11047620e-05 1.35737951e-04 8.52344165e-05 1.37276231e-07
      -1.37214971e-04 -1.37214971e-04 -1.37214971e-04 -1.28079705e-07 0.
      0. 0. 0. 0. 0. 0. 0. 0. 0. -5.38097879e-07 5.15797256e-05
      5.01658433e-05 1.37214971e-04 1.37214971e-04 8.61102017e-05
      -1.37214971e-04 -1.36676870e-04 -1.36804942e-04 0. 0. 0. 0. 0. 0.
      0. 0. 0. 0. 0. 3.37687055e-07 4.00821676e-07 -4.00821676e-07
      -3.37687055e-07 -1.07619576e-06 4.74963286e-07 0. -5.38097879e-07
      0. 0. 0. 0. 0. 0. 0. 0. 0. 0. 0. 0. 0. 0. 0. 0. 0. 0. 0. 0. 0. 0.
      0. 0. 0. 0. 0. 0. 0. 0. 0. 0. 0. 0. 0. 0. 0. 0. 0. 0. 0. 0. 0. 0.
      0. 0. 0. 0. 0. 0. 0. 0. 0. 0. 0. 0. 0. 0. 0. 0. 0. 0. 0. 0. 0. 0.
      0. 0. 0. 0. 0. 0. 0. 0. 0. 0. 0. 0. 0. 0. 0. 0. 0. 0. 0. 0. 0. 0.
      0. 0. 0. 0. 0. 0. 0. 0. 0. 0. 0. 0. 0. 0. 0. 0. 0. 0. 0. 0. 0. 0.
      0. 0. 0. 0. 0. 0. 0. 0. 0. 0. 0. 0. 0. 0. 0. 0. 0. 0. 0. 0. 0. 0.</_>
    <_>
      3.99508849e-07 -4.96982864e-07 -1.03795549e-06 -4.43439490e-07 0.
      -1.03795549e-06 -2.48491432e-07 -5.18977743e-07 0. 0. 0. 0. 0. 0.
      0. 0. 0. 0. 0. 0. -1.80542474e-06 1.28644695e-06 -1.02362188e-04
      1.51294353e-06 -9.29429443e-05 -1.94905631e-04 -1.95704648e-04
      -1.94666689e-04 0. 0. 0. 0. 0. 0. 0. 0. 0. 0. 0. 0. 3.99508849e-07
      9.35813950e-05 2.55089913e-06 -3.99508849e-07 -9.29964881e-05
      -1.95704648e-04 -1.95185668e-04 -1.95207656e-04 0. 0. 0. 0. 0. 0.
      0. 0. 0. 0. 0. 0. 9.25749846e-05 1.31549867e-04 2.71050543e-20
      6.05095556e-05 1.01865204e-04 0. -5.18977743e-07 -4.96982864e-07
      0. 0. 0. 0. 0. 0. 0. 0. 0. 0. 0. 0. 9.39809033e-05 -9.35813950e-05
      -1.00437297e-04 1.95185668e-04 1.03346603e-04 4.31057373e-07 0. 0.
      0. 0. 0. 0. 0. 0. 0. 0. 0. 0. 0. 0. 2.48491432e-07 -1.95704648e-04
      -1.00805257e-04 2.71050543e-20 -9.32354305e-05 -1.94688677e-04
      -4.96982864e-07 -7.67469203e-07 0. 0. 0. 0. 0. 0. 0. 0. 0. 0. 0.
      0. -1.16697800e-06 -1.92301188e-04 -1.01129284e-04 2.71435761e-06
      -9.35250209e-05 -1.93707107e-04 -1.93921209e-04 -1.95704648e-04 0.
      0. 0. 0. 0. 0. 0. 0. 0. 0. 0. 0. 0. -2.58045105e-07 9.29649395e-05
      1.93628730e-04 1.01377773e-04 -1.93628730e-04 -1.95456159e-04
      -1.95185668e-04 0. 0. 0. 0. 0. 0. 0. 0. 0. 0. 0. 0. 1.19852655e-06
      -1.12298835e-06 9.25749846e-05 1.95336688e-04 1.01443700e-04
      -1.03795549e-06 -1.95185668e-04 -1.95704648e-04 -1.95704648e-04 0.
      0. 0. 0. 0. 0. 0. 0. 0. 0. 0. -2.48491432e-07 7.35920651e-07
      9.35813950e-05 1.93899221e-04 1.01626269e-04 -2.48491432e-07
      -1.95704648e-04 -1.94688677e-04 -1.95704648e-04 0. 0. 0. 0. 0. 0.
      0. 0. 0. 0. 0. 0. -1.95305140e-04 -1.00676232e-04 1.95704648e-04
      1.00037789e-04 -1.19468893e-07 -1.95704648e-04 -1.93899221e-04 0.
      0. 0. 0. 0. 0. 0. 0. 0. 0. 0. 0. 1.22334984e-06 -1.95704648e-04
      -1.00610305e-04 8.21012577e-07 -9.42293918e-05 -1.94905631e-04
      -1.93380241e-04 -1.95456159e-04 0. -3.83734596e-06 0. 0. 0. 0. 0.
      0. 0. 0. 0. 0. -2.48491432e-07 9.50284084e-05 -1.02610677e-04
      2.71050543e-20 7.45474324e-07 -9.38298836e-05 -6.33653181e-05
      -4.96982864e-07 -7.67469203e-07 0. 0. 0. 0. 0. 0. 0. 0. 0. 0. 0.
      3.99508849e-07 -1.06950404e-06 5.50526295e-07 3.67960325e-07
      -1.26445207e-06 1.19852655e-06 -2.07591097e-06 -2.48491432e-07 0.
      -7.67469203e-07 0. 0. 0. 0. 0. 0. 0. 0. 0. 0. 0. 0. 0. 0. 0. 0. 0.
      0. 0. 0. 0. 0. 0. 0. 0. 0. 0. 0. 0. 0. 0. 0. 0. 0. 0. 0. 0. 0. 0.
      0. 0. 0. 0. 0. 0. 0. 0. 0. 0. 0. 0. 0. 0. 0. 0. 0. 0. 0. 0. 0. 0.
      0. 0. 0. 0. 0. 0. 0. 0. 0. 0. 0. 0. 0. 0. 0. 0. 0. 0. 0. 0. 0. 0.
      0. 0. 0. 0. 0. 0. 0. 0. 0. 0. 0. 0. 0. 0. 0. 0. 0. 0. 0. 0. 0. 0.
      0. 0. 0. 0. 0. 0. 0. 0. 0. 0. 0. 0. 0. 0. 0. 0. 0. 0. 0. 0. 0. 0.
      0. 0. 0.</_>
    <_>
      6.70794904e-08 0. 0. 4.36206108e-07 -7.65573077e-07 0.
      -1.51023571e-07 0. -1.51023571e-07 -1.84364853e-06 0. 0. 0. 0. 0.
      0. 0. 0. 0. 0. 0. 1.07807546e-06 9.83167411e-05 1.95221131e-04
      -1.00082849e-04 -1.94331864e-04 -1.95070112e-04 -1.93226471e-04 0.
      -1.22909910e-06 0. 0. 0. 0. 0. 0. 0. 0. 0. 0. -2.39111864e-06
      1.01093850e-04 1.95221131e-04 -2.18103054e-07 -1.00217010e-04
      -1.95221131e-04 0. -9.16596662e-07 -1.22909910e-06 -7.65573077e-07
      0. 0. 0. 0. 0. 0. 0. 0. 0. 0. 1.00300953e-04 1.94153516e-04
      1.35525272e-20 -1.98223233e-06 -1.00300953e-04 -4.53070697e-07
      -6.14549549e-07 -1.38012263e-06 -1.51023571e-07 0. 0. 0. 0. 0. 0.
      0. 0. 0. 0. 0. 1.00848425e-04 9.16690915e-05 -9.25290660e-05
      1.35525272e-20 9.55620490e-05 4.92830338e-07 0. 0. -6.14549549e-07
      -1.36966742e-06 0. 0. 0. 0. 0. 0. 0. 0. 0. 0. 7.65573077e-07
      -1.93377491e-04 -9.40035898e-05 6.14549549e-07 -1.00848425e-04
      -1.94768072e-04 -1.93992033e-04 -1.22909910e-06 0. 0. 0. 0. 0. 0.
      0. 0. 0. 0. 0. 0. -9.83676159e-07 -1.92979060e-04 -9.22836407e-05
      -3.69126639e-07 -1.00491736e-04 -1.93375512e-04 -1.94919092e-04
      -1.92762935e-04 -3.91255599e-05 -6.14549549e-07 0. 0. 0. 0. 0. 0.
      0. 0. 0. 0. 0. -1.94428241e-04 -9.40706668e-05 3.92870388e-05
      9.28981899e-05 0. -1.95221131e-04 -1.95070112e-04 -1.95221131e-04
      -6.14549549e-07 0. 0. 0. 0. 0. 0. 0. 0. 0. 0. 1.10737983e-06
      -1.94824694e-04 -9.44671119e-05 1.93293541e-04 9.37854857e-05
      -1.38012263e-06 -1.51023571e-07 -1.94455570e-04 -1.95221131e-04 0.
      0. 0. 0. 0. 0. 0. 0. 0. 0. 0. -1.84364853e-06 -1.92584601e-04
      -9.41272883e-05 1.94455570e-04 9.35127391e-05 0. -1.51023571e-07
      -1.95221131e-04 -1.94455570e-04 -7.65573077e-07 0. 0. 0. 0. 0. 0.
      0. 0. 0. 0. -1.51023571e-07 -1.94237466e-04 -9.27178626e-05
      3.91255599e-05 9.33890333e-05 -5.47470052e-07 -1.56710128e-04
      -1.94304535e-04 -1.95221131e-04 0. 0. 0. 0. 0. 0. 0. 0. 0. 0. 0.
      1.58578587e-06 -3.97401091e-05 -9.33617193e-05 -7.92892934e-07
      -1.01462974e-04 -1.94180844e-04 -1.94606590e-04 -1.95221131e-04 0.
      -1.53114615e-06 0. 0. 0. 0. 0. 0. 0. 0. 0. 0. -1.22909910e-06
      1.00821104e-04 9.99989061e-05 7.55117867e-07 1.84364853e-06
      -9.98647520e-05 -1.94304535e-04 -6.14549549e-07 -2.29671923e-06 0.
      0. 0. 0. 0. 0. 0. 0. 0. 0. 0. 3.69126639e-07 7.92892934e-07
      7.38253277e-07 -1.58777038e-06 0. -1.96536780e-06 -1.06762025e-06
      0. 0. 0. 0. 0. 0. 0. 0. 0. 0. 0. 0. 0. 0. 0. 0. 0. 0. 0. 0. 0. 0.
      0. 0. 0. 0. 0. 0. 0. 0. 0. 0. 0. 0. 0. 0. 0. 0. 0. 0. 0. 0. 0. 0.
      0. 0. 0. 0. 0. 0. 0. 0. 0. 0. 0. 0. 0. 0. 0. 0. 0. 0. 0. 0. 0. 0.
      0. 0. 0. 0. 0. 0. 0. 0. 0. 0. 0. 0. 0. 0. 0. 0. 0. 0. 0. 0. 0. 0.
      0. 0. 0. 0. 0. 0. 0. 0. 0. 0. 0. 0. 0. 0. 0. 0. 0. 0. 0. 0. 0. 0.
      0. 0. 0. 0. 0. 0. 0. 0. 0. 0. 0. 0. 0. 0. 0. 0. 0. 0. 0. 0. 0. 0.
      0.</_>
    <_>
      5.60160970e-07 -8.39022334e-07 0. 1.12032194e-06 -2.51706706e-06
      0. 0. -1.67804467e-06 0. 0. 0. 0. 0. 0. 0. 0. 0. 0. 0. 0.
      -8.39022334e-07 -2.10594604e-04 -1.43398764e-04 8.39022334e-07
      -6.99917655e-05 -2.11991355e-04 -2.13950698e-04 -2.12272644e-04
      -2.13950698e-04 0. 0. 0. 0. 0. 0. 0. 0. 0. 0. 0. 5.60160970e-07
      -1.42841047e-04 2.71050543e-20 -5.60160970e-07 -6.94340415e-05
      -2.13111663e-04 -2.13950698e-04 -2.13111663e-04 -2.13950698e-04 0.
      0. 0. 0. 0. 0. 0. 0. 0. 0. 0. 7.05519269e-05 2.13950698e-04
      2.13950698e-04 2.10878337e-04 1.40881704e-04 -8.39022334e-07
      -2.13111663e-04 -2.12272644e-04 0. 0. 0. 0. 0. 0. 0. 0. 0. 0. 0.
      0. 7.16698123e-05 1.42002027e-04 7.08307925e-05 2.13950698e-04
      1.43956495e-04 1.68048291e-06 -2.12272644e-04 -2.13950698e-04 0.
      0. 0. 0. 0. 0. 0. 0. 0. 0. 0. 0. 8.39022334e-07 -2.51706706e-06
      7.13909467e-05 2.13950698e-04 1.38085772e-04 -2.13950698e-04
      -2.13950698e-04 0. 0. 0. 0. 0. 0. 0. 0. 0. 0. 0. 0. 0.
      -3.07722803e-06 2.24064388e-06 7.02706311e-05 2.13390536e-04
      1.42557299e-04 -2.11149891e-04 -2.13111663e-04 0. 0. 0. 0. 0. 0.
      0. 0. 0. 0. 0. 0. 0. 0. -2.81299577e-07 6.99917655e-05
      2.13950698e-04 -7.11096509e-05 -2.13950698e-04 -2.13111663e-04
      -1.67804467e-06 0. 0. 0. 0. 0. 0. 0. 0. 0. 0. 0. 0. 8.41460519e-07
      2.78861364e-07 7.05519269e-05 2.11154766e-04 -6.85950217e-05
      -2.13950698e-04 -1.67804467e-06 0. 0. 0. 0. 0. 0. 0. 0. 0. 0. 0.
      0. 0. 0. 5.57722728e-07 7.02706311e-05 2.13111663e-04
      -7.11096509e-05 -2.13950698e-04 0. -1.67804467e-06 0. 0. 0. 0. 0.
      0. 0. 0. 0. 0. 0. 0. -2.51706706e-06 -1.95690609e-06
      7.27901352e-05 2.71050543e-20 -6.97129071e-05 -2.10034443e-04
      -5.03413412e-06 0. 0. 0. 0. 0. 0. 0. 0. 0. 0. 0. 0. 0.
      1.11544546e-06 0. 7.11096509e-05 -5.57722728e-07 -7.08307925e-05
      1.12032194e-06 0. -2.51706706e-06 0. 0. 0. 0. 0. 0. 0. 0. 0. 0. 0.
      0. -8.39022334e-07 7.19511081e-05 -1.43398764e-04 8.39022334e-07
      8.39022334e-07 1.39484953e-04 0. 0. 0. 0. 0. 0. 0. 0. 0. 0. 0. 0.
      0. 0. 5.60160970e-07 5.57722728e-07 -5.57722728e-07 2.78861364e-07
      -4.19511161e-06 1.68048291e-06 0. -2.51706706e-06 0. 0. 0. 0. 0.
      0. 0. 0. 0. 0. 0. 0. 0. 0. 0. 0. 0. 0. 0. 0. 0. 0. 0. 0. 0. 0. 0.
      0. 0. 0. 0. 0. 0. 0. 0. 0. 0. 0. 0. 0. 0. 0. 0. 0. 0. 0. 0. 0. 0.
      0. 0. 0. 0. 0. 0. 0. 0. 0. 0. 0. 0. 0. 0. 0. 0. 0. 0. 0. 0. 0. 0.
      0. 0. 0. 0. 0. 0. 0. 0. 0. 0. 0. 0. 0. 0. 0. 0. 0. 0. 0. 0. 0. 0.
      0. 0. 0. 0. 0. 0. 0. 0. 0. 0. 0. 0. 0. 0. 0. 0. 0. 0. 0. 0. 0. 0.
      0. 0. 0. 0. 0. 0. 0. 0. 0. 0. 0. 0. 0. 0. 0. 0. 0.</_>
    <_>
      4.01287537e-08 -4.67153370e-07 0. -1.21488642e-06 -2.33576685e-07
      0. -1.23034363e-06 0. 0. -8.54517452e-07 -1.73504180e-08 0. 0. 0.
      0. 0. 0. 0. 0. 0. -1.68365841e-06 1.71369709e-06 1.03816419e-04
      1.12146081e-04 -1.03994847e-04 -2.17201974e-04 -2.18060450e-04
      -1.10960798e-04 -1.73504180e-08 -8.54517452e-07 0. 0. 0. 0. 0. 0.
      0. 0. 0. 0. -6.91820730e-07 1.04438070e-04 5.20220165e-05
      -4.44843266e-07 -1.03373197e-04 -2.17873108e-04 -2.18496381e-04
      -2.17795648e-04 -1.11128458e-04 -5.20512522e-08 0. 0. 0. 0. 0. 0.
      0. 0. 0. 0. 1.02132763e-04 1.11771405e-04 -4.19281309e-20
      1.04804858e-04 1.14025468e-04 -4.04714513e-07 -1.07333224e-04
      -2.18075467e-04 -1.10735898e-04 -2.21217829e-06 0. 0. 0. 0. 0. 0.
      0. 0. 0. 0. 1.04867897e-04 5.89945466e-06 -1.13613460e-04
      1.07333224e-04 1.14615905e-04 1.13217254e-06 -1.07566797e-04
      -2.18294022e-04 -1.11154484e-04 -8.54517452e-07 0. 0. 0. 0. 0. 0.
      0. 0. 0. 0. 6.54491259e-07 -1.07333224e-04 -1.12576570e-04
      -4.19281309e-20 2.52776499e-06 -1.82237466e-06 -1.07535576e-04
      -2.18496381e-04 -1.10735898e-04 0. -1.73504180e-08 0. 0. 0. 0. 0.
      0. 0. 0. 0. 4.12005278e-07 1.37465861e-06 -1.63240622e-06
      6.29381873e-07 -1.03873186e-04 -2.15431515e-04 -2.18029221e-04
      -1.10758439e-04 0. -4.27258726e-07 0. 0. 0. 0. 0. 0. 0. 0. 0. 0.
      0. 8.24010556e-07 -2.68388339e-06 -4.19281309e-20 -1.04594190e-04
      -2.18075467e-04 -2.17873108e-04 -2.18262794e-04 -1.11163157e-04
      -8.67520900e-09 0. 0. 0. 0. 0. 0. 0. 0. 0. 0. 1.33452977e-06
      -1.07154796e-04 -1.13183640e-04 1.07621949e-04 1.12069283e-04
      -6.23271831e-07 -1.07940294e-04 -2.17452194e-04 -2.18496381e-04
      -1.10727226e-04 0. 0. 0. 0. 0. 0. 0. 0. 0. 0. -4.35933941e-07
      -2.16738059e-04 -1.12811766e-04 1.06678730e-04 1.11767578e-04
      -2.02357256e-07 -4.67153370e-07 -1.07333224e-04 -2.18496381e-04
      -1.11163157e-04 0. 0. 0. 0. 0. 0. 0. 0. 0. 0. -6.07071797e-07
      -1.06326363e-04 -1.11866924e-04 1.07332038e-04 1.12342990e-04
      -8.64139281e-07 -1.06912310e-04 -2.18496381e-04 -2.18470348e-04
      -1.10308640e-04 -8.67520900e-09 0. 0. 0. 0. 0. 0. 0. 0. 0.
      5.26376425e-07 -1.07535576e-04 -1.12546964e-04 4.38733252e-07
      -1.05303829e-04 -2.16983419e-04 -2.18496381e-04 -2.18294022e-04
      -1.10308640e-04 -1.28177624e-06 0. 0. 0. 0. 0. 0. 0. 0. 0. 0.
      -4.04714513e-07 1.05461564e-04 1.04003753e-04 5.95620550e-05
      2.33576685e-07 -1.04594190e-04 -2.18075467e-04 -1.11569054e-04 0.
      -1.73504180e-08 0. 0. 0. 0. 0. 0. 0. 0. 0. 0. 2.39286759e-08
      1.54499915e-07 -7.77771788e-07 -8.90932572e-09 -2.33576685e-07
      1.10095311e-06 -1.68247766e-06 0. -4.20914603e-07 -1.70903490e-06
      -1.73504180e-08 0. 0. 0. 0. 0. 0. 0. 0. 0. 0. 0. 0. 0. 0. 0. 0. 0.
      0. 0. 0. 0. 0. 0. 0. 0. 0. 0. 0. 0. 0. 0. 0. 0. 0. 0. 0. 0. 0. 0.
      0. 0. 0. 0. 0. 0. 0. 0. 0. 0. 0. 0. 0. 0. 0. 0. 0. 0. 0. 0. 0. 0.
      0. 0. 0. 0. 0. 0. 0. 0. 0. 0. 0. 0. 0. 0. 0. 0. 0. 0. 0. 0. 0. 0.
      0. 0. 0. 0. 0. 0. 0. 0. 0. 0. 0. 0. 0. 0. 0. 0. 0. 0. 0. 0. 0. 0.
      0. 0. 0. 0. 0. 0. 0. 0. 0. 0. 0. 0. 0. 0. 0. 0. 0. 0. 0. 0. 0. 0.
      0. 0.</_>
    <_>
      -1.86375315e-09 0. 0. -1.39111557e-06 0. -1.81792487e-07
      -8.92224477e-07 -1.81792487e-07 0. -7.10432005e-07 0. 0. 0. 0. 0.
      0. 0. 0. 0. 0. -5.28639532e-07 7.10432005e-07 8.82238310e-05
      7.10432005e-07 -8.75152618e-05 -1.80436720e-04 -1.78483489e-04
      -5.28639532e-07 0. 0. 0. 0. 0. 0. 0. 0. 0. 0. 0. 0.
      -5.30503257e-07 4.27459563e-05 1.81792487e-07 -3.61721220e-07
      -8.84037581e-05 -1.79392446e-04 -1.81160154e-04 -1.80102885e-04 0.
      -1.42086401e-06 0. 0. 0. 0. 0. 0. 0. 0. 0. 0. 8.82238310e-05 0.
      4.75775551e-06 1.77467096e-04 9.22258987e-05 0. -1.81160154e-04
      -1.80796575e-04 -1.81160154e-04 0. 0. 0. 0. 0. 0. 0. 0. 0. 0. 0.
      8.91011805e-05 -8.89212461e-05 -9.20422463e-05 1.81160154e-04
      9.36337528e-05 1.08516360e-06 -4.68857215e-05 -1.80978372e-04
      -1.79028866e-04 -2.84172802e-06 0. 0. 0. 0. 0. 0. 0. 0. 0. 0.
      7.10432005e-07 -1.81160154e-04 -9.22258987e-05 1.80978372e-04
      9.11667594e-05 -1.94950348e-06 -1.80978372e-04 -1.80631527e-04
      -1.81160154e-04 -7.10432005e-07 0. 0. 0. 0. 0. 0. 0. 0. 0. 0.
      -3.78459163e-07 -1.79349692e-04 -9.15284763e-05 1.80798437e-04
      9.15043202e-05 5.52796621e-07 -1.78847069e-04 -1.81160154e-04
      -1.81160154e-04 0. 0. 0. 0. 0. 0. 0. 0. 0. 0. 0. 0.
      -1.80462739e-04 -9.25876229e-05 0. -8.78639694e-05 -1.80614777e-04
      -1.81160154e-04 -1.80102885e-04 -1.81160154e-04 0. 0. 0. 0. 0. 0.
      0. 0. 0. 0. 0. 1.08516360e-06 3.48710785e-07 -9.29363305e-05
      -3.48710785e-07 -8.85855479e-05 -1.80449730e-04 -1.81160154e-04
      -1.80449730e-04 0. 0. 0. 0. 0. 0. 0. 0. 0. 0. 0. 0. 0.
      -7.23442440e-07 8.89212461e-05 1.80449730e-04 9.08180446e-05
      -7.10432005e-07 -1.78318427e-04 -1.81160154e-04 0. 0. 0. 0. 0. 0.
      0. 0. 0. 0. 0. 0. 0. 3.61721220e-07 8.78751162e-05 1.81160154e-04
      9.15154669e-05 -1.80798437e-04 -1.80449730e-04 -7.10432005e-07 0.
      0. 0. 0. 0. 0. 0. 0. 0. 0. 0. 0. 6.84411134e-07 0. 8.89212461e-05
      7.23442440e-07 -8.92829703e-05 -1.80436720e-04 0. 0. 0. 0. 0. 0.
      0. 0. 0. 0. 0. 0. 0. 0. 0. 8.92959797e-05 -9.29363305e-05 0.
      7.10432005e-07 9.22389081e-05 0. -7.10432005e-07 0. 0. 0. 0. 0. 0.
      0. 0. 0. 0. 0. 0. 3.61721220e-07 -1.43387444e-06 7.23442440e-07
      -1.07215317e-06 -7.10432005e-07 1.08516360e-06 0. 0. 0. 0. 0. 0.
      0. 0. 0. 0. 0. 0. 0. 0. 0. 0. 0. 0. 0. 0. 0. 0. 0. 0. 0. 0. 0. 0.
      0. 0. 0. 0. 0. 0. 0. 0. 0. 0. 0. 0. 0. 0. 0. 0. 0. 0. 0. 0. 0. 0.
      0. 0. 0. 0. 0. 0. 0. 0. 0. 0. 0. 0. 0. 0. 0. 0. 0. 0. 0. 0. 0. 0.
      0. 0. 0. 0. 0. 0. 0. 0. 0. 0. 0. 0. 0. 0. 0. 0. 0. 0. 0. 0. 0. 0.
      0. 0. 0. 0. 0. 0. 0. 0. 0. 0. 0. 0. 0. 0. 0. 0. 0. 0. 0. 0. 0. 0.
      0. 0. 0. 0. 0. 0. 0. 0. 0. 0. 0. 0. 0. 0. 0. 0. 0. 0.</_>
    <_>
      5.18927436e-07 -5.71540113e-07 -1.62749700e-06 1.03785487e-06
      -1.20619211e-06 -5.27978443e-07 -3.15559134e-08 0. 0. 0. 0. 0. 0.
      0. 0. 0. 0. 0. 0. 0. -2.11191377e-06 2.13592534e-06 1.54873196e-04
      2.87852454e-04 -1.69585064e-06 -2.87386123e-04 -8.04675801e-06 0.
      0. 0. 0. 0. 0. 0. 0. 0. 0. 0. 0. 0. 3.92703782e-07 1.53326910e-04
      2.88423995e-04 2.86722876e-04 -1.53280213e-04 -2.87852454e-04 0.
      0. 0. 0. 0. 0. 0. 0. 0. 0. 0. 0. 0. 0. 1.54873196e-04
      2.87292904e-04 2.87852454e-04 2.83069559e-04 -1.54810084e-04
      -2.88329320e-04 -6.31118269e-08 0. 0. 0. 0. 0. 0. 0. 0. 0. 0. 0.
      0. 0. 1.56553302e-04 1.31798515e-04 1.55485337e-04 1.35525272e-20
      -1.53089364e-04 1.02880392e-06 0. 0. 0. 0. 0. 0. 0. 0. 0. 0. 0. 0.
      0. 0. 7.51176259e-08 -1.17463617e-06 1.55941161e-04 9.46677403e-08
      -1.56044873e-04 -1.80928816e-06 0. 0. 0. 0. 0. 0. 0. 0. 0. 0. 0.
      0. 0. 0. -4.87371551e-07 2.07570974e-06 -1.32326502e-04
      5.26126840e-08 1.33125082e-04 2.00354702e-06 0. 0. 0. 0. 0. 0. 0.
      0. 0. 0. 0. 0. 0. 0. -5.71540113e-07 -4.22753061e-07
      -1.30676490e-04 5.27978443e-07 1.31766967e-04 0. 0. 0. 0. 0. 0. 0.
      0. 0. 0. 0. 0. 0. 0. 0. 1.55678231e-06 -2.87811854e-04
      -1.33550799e-04 2.85549700e-04 1.31900786e-04 0. -3.15559134e-08
      0. 0. 0. 0. 0. 0. 0. 0. 0. 0. 0. 0. 0. 0. -2.87199684e-04
      -1.32326502e-04 2.87292904e-04 1.32326502e-04 -3.39322332e-06
      -6.31118269e-08 0. 0. 0. 0. 0. 0. 0. 0. 0. 0. 0. 0. 0. 0.
      -2.87905073e-04 -1.30769709e-04 2.87292904e-04 1.31288645e-04
      5.18927436e-07 0. 0. 0. 0. 0. 0. 0. 0. 0. 0. 0. 0. 0. 0.
      -2.85975402e-04 -2.88423995e-04 1.56097492e-04 2.87199684e-04
      1.28414351e-04 -9.32195690e-08 0. 0. 0. 0. 0. 0. 0. 0. 0. 0. 0. 0.
      0. 0. -2.87292904e-04 -1.30769709e-04 1.51479966e-04
      2.86161841e-04 2.88423995e-04 1.32326502e-04 -3.15559134e-08 0. 0.
      0. 0. 0. 0. 0. 0. 0. 0. 0. 0. 0. 5.18927436e-07 9.32195690e-08
      1.03785487e-06 6.12147005e-07 -1.13107444e-06 4.25707867e-07 0. 0.
      0. 0. 0. 0. 0. 0. 0. 0. 0. 0. 0. 0. 0. 0. 0. 0. 0. 0. 0. 0. 0. 0.
      0. 0. 0. 0. 0. 0. 0. 0. 0. 0. 0. 0. 0. 0. 0. 0. 0. 0. 0. 0. 0. 0.
      0. 0. 0. 0. 0. 0. 0. 0. 0. 0. 0. 0. 0. 0. 0. 0. 0. 0. 0. 0. 0. 0.
      0. 0. 0. 0. 0. 0. 0. 0. 0. 0. 0. 0. 0. 0. 0. 0. 0. 0. 0. 0. 0. 0.
      0. 0. 0. 0. 0. 0. 0. 0. 0. 0. 0. 0. 0. 0. 0. 0. 0. 0. 0. 0. 0. 0.
      0. 0. 0. 0. 0. 0. 0. 0. 0. 0. 0. 0. 0. 0. 0. 0. 0. 0. 0. 0. 0. 0.</_>
    <_>
      0. -2.09990361e-07 4.44867538e-07 2.48868197e-08 4.44867538e-07 0.
      4.44867538e-07 -6.79744744e-07 0. -1.35948949e-06 0. 0. 0. 0. 0.
      0. 0. 0. 0. 0. 7.04631532e-07 -1.71295673e-04 -5.98936822e-05
      -7.04631532e-07 -2.66815378e-20 -1.33460264e-06 4.19980722e-07
      -1.72865155e-04 -1.72655156e-04 -1.35948949e-06 0. 0. 0. 0. 0. 0.
      0. 0. 0. 0. 8.89735077e-07 -9.39508709e-07 -4.15046144e-20
      1.35948949e-06 -4.69754355e-07 6.79744744e-07 -2.66815378e-20
      4.69754355e-07 -6.79744744e-07 2.71897898e-06 0. 0. 0. 0. 0. 0. 0.
      0. 0. 0. 0. 1.72210290e-04 1.73100023e-04 -6.79744744e-07
      2.45921478e-06 -1.73334905e-04 -2.09990361e-07 1.72185406e-04
      -6.79744744e-07 0. 0. 0. 0. 0. 0. 0. 0. 0. 0. 0. -4.69754355e-07
      1.72865155e-04 1.72445172e-04 0. -1.73334905e-04 -1.73334905e-04
      1.72865155e-04 1.71975407e-04 1.71295673e-04 2.71897898e-06 0. 0.
      0. 0. 0. 0. 0. 0. 0. 0. 1.12461225e-06 1.68836457e-04
      1.71950524e-04 6.79744744e-07 -1.73334905e-04 -1.71530541e-04
      1.72890039e-04 1.73334905e-04 6.79744744e-07 -2.03923423e-06 0. 0.
      0. 0. 0. 0. 0. 0. 0. 0. -2.71897898e-06 2.24922451e-06
      4.44867538e-07 -1.72865155e-04 -1.71110572e-04 -1.73334905e-04
      -4.69754355e-07 1.72865155e-04 0. 2.03923423e-06 0. 0. 0. 0. 0. 0.
      0. 0. 0. 0. 4.44867538e-07 4.44867538e-07 -2.03923423e-06 0.
      -1.73100023e-04 1.12461225e-06 -4.44867538e-07 -1.72865155e-04
      6.79744744e-07 -1.35948949e-06 0. 0. 0. 0. 0. 0. 0. 0. 0. 0.
      4.44867538e-07 -3.37383676e-06 4.44867538e-07 0. 1.73334905e-04
      1.73100023e-04 -7.04631532e-07 -1.72865155e-04 -1.73334905e-04 0.
      0. 0. 0. 0. 0. 0. 0. 0. 0. 0. 2.48868197e-08 2.22433778e-06
      2.48868197e-08 1.13441223e-04 1.72420274e-04 1.71320557e-04
      -1.71740539e-04 -1.71530541e-04 -1.72647022e-04 -8.13093948e-09 0.
      0. 0. 0. 0. 0. 0. 0. 0. 0. 0. -1.72160522e-04 -5.98936822e-05
      1.73334905e-04 1.72890039e-04 0. -1.72655156e-04 -1.72655156e-04
      -2.07338962e-06 0. 0. 0. 0. 0. 0. 0. 0. 0. 0. 0. 6.54857899e-07
      -1.73100023e-04 1.09972541e-06 -6.79744744e-07 -2.66815378e-20
      -2.34877177e-07 -2.09990361e-07 6.79744744e-07 1.73334905e-04
      -3.37433084e-06 0. 0. 0. 0. 0. 0. 0. 0. 0. 0. -6.79744744e-07
      1.72890039e-04 -2.66815378e-20 -2.34877177e-07 2.03923423e-06
      -4.44867538e-07 -1.38437622e-06 1.71530541e-04 1.72638902e-04 0.
      0. 0. 0. 0. 0. 0. 0. 0. 0. 0. 8.89735077e-07 -2.34877177e-07
      -6.79744744e-07 0. -2.03923423e-06 1.14949910e-06 7.04631532e-07
      -6.79744744e-07 0. -6.71613805e-07 0. 0. 0. 0. 0. 0. 0. 0. 0. 0.
      0. 0. 0. 0. 0. 0. 0. 0. 0. 0. 0. 0. 0. 0. 0. 0. 0. 0. 0. 0. 0. 0.
      0. 0. 0. 0. 0. 0. 0. 0. 0. 0. 0. 0. 0. 0. 0. 0. 0. 0. 0. 0. 0. 0.
      0. 0. 0. 0. 0. 0. 0. 0. 0. 0. 0. 0. 0. 0. 0. 0. 0. 0. 0. 0. 0. 0.
      0. 0. 0. 0. 0. 0. 0. 0. 0. 0. 0. 0. 0. 0. 0. 0. 0. 0. 0. 0. 0. 0.
      0. 0. 0. 0. 0. 0. 0. 0. 0. 0. 0. 0. 0. 0. 0. 0. 0. 0. 0. 0. 0. 0.
      0. 0. 0. 0. 0. 0. 0. 0. 0. 0.</_>
    <_>
      0. 9.17267528e-07 -1.54848067e-07 1.83834698e-06 -4.58214060e-07
      -1.54008674e-07 -1.37464212e-06 -1.54848067e-07 -8.07193601e-09
      -2.68508728e-07 0. 0. 0. 0. 0. 0. 0. 0. 0. 0. -3.76470707e-05 0.
      -1.16311719e-06 1.54493333e-04 1.55872622e-04 1.54848067e-07
      -2.44973035e-06 -1.55103044e-04 -1.55784393e-04 -1.45203717e-06 0.
      0. 0. 0. 0. 0. 0. 0. 0. 0. -3.09696134e-07 1.53419533e-04
      1.55105561e-04 1.55866292e-04 1.53881105e-04 1.22444544e-06
      9.16428121e-07 4.61186630e-07 -4.02344522e-05 -2.10746531e-08 0.
      0. 0. 0. 0. 0. 0. 0. 0. 0. -4.58214060e-07 1.56330847e-04
      1.55716945e-04 0. -1.55563772e-04 -1.56330003e-04 3.09696134e-07
      1.06662480e-06 -4.43125288e-07 0. 0. 0. 0. 0. 0. 0. 0. 0. 0. 0.
      -4.58214060e-07 1.55105561e-04 1.55092057e-04 -1.37464212e-06
      -1.55562928e-04 -1.54954512e-04 -9.18946284e-07 -6.12222721e-07
      1.11575343e-06 -9.57681863e-08 0. 0. 0. 0. 0. 0. 0. 0. 0. 0.
      3.03365994e-07 1.55414411e-04 1.53577741e-04 -1.54802183e-04
      -1.56329159e-04 6.12222721e-07 9.16428121e-07 9.14749364e-07
      1.70830276e-07 -6.25725932e-07 0. 0. 0. 0. 0. 0. 0. 0. 0. 0. 0.
      1.06959737e-06 5.75163384e-08 -1.55103873e-04 -1.55872622e-04 0.
      -9.14749364e-07 -1.22444544e-06 -3.87851505e-05 -8.91569059e-08 0.
      0. 0. 0. 0. 0. 0. 0. 0. 0. 0. 0. -1.55870948e-04 -1.56175985e-04
      4.59053439e-07 1.55718619e-04 9.15588714e-07 -1.54493333e-04
      -8.80422562e-08 -2.42205402e-07 0. 0. 0. 0. 0. 0. 0. 0. 0. 0.
      -6.13062127e-07 6.33295144e-07 -1.54491659e-04 -1.56330847e-04
      6.13062127e-07 -6.13062127e-07 -3.03495327e-08 -1.56310605e-04
      -1.55717775e-04 -1.56175985e-04 0. 0. 0. 0. 0. 0. 0. 0. 0. 0.
      1.23624079e-06 -1.56330847e-04 -1.55697548e-04 -1.35358607e-06
      -6.13062127e-07 6.13062127e-07 -1.56300492e-04 -1.55727888e-04
      -1.55717775e-04 -1.55414411e-04 0. 0. 0. 0. 0. 0. 0. 0. 0. 0.
      -6.13062127e-07 1.25647375e-06 0. 1.56330847e-04 1.53919056e-04
      -2.45224851e-06 -1.55717775e-04 -1.55104717e-04 -1.16386371e-04
      -2.29107036e-06 0. 0. 0. 0. 0. 0. 0. 0. 0. 0. -6.23178607e-07
      1.21600772e-06 1.55687434e-04 1.52079869e-04 1.55717775e-04
      1.55707661e-04 1.40607469e-19 -1.20589118e-06 1.40607469e-19
      -1.54848067e-07 0. 0. 0. 0. 0. 0. 0. 0. 0. 0. -6.13062127e-07
      1.54511887e-04 1.55717775e-04 1.56320719e-04 1.56330847e-04
      1.56330847e-04 -6.43411624e-07 -5.92829110e-07 4.58214060e-07 0.
      0. 0. 0. 0. 0. 0. 0. 0. 0. 0. 0. 2.41178236e-06 -1.22612425e-06
      -6.13062127e-07 -1.22612425e-06 -5.82712573e-07 1.23624079e-06
      5.92829110e-07 0. 0. 0. 0. 0. 0. 0. 0. 0. 0. 0. 0. 0. 0. 0. 0. 0.
      0. 0. 0. 0. 0. 0. 0. 0. 0. 0. 0. 0. 0. 0. 0. 0. 0. 0. 0. 0. 0. 0.
      0. 0. 0. 0. 0. 0. 0. 0. 0. 0. 0. 0. 0. 0. 0. 0. 0. 0. 0. 0. 0. 0.
      0. 0. 0. 0. 0. 0. 0. 0. 0. 0. 0. 0. 0. 0. 0. 0. 0. 0. 0. 0. 0. 0.
      0. 0. 0. 0. 0. 0. 0. 0. 0. 0. 0. 0. 0. 0. 0. 0. 0. 0. 0. 0. 0. 0.
      0. 0. 0. 0. 0. 0. 0. 0. 0. 0. 0. 0. 0. 0. 0. 0. 0. 0. 0. 0. 0. 0.
      0. 0. 0. 0. 0.</_>
    <_>
      0. -7.16675402e-07 4.78039112e-07 -3.24114148e-06 3.80197804e-07
      4.53224459e-07 -4.45731388e-07 1.02376063e-07 0. 0. 0. 0. 0. 0. 0.
      0. 0. 0. 0. 0. 1.90532404e-07 -7.19018374e-07 -7.82115458e-05
      2.45439765e-06 4.53479565e-09 -1.56823694e-06 -9.48736897e-07
      -2.10789425e-04 8.30463989e-07 0. 0. 0. 0. 0. 0. 0. 0. 0. 0. 0.
      1.08112818e-06 2.09213584e-04 2.52150789e-06 5.42101086e-20
      -1.64184954e-07 -2.83122972e-07 4.53479565e-09 3.25216860e-07 0.
      2.32796674e-06 0. 0. 0. 0. 0. 0. 0. 0. 0. 0. 1.02376063e-07
      1.48612378e-06 -4.84916825e-07 -1.04492722e-06 -3.75004703e-07
      1.41561486e-07 2.11003397e-04 2.09499049e-04 6.33604504e-05 0. 0.
      0. 0. 0. 0. 0. 0. 0. 0. 0. -6.55335839e-08 2.80780029e-07
      -2.41594620e-07 -4.53479565e-09 3.20732568e-07 -5.47341074e-07
      2.10443104e-04 2.11186329e-04 2.10604339e-04 2.32796674e-06 0. 0.
      0. 0. 0. 0. 0. 0. 0. 0. 1.20612708e-06 -1.52079122e-06
      -5.96311963e-07 -2.11079416e-04 -2.08181489e-04 -2.08935919e-04
      2.09736259e-04 2.10654733e-04 5.81991685e-07 0. 0. 0. 0. 0. 0. 0.
      0. 0. 0. 0. -1.66092798e-06 -2.09004415e-04 -1.45833008e-04
      -2.10805927e-04 -2.09546604e-04 -2.11768318e-04 1.86944783e-06
      -4.03587705e-07 2.48472332e-07 1.74597506e-06 0. 0. 0. 0. 0. 0. 0.
      0. 0. 0. 4.87108650e-07 -2.92351911e-06 -1.36873541e-06
      -1.81391826e-08 -1.16694162e-06 -3.97476384e-07 3.04169930e-07
      -2.11360195e-04 5.81991685e-07 0. 0. 0. 0. 0. 0. 0. 0. 0. 0. 0.
      4.87108650e-07 -4.20863216e-06 4.82573853e-07 0. 2.11768318e-04
      2.11415900e-04 -6.00846761e-07 -2.11364735e-04 -2.11768318e-04 0.
      0. 0. 0. 0. 0. 0. 0. 0. 0. 0. 6.25753103e-08 2.43554337e-06
      -7.89861758e-08 1.60301817e-04 2.10599042e-04 2.09481062e-04
      -2.10188722e-04 -2.09483260e-04 -2.10937855e-04 0. 0. 0. 0. 0. 0.
      0. 0. 0. 0. 0. 0. -2.10476224e-04 -8.75556070e-05 2.11768318e-04
      2.10705897e-04 -4.53479565e-09 -2.10937855e-04 -2.10928789e-04 0.
      0. 0. 0. 0. 0. 0. 0. 0. 0. 0. 0. 7.76958302e-07 -2.11283404e-04
      1.53358553e-06 -1.38310554e-06 5.42101086e-20 -2.01793853e-07
      -1.30148948e-07 5.42806276e-07 2.11768318e-04 -4.15231989e-06 0.
      0. 0. 0. 0. 0. 0. 0. 0. 0. -8.25929192e-07 2.10998085e-04
      5.42101086e-20 -2.01793853e-07 2.47778758e-06 -4.87108650e-07
      -2.79472687e-07 2.09346239e-04 2.10937855e-04 0. 0. 0. 0. 0. 0. 0.
      0. 0. 0. 0. 9.74217301e-07 2.13820996e-07 -8.25929192e-07 0.
      -2.48232254e-06 1.09249027e-06 8.70365341e-07 -5.42806276e-07 0.
      -8.30463989e-07 0. 0. 0. 0. 0. 0. 0. 0. 0. 0. 0. 0. 0. 0. 0. 0. 0.
      0. 0. 0. 0. 0. 0. 0. 0. 0. 0. 0. 0. 0. 0. 0. 0. 0. 0. 0. 0. 0. 0.
      0. 0. 0. 0. 0. 0. 0. 0. 0. 0. 0. 0. 0. 0. 0. 0. 0. 0. 0. 0. 0. 0.
      0. 0. 0. 0. 0. 0. 0. 0. 0. 0. 0. 0. 0. 0. 0. 0. 0. 0. 0. 0. 0. 0.
      0. 0. 0. 0. 0. 0. 0. 0. 0. 0. 0. 0. 0. 0. 0. 0. 0. 0. 0. 0. 0. 0.
      0. 0. 0. 0. 0. 0. 0. 0. 0. 0. 0. 0. 0. 0. 0. 0. 0. 0. 0. 0. 0. 0.
      0. 0. 0.</_>
    <_>
      -6.59918783e-07 6.43518206e-07 2.89966692e-07 -5.39940629e-07
      -3.25670783e-07 8.28698944e-07 -1.07422909e-06 2.85678055e-07
      -8.18779142e-08 -1.53530561e-06 0. 0. 0. 0. 0. 0. 0. 0. 0. 0.
      6.61519891e-07 -7.18367744e-07 -7.69558426e-07 1.50168969e-04
      1.41676146e-08 -7.83115865e-07 -8.70592146e-07 -1.50442531e-04
      5.93646462e-07 -1.02353715e-06 0. 0. 0. 0. 0. 0. 0. 0. 0. 0.
      2.05692615e-07 1.49551270e-04 1.49252926e-04 3.44127017e-07
      2.29462103e-07 5.13206544e-07 1.51309010e-04 1.50697189e-04
      -1.02353715e-06 6.38227164e-07 0. 0. 0. 0. 0. 0. 0. 0. 0. 0.
      2.43175208e-07 1.49600965e-04 9.43917485e-07 -1.50434251e-04
      -1.51054730e-04 -9.89878231e-07 1.51121756e-04 1.49372136e-04
      7.27660226e-05 0. 0. 0. 0. 0. 0. 0. 0. 0. 0. 0. -2.40942200e-07
      1.50522974e-04 -5.21484424e-07 -1.50880805e-04 2.77555301e-07
      -2.63687070e-07 1.50172797e-04 1.51071887e-04 1.50252148e-04
      3.10715535e-07 0. 0. 0. 0. 0. 0. 0. 0. 0. 0. 5.97935070e-07
      2.32364954e-07 -5.52744723e-07 -1.50743697e-04 -1.51379849e-04
      -1.48701132e-04 -4.28862545e-09 8.43891685e-05 3.07968406e-07 0.
      0. 0. 0. 0. 0. 0. 0. 0. 0. 0. -8.28998282e-07 -1.49912172e-04
      -7.85276570e-05 -1.50486812e-04 -1.49323678e-04 -1.51379849e-04
      -5.18796867e-07 -5.50689094e-07 -2.11049592e-05 4.12136700e-07 0.
      0. 0. 0. 0. 0. 0. 0. 0. 0. 2.61631442e-07 -1.51347223e-04
      -1.50375810e-04 -4.58845216e-06 2.75344547e-07 1.50005770e-04
      2.45230837e-07 -1.50442531e-04 -1.51071887e-04 -5.11768576e-07 0.
      0. 0. 0. 0. 0. 0. 0. 0. 0. 2.89966692e-07 -1.50468812e-04
      -1.50844251e-04 -9.23605853e-07 1.51116168e-04 1.50498134e-04
      1.50123247e-04 -1.50442531e-04 -1.51379849e-04 0. 0. 0. 0. 0. 0.
      0. 0. 0. 0. 0. 1.66794919e-07 -1.49185769e-04 -1.49941436e-04
      7.39415045e-05 1.50564403e-04 1.50509950e-04 8.81720666e-07
      -1.50826192e-04 -1.50192558e-04 -5.93646462e-07 0. 0. 0. 0. 0. 0.
      0. 0. 0. 0. -6.09252027e-07 -1.48822306e-04 -7.72745916e-05
      2.11269507e-05 1.51089887e-04 -1.20289849e-06 -1.29643653e-04
      -1.50968015e-04 -1.51379849e-04 0. 0. 0. 0. 0. 0. 0. 0. 0. 0. 0.
      8.69900020e-07 -8.80478692e-05 -8.84759743e-07 -3.29959391e-07
      1.35525272e-20 3.87450172e-07 -3.31851879e-07 1.35525272e-20
      1.51379849e-04 -1.18729292e-06 0. 0. 0. 0. 0. 0. 0. 0. 0. 0.
      -4.96162954e-07 1.49984466e-04 1.51216096e-04 1.05709788e-07
      1.00793147e-06 2.06196290e-07 -1.09284849e-06 1.50841806e-04
      1.49598913e-04 0. 0. 0. 0. 0. 0. 0. 0. 0. 0. 0. 5.79933385e-07
      2.89966692e-07 -2.63687070e-07 -9.05552554e-07 -2.63687070e-07
      -3.94013817e-08 -3.73737066e-07 0. 0. 0. 0. 0. 0. 0. 0. 0. 0. 0.
      0. 0. 0. 0. 0. 0. 0. 0. 0. 0. 0. 0. 0. 0. 0. 0. 0. 0. 0. 0. 0. 0.
      0. 0. 0. 0. 0. 0. 0. 0. 0. 0. 0. 0. 0. 0. 0. 0. 0. 0. 0. 0. 0. 0.
      0. 0. 0. 0. 0. 0. 0. 0. 0. 0. 0. 0. 0. 0. 0. 0. 0. 0. 0. 0. 0. 0.
      0. 0. 0. 0. 0. 0. 0. 0. 0. 0. 0. 0. 0. 0. 0. 0. 0. 0. 0. 0. 0. 0.
      0. 0. 0. 0. 0. 0. 0. 0. 0. 0. 0. 0. 0. 0. 0. 0. 0. 0. 0. 0. 0. 0.
      0. 0. 0. 0. 0. 0. 0. 0. 0. 0. 0. 0.</_>
    <_>
      0. 1.83685131e-07 4.73914014e-07 1.95545226e-06 -2.90761659e-06
      4.33630953e-09 4.73914014e-07 -2.25435360e-06 0. 0. 0. 0. 0. 0. 0.
      0. 0. 0. 0. 0. 8.32611647e-07 -2.85175745e-04 -1.65489269e-04
      -8.23939047e-07 1.12717680e-06 -2.94565183e-07 -2.60004231e-06
      -2.83860543e-04 -2.86459719e-04 0. 0. 0. 0. 0. 0. 0. 0. 0. 0. 0.
      9.47828028e-07 -2.61738774e-06 -1.12284056e-06 5.42101086e-20
      -1.29351668e-06 1.11850420e-06 5.42101086e-20 1.62003587e-07
      -2.87116505e-04 3.26420445e-06 0. 0. 0. 0. 0. 0. 0. 0. 0. 0. 0.
      2.86956172e-04 2.86772498e-04 0. -3.63033962e-07 -1.12284056e-06
      1.79348817e-07 9.56500685e-07 3.93552036e-05 0. 0. 0. 0. 0. 0. 0.
      0. 0. 0. 0. 9.47828028e-07 2.85000715e-04 2.86482275e-04 0. 0.
      8.67261907e-09 9.34819070e-07 -1.12284056e-06 2.85797985e-04
      3.26420445e-06 0. 0. 0. 0. 0. 0. 0. 0. 0. 0. 1.60109084e-06
      2.82152905e-04 2.85483315e-04 1.12284056e-06 -5.62721152e-06
      -2.85833346e-04 -4.73914014e-07 2.87421426e-04 4.06411164e-05 0.
      0. 0. 0. 0. 0. 0. 0. 0. 0. 0. -4.50870721e-06 3.19350897e-06
      4.43823524e-07 1.31086199e-06 2.36956998e-06 -2.87430099e-04
      -1.70676202e-07 2.86132243e-04 1.54334131e-07 2.44815328e-06 0. 0.
      0. 0. 0. 0. 0. 0. 0. 0. 4.73914014e-07 -6.53262816e-07
      -1.11850420e-06 0. -2.86772498e-04 -6.48926516e-07 6.48926516e-07
      -9.56500685e-07 8.16051113e-07 3.13583200e-07 0. 0. 0. 0. 0. 0. 0.
      0. 0. 0. -9.60052262e-07 2.25790518e-06 -2.02660635e-06
      -9.09341082e-08 1.21245478e-07 -9.60052262e-07 2.85422691e-04
      1.29785303e-06 0. 0. 0. 0. 0. 0. 0. 0. 0. 0. 0. 0. 2.56903104e-06
      -3.55183897e-06 2.22759400e-06 1.17566371e-04 1.23367874e-06
      1.69235716e-06 -1.00956765e-06 4.17627575e-07 1.12717680e-06 0. 0.
      0. 0. 0. 0. 0. 0. 0. 0. 0. -9.09341082e-08 3.77594984e-06
      3.93261762e-05 3.29059640e-06 -1.32069340e-06 -2.85115122e-04
      -1.24842234e-06 0. 0. 0. 0. 0. 0. 0. 0. 0. 0. 0. 0. 0.
      -1.38123141e-06 -9.22552999e-07 2.84523267e-04 -1.27481428e-06
      3.03113694e-08 9.27420388e-06 2.87095841e-04 2.86716910e-04
      2.87430099e-04 0. 0. 0. 0. 0. 0. 0. 0. 0. 0. 0. -3.03113694e-08
      2.86610419e-04 5.42101086e-20 4.78250342e-07 3.32090781e-06
      2.86044873e-04 2.83259258e-04 2.86640716e-04 2.87430099e-04 0. 0.
      0. 0. 0. 0. 0. 0. 0. 0. 0. -4.05321271e-06 3.14762019e-07
      -6.06227388e-08 0. -1.24842234e-06 -1.17669231e-06 2.56903104e-06
      -1.66241364e-06 0. 0. 0. 0. 0. 0. 0. 0. 0. 0. 0. 0. 0. 0. 0. 0. 0.
      0. 0. 0. 0. 0. 0. 0. 0. 0. 0. 0. 0. 0. 0. 0. 0. 0. 0. 0. 0. 0. 0.
      0. 0. 0. 0. 0. 0. 0. 0. 0. 0. 0. 0. 0. 0. 0. 0. 0. 0. 0. 0. 0. 0.
      0. 0. 0. 0. 0. 0. 0. 0. 0. 0. 0. 0. 0. 0. 0. 0. 0. 0. 0. 0. 0. 0.
      0. 0. 0. 0. 0. 0. 0. 0. 0. 0. 0. 0. 0. 0. 0. 0. 0. 0. 0. 0. 0. 0.
      0. 0. 0. 0. 0. 0. 0. 0. 0. 0. 0. 0. 0. 0. 0. 0. 0. 0. 0. 0. 0. 0.
      0. 0. 0. 0. 0.</_>
    <_>
      -3.49550817e-07 9.00498833e-07 7.13730174e-07 -2.43247996e-06
      -8.34824121e-08 1.84326746e-06 -1.28178692e-06 6.14422504e-07 0.
      -6.76598461e-07 -3.85325762e-08 0. 0. 0. 0. 0. 0. 0. 0. 0.
      -1.75048694e-06 6.14422504e-07 2.52558930e-05 9.17669022e-05
      8.64783033e-07 -2.40606232e-06 -9.45747558e-07 -9.03527762e-05
      2.19725251e-07 -6.76598461e-07 0. 0. 0. 0. 0. 0. 0. 0. 0. 0.
      1.13594706e-06 2.61698471e-04 4.35957409e-05 -5.42101086e-20
      -3.86784876e-07 8.56768338e-07 -5.42101086e-20 3.49754941e-07
      -9.09035298e-05 -1.15597736e-07 0. 0. 0. 0. 0. 0. 0. 0. 0. 0.
      -2.79554229e-06 9.16466743e-05 -3.25828267e-07 -8.95081175e-05
      6.39576683e-07 -3.49550817e-07 9.09805967e-05 -1.19850858e-06
      -2.49851637e-05 -4.91290348e-06 0. 0. 0. 0. 0. 0. 0. 0. 0. 0.
      -3.33725552e-07 9.03527762e-05 -1.85909278e-06 -9.11792085e-05
      1.47768731e-06 -1.74775408e-07 8.91159143e-05 -2.50360557e-07
      1.92662881e-08 -6.76598461e-07 0. 0. 0. 0. 0. 0. 0. 0. 0. 0.
      9.64090759e-07 9.07819776e-05 5.40589511e-08 -2.64047849e-04
      -9.06308414e-05 -2.54449581e-08 9.09051232e-05 -5.42101086e-20
      -6.56167540e-05 0. -3.85325762e-08 0. 0. 0. 0. 0. 0. 0. 0. 0. 0.
      6.99336510e-07 -1.59419451e-05 -2.62931426e-04 -2.61383626e-04
      -2.64380302e-04 -1.51492134e-06 1.73606095e-04 2.58257842e-07
      -3.38299230e-07 0. 0. 0. 0. 0. 0. 0. 0. 0. 0. 7.13730174e-07
      9.93076981e-08 -1.73908193e-04 -2.65087408e-04 -2.64395989e-04
      -8.72680346e-07 7.57460668e-07 -2.64252973e-04 -9.11792085e-05
      1.79349115e-07 0. 0. 0. 0. 0. 0. 0. 0. 0. 0. 7.13730174e-07
      -1.73113498e-04 -2.64190894e-04 -9.06308414e-05 2.64039845e-04
      2.63904803e-04 8.96774000e-05 -2.63578986e-04 -2.65087408e-04
      -9.08216462e-05 0. 0. 0. 0. 0. 0. 0. 0. 0. 0. -1.42605950e-06
      -2.60787609e-04 -2.63935159e-04 9.09967639e-05 2.64412025e-04
      2.62089452e-04 2.03936497e-06 -1.73194465e-04 -2.63365859e-04
      -9.18612059e-05 0. 0. 0. 0. 0. 0. 0. 0. 0. 0. -1.20631921e-06
      -1.69417457e-04 -8.29034179e-05 1.73933324e-04 2.61470937e-04
      -3.65580235e-07 -1.72868647e-04 -2.65087408e-04 -2.65029608e-04
      -9.05026100e-05 -1.92662881e-08 0. 0. 0. 0. 0. 0. 0. 0. 0.
      9.10827282e-07 -1.73075154e-04 -9.37732864e-07 -1.03955847e-06
      2.90274716e-06 5.30940099e-07 -1.42746035e-06 1.53876124e-06
      1.74584799e-04 -2.37888366e-06 0. 0. 0. 0. 0. 0. 0. 0. 0. 0.
      -3.49550817e-07 2.62960530e-04 9.23604020e-05 4.90136226e-05
      1.82790117e-07 1.69782879e-06 -2.01704324e-06 1.73552035e-04
      2.63041438e-04 -3.85325762e-08 0. 0. 0. 0. 0. 0. 0. 0. 0. 0.
      1.42746035e-06 1.73374559e-07 -1.03154377e-06 -1.36398592e-06
      -1.82790117e-07 -5.37553944e-07 2.70368446e-07 -1.36398592e-06 0.
      -1.35319692e-06 -3.85325762e-08 0. 0. 0. 0. 0. 0. 0. 0. 0. 0. 0.
      0. 0. 0. 0. 0. 0. 0. 0. 0. 0. 0. 0. 0. 0. 0. 0. 0. 0. 0. 0. 0. 0.
      0. 0. 0. 0. 0. 0. 0. 0. 0. 0. 0. 0. 0. 0. 0. 0. 0. 0. 0. 0. 0. 0.
      0. 0. 0. 0. 0. 0. 0. 0. 0. 0. 0. 0. 0. 0. 0. 0. 0. 0. 0. 0. 0. 0.
      0. 0. 0. 0. 0. 0. 0. 0. 0. 0. 0. 0. 0. 0. 0. 0. 0. 0. 0. 0. 0. 0.
      0. 0. 0. 0. 0. 0. 0. 0. 0. 0. 0. 0. 0. 0. 0. 0. 0. 0. 0. 0. 0. 0.
      0. 0. 0. 0. 0. 0. 0. 0.</_>
    <_>
      -2.08737242e-06 1.79771087e-06 3.27327314e-07 2.12541659e-06 0.
      -5.20495789e-08 -2.10137796e-06 -7.16358954e-07 0. -1.05769175e-06
      0. 0. 0. 0. 0. 0. 0. 0. 0. 0. 2.17708771e-06 -7.30364377e-07
      2.76031915e-06 -1.44141927e-06 2.80108914e-08 -1.30930925e-06
      3.41164059e-06 1.46603281e-06 6.97818962e-07 0. 0. 0. 0. 0. 0. 0.
      0. 0. 0. 0. -1.11939596e-06 1.02930812e-06 -3.31678024e-07
      -6.26804381e-20 -2.17613433e-06 1.06639311e-06 -6.26804381e-20
      -1.06080247e-08 3.59872729e-07 -1.74826437e-06 0. 0. 0. 0. 0. 0.
      0. 0. 0. 0. 3.27327314e-07 -3.27327314e-07 -6.13970087e-07
      3.13321863e-07 -3.36982055e-07 9.65472946e-09 -6.26804381e-20
      -8.70143335e-09 -8.21826291e-07 0. 0. 0. 0. 0. 0. 0. 0. 0. 0. 0.
      -1.04368621e-06 -1.45107401e-06 2.14907686e-06 0. 9.81981998e-07
      1.93094589e-08 1.41303565e-06 3.22976604e-07 3.16945193e-06
      -4.22352059e-06 0. 0. 0. 0. 0. 0. 0. 0. 0. 0. 1.05769175e-06
      -6.26804381e-20 -2.16212902e-06 4.35071668e-09 -1.03838227e-06
      -7.54024541e-07 1.04368621e-06 -5.30401234e-09 -1.78301896e-04
      3.81799225e-07 0. 0. 0. 0. 0. 0. 0. 0. 0. 0. -4.17474484e-06
      -2.66182586e-04 -1.82742573e-04 1.79771087e-06 9.53971039e-07
      -4.18875061e-06 2.12068744e-06 -1.44141927e-06 -2.68655509e-04
      5.43474776e-09 0. 0. 0. 0. 0. 0. 0. 0. 0. 0. 3.27327314e-07
      -2.69711396e-04 -2.69692071e-04 -2.69711396e-04 -2.68943346e-04
      1.75569448e-06 -9.65472946e-09 -2.68241944e-04 -2.69709562e-04
      1.07961819e-06 0. 0. 0. 0. 0. 0. 0. 0. 0. 0. 1.31830991e-08
      1.76618244e-06 -2.69698212e-04 -2.69711396e-04 1.05769175e-06
      1.31830991e-08 -1.08251072e-06 -2.67932017e-04 0. 0. 0. 0. 0. 0.
      0. 0. 0. 0. 0. 0. 2.44985404e-06 -2.04946787e-06 1.76618244e-06
      1.77697962e-04 2.66551477e-04 2.68614152e-04 -2.64371745e-04
      -2.69014534e-04 1.05769175e-06 0. 0. 0. 0. 0. 0. 0. 0. 0. 0. 0. 0.
      3.17152785e-06 1.88615260e-07 2.69711396e-04 2.66963500e-04
      -2.69711396e-04 -2.67596013e-04 -1.05769175e-06 0. 0. 0. 0. 0. 0.
      0. 0. 0. 0. 0. 0. -3.34470712e-07 1.72818022e-06 2.67584372e-04
      -1.67699500e-06 -6.26804381e-20 -3.60836907e-07 2.69685028e-04
      2.68344040e-04 2.69711396e-04 0. 0. 0. 0. 0. 0. 0. 0. 0. 0. 0. 0.
      2.67273164e-04 -6.26804381e-20 -3.60836907e-07 1.05769175e-06
      2.69698212e-04 2.67571188e-04 2.67273164e-04 2.69711396e-04 0. 0.
      0. 0. 0. 0. 0. 0. 0. 0. 0. 2.63661981e-08 -4.25205286e-07 0.
      -2.11538350e-06 -1.05769175e-06 1.09569385e-06 2.44985404e-06
      1.36734332e-06 0. 0. 0. 0. 0. 0. 0. 0. 0. 0. 0. 0. 0. 0. 0. 0. 0.
      0. 0. 0. 0. 0. 0. 0. 0. 0. 0. 0. 0. 0. 0. 0. 0. 0. 0. 0. 0. 0. 0.
      0. 0. 0. 0. 0. 0. 0. 0. 0. 0. 0. 0. 0. 0. 0. 0. 0. 0. 0. 0. 0. 0.
      0. 0. 0. 0. 0. 0. 0. 0. 0. 0. 0. 0. 0. 0. 0. 0. 0. 0. 0. 0. 0. 0.
      0. 0. 0. 0. 0. 0. 0. 0. 0. 0. 0. 0. 0. 0. 0. 0. 0. 0. 0. 0. 0. 0.
      0. 0. 0. 0. 0. 0. 0. 0. 0. 0. 0. 0. 0. 0. 0. 0. 0. 0. 0. 0. 0. 0.
      0. 0. 0. 0. 0.</_>
    <_>
      0. 2.63237098e-07 -2.54616793e-07 7.76780780e-07 -1.00284569e-06
      7.27487645e-07 -4.31015312e-09 2.42495901e-07 0. 0. 0. 0. 0. 0. 0.
      0. 0. 0. 0. 0. -2.17444537e-07 2.25255278e-07 2.42495901e-07
      1.26346436e-04 1.09908899e-06 -9.69983603e-07 -1.03570778e-06
      5.17853891e-07 5.01422846e-07 0. 0. 0. 0. 0. 0. 0. 0. 0. 0. 0.
      7.10247036e-07 1.26342115e-04 1.26124680e-04 1.27845575e-04
      -7.81090932e-07 -3.04931861e-20 1.27862819e-04 1.27862819e-04 0.
      1.03570778e-06 0. 0. 0. 0. 0. 0. 0. 0. 0. 0. 2.42495901e-07
      1.27118896e-04 1.27106774e-04 -7.56039583e-07 -1.25606821e-04
      -1.27849897e-04 1.26859974e-04 1.26859974e-04 6.18364502e-05 0. 0.
      0. 0. 0. 0. 0. 0. 0. 0. 0. -8.62030625e-09 1.26847852e-04
      1.27135339e-04 -1.26371480e-04 -1.27131018e-04 -4.97112694e-07
      1.26859974e-04 1.27603897e-04 1.27344960e-04 1.03570778e-06 0. 0.
      0. 0. 0. 0. 0. 0. 0. 0. -4.92802542e-07 1.27858511e-04
      1.27077423e-04 -1.27348467e-04 -1.27862819e-04 7.30988233e-07
      1.27862819e-04 1.27862819e-04 2.58926946e-07 0. 0. 0. 0. 0. 0. 0.
      0. 0. 0. 0. 0. 2.07411972e-08 -6.60263686e-05 -1.27102467e-04
      2.30374994e-07 -8.62030625e-09 1.25865743e-04 1.27344960e-04
      2.42495901e-07 7.76780780e-07 0. 0. 0. 0. 0. 0. 0. 0. 0. 0.
      -2.54616793e-07 -8.62030625e-09 -1.27357082e-04 -1.27862819e-04
      2.54616793e-07 1.26621788e-04 1.27862819e-04 5.17853891e-07
      2.58926946e-07 0. 0. 0. 0. 0. 0. 0. 0. 0. 0. 0. 2.42495901e-07
      -1.27086038e-04 -1.27620326e-04 -1.00284569e-06 1.27862819e-04
      1.27603897e-04 1.26584622e-04 5.17853891e-07 0. 0. 0. 0. 0. 0. 0.
      0. 0. 0. 0. 0. 7.76780780e-07 -1.26650339e-04 -1.27086038e-04
      6.18364502e-05 1.27603897e-04 1.25631064e-04 2.58926946e-07
      2.42495901e-07 5.01422846e-07 0. 0. 0. 0. 0. 0. 0. 0. 0. 0. 0. 0.
      -1.26568179e-04 -6.60263686e-05 1.27361403e-04 1.27620326e-04 0.
      5.01422846e-07 0. 0. 0. 0. 0. 0. 0. 0. 0. 0. 0. 0. 0.
      -1.27135339e-04 -1.27603897e-04 1.26827115e-04 1.27361403e-04
      1.26358558e-04 1.27102467e-04 1.27377833e-04 1.27862819e-04
      1.27862819e-04 0. 0. 0. 0. 0. 0. 0. 0. 0. 0. 0. -1.27361403e-04
      -2.42495901e-07 1.26358558e-04 1.26601051e-04 1.27862819e-04
      1.27620326e-04 1.26083192e-04 1.27620326e-04 1.27862819e-04 0. 0.
      0. 0. 0. 0. 0. 0. 0. 0. 0. 4.84991801e-07 -2.58926946e-07 0. 0.
      -5.01422846e-07 5.17853891e-07 7.76780780e-07 0. 0. 0. 0. 0. 0. 0.
      0. 0. 0. 0. 0. 0. 0. 0. 0. 0. 0. 0. 0. 0. 0. 0. 0. 0. 0. 0. 0. 0.
      0. 0. 0. 0. 0. 0. 0. 0. 0. 0. 0. 0. 0. 0. 0. 0. 0. 0. 0. 0. 0. 0.
      0. 0. 0. 0. 0. 0. 0. 0. 0. 0. 0. 0. 0. 0. 0. 0. 0. 0. 0. 0. 0. 0.
      0. 0. 0. 0. 0. 0. 0. 0. 0. 0. 0. 0. 0. 0. 0. 0. 0. 0. 0. 0. 0. 0.
      0. 0. 0. 0. 0. 0. 0. 0. 0. 0. 0. 0. 0. 0. 0. 0. 0. 0. 0. 0. 0. 0.
      0. 0. 0. 0. 0. 0. 0. 0. 0. 0. 0. 0. 0. 0. 0. 0.</_>
    <_>
      0. 6.41984570e-07 0. 6.41984570e-07 -6.41984570e-07 0.
      -1.92595371e-06 6.41984570e-07 -5.49186609e-07 1.28396914e-06 0.
      0. 0. 0. 0. 0. 0. 0. 0. 0. 0. 1.61780103e-04 1.61780103e-04
      1.63706063e-04 1.63064076e-04 0. -1.28396914e-06 0. 2.74593305e-07
      4.59602404e-07 0. 0. 0. 0. 0. 0. 0. 0. 0. 0. 0. 1.63064076e-04
      1.62422089e-04 1.62422089e-04 1.62422089e-04 6.41984570e-07
      1.28396914e-06 -1.28396914e-06 -2.35211974e-05 -8.26993698e-07 0.
      0. 0. 0. 0. 0. 0. 0. 0. 0. -6.41984570e-07 6.41984570e-07 0.
      6.41984570e-07 -1.63706063e-04 0. -6.41984570e-07 -1.59854157e-04
      -1.39450480e-04 0. 0. 0. 0. 0. 0. 0. 0. 0. 0. 0. 6.41984570e-07 0.
      0. -1.92595371e-06 6.41984570e-07 1.92595371e-06 -1.63706063e-04
      -1.63064076e-04 -9.28575828e-05 -1.19418939e-06 0. 0. 0. 0. 0. 0.
      0. 0. 0. 0. 0. 1.28396914e-06 -6.41984570e-07 -1.62422089e-04 0.
      1.63064076e-04 -1.62422089e-04 -1.62422089e-04 -9.33603005e-05
      1.37637585e-06 0. 0. 0. 0. 0. 0. 0. 0. 0. 0. 2.56793828e-06 0. 0.
      0. 6.41984570e-07 1.63706063e-04 0. -1.63706063e-04
      -2.35210009e-05 -4.59798031e-07 0. 0. 0. 0. 0. 0. 0. 0. 0. 0. 0.
      0. -1.61138130e-04 -1.63706063e-04 1.63706063e-04 1.62422089e-04
      1.28396914e-06 6.41984570e-07 -9.26023631e-08 1.00918021e-06 0. 0.
      0. 0. 0. 0. 0. 0. 0. 0. -6.41984570e-07 3.85190742e-06
      -1.61780103e-04 -1.63706063e-04 -1.63064076e-04 -1.63706063e-04 0.
      0. 6.41984570e-07 -1.63706063e-04 0. 0. 0. 0. 0. 0. 0. 0. 0. 0.
      6.41984570e-07 -1.63706063e-04 -1.63064076e-04 -1.62422089e-04
      -1.63064076e-04 -1.62422089e-04 0. -1.28396914e-06 -6.41984570e-07
      -1.61780103e-04 0. 0. 0. 0. 0. 0. 0. 0. 0. 0. -6.41984570e-07
      1.63706063e-04 1.63706063e-04 0. 0. -2.56793828e-06 0.
      6.41984570e-07 6.41984570e-07 -3.20992285e-06 0. 0. 0. 0. 0. 0. 0.
      0. 0. 0. -6.41984570e-07 1.63706063e-04 1.61780103e-04
      1.62422089e-04 1.63064076e-04 1.63064076e-04 -6.41984570e-07
      -6.41984570e-07 -1.63706063e-04 1.28396914e-06 0. 0. 0. 0. 0. 0.
      0. 0. 0. 0. 5.29395592e-23 -6.41984570e-07 1.63064076e-04
      1.63706063e-04 1.61780103e-04 1.63706063e-04 0. -1.61780103e-04
      -1.61138130e-04 0. 0. 0. 0. 0. 0. 0. 0. 0. 0. 0. 0. 6.41984570e-07
      -6.41984570e-07 -6.41984570e-07 6.41984570e-07 -6.41984570e-07 0.
      5.29395592e-23 0. 0. 0. 0. 0. 0. 0. 0. 0. 0. 0. 0. 0. 0. 0. 0. 0.
      0. 0. 0. 0. 0. 0. 0. 0. 0. 0. 0. 0. 0. 0. 0. 0. 0. 0. 0. 0. 0. 0.
      0. 0. 0. 0. 0. 0. 0. 0. 0. 0. 0. 0. 0. 0. 0. 0. 0. 0. 0. 0. 0. 0.
      0. 0. 0. 0. 0. 0. 0. 0. 0. 0. 0. 0. 0. 0. 0. 0. 0. 0. 0. 0. 0. 0.
      0. 0. 0. 0. 0. 0. 0. 0. 0. 0. 0. 0. 0. 0. 0. 0. 0. 0. 0. 0. 0. 0.
      0. 0. 0. 0. 0. 0. 0. 0. 0. 0. 0. 0. 0. 0. 0. 0. 0. 0. 0. 0. 0. 0.
      0. 0. 0. 0. 0.</_>
    <_>
      0. 1.82829228e-06 -1.82829228e-06 1.82829228e-06 0. 0.
      -1.82829228e-06 1.82829228e-06 0. 3.65658457e-06 0. 0. 0. 0. 0. 0.
      0. 0. 0. 0. -3.65658457e-06 4.58901370e-04 1.82829228e-06 0. 0. 0.
      0. 0. 4.66214522e-04 3.65658457e-06 0. 0. 0. 0. 0. 0. 0. 0. 0. 0.
      0. 4.66214522e-04 -1.82829228e-06 -3.65658457e-06 0. 0. 0.
      3.65658457e-06 1.82829228e-06 0. 0. 0. 0. 0. 0. 0. 0. 0. 0. 0.
      -1.82829228e-06 -5.48487697e-06 -4.64386248e-04 1.82829228e-06
      -7.31316914e-06 4.66214522e-04 4.62557946e-04 -1.82829228e-06
      1.82829228e-06 0. 0. 0. 0. 0. 0. 0. 0. 0. 0. 0. 3.65658457e-06
      -4.66214522e-04 -4.64386248e-04 -3.65658457e-06 4.64386248e-04
      4.66214522e-04 0. 1.82829228e-06 1.82829228e-06 0. 0. 0. 0. 0. 0.
      0. 0. 0. 0. 0. -1.82829228e-06 -4.53416491e-04 -4.64386248e-04
      -4.62557946e-04 5.48487697e-06 -1.82829228e-06 0. -1.82829228e-06
      0. 5.48487697e-06 0. 0. 0. 0. 0. 0. 0. 0. 0. 0. 7.31316914e-06
      -4.66214522e-04 -4.66214522e-04 0. 0. 7.31316914e-06 0.
      -4.62557946e-04 0. 0. 0. 0. 0. 0. 0. 0. 0. 0. 0. 0. 0. 0. 0. 0.
      4.62557946e-04 -3.65658457e-06 5.48487697e-06 0. 0. 3.65658457e-06
      0. 0. 0. 0. 0. 0. 0. 0. 0. 0. 0. 0. 0. 0. 0. 0. 0. 0. 0. 0. 0. 0.
      0. 0. 0. 0. 0. 0. 0. 0. 0. 0. 0. 0. 0. 0. 0. 0. 0. 0. 0. 0. 0. 0.
      0. 0. 0. 0. 0. 0. 0. 0. 0. 0. 0. 0. 0. 0. 0. 0. 0. 0. 0. 0. 0. 0.
      0. 0. 0. 0. 0. 0. 0. 0. 0. 0. 0. 0. 0. 0. 0. 0. 0. 0. 0. 0. 0. 0.
      0. 0. 0. 0. 0. 0. 0. 0. 0. 0. 0. 0. 0. 0. 0. 0. 0. 0. 0. 0. 0. 0.
      0. 0. 0. 0. 0. 0. 0. 0. 0. 0. 0. 0. 0. 0. 0. 0. 0. 0. 0. 0. 0. 0.
      0. 0. 0. 0. 0. 0. 0. 0. 0. 0. 0. 0. 0. 0. 0. 0. 0. 0. 0. 0. 0. 0.
      0. 0. 0. 0. 0. 0. 0. 0. 0. 0. 0. 0. 0. 0. 0. 0. 0. 0. 0. 0. 0. 0.
      0. 0. 0. 0. 0. 0. 0. 0. 0. 0. 0. 0. 0. 0. 0. 0. 0. 0. 0. 0. 0. 0.
      0. 0. 0. 0. 0. 0. 0. 0. 0. 0. 0. 0. 0. 0. 0. 0. 0. 0. 0. 0. 0. 0.
      0. 0. 0. 0. 0. 0. 0. 0. 0. 0. 0. 0. 0. 0. 0. 0. 0. 0. 0. 0. 0. 0.
      0. 0. 0. 0. 0. 0. 0. 0.</_>
    <_>
      -1.69719397e-06 8.54299230e-07 0. -8.60001421e-07 -8.48596983e-07
      -1.14044214e-08 -8.48596983e-07 8.54299230e-07 -1.71977575e-07
      -3.38366476e-07 0. 0. 0. 0. 0. 0. 0. 0. 0. 0. 0. 2.12731902e-04
      2.13603314e-04 2.17840599e-04 5.70221070e-09 8.65703612e-07
      -8.54299230e-07 8.48596983e-07 2.17846304e-04 3.43955151e-07 0. 0.
      0. 0. 0. 0. 0. 0. 0. 0. -1.69719397e-06 2.17829191e-04
      2.16992004e-04 -8.54299230e-07 8.37192601e-07 -8.48596983e-07
      2.17817782e-04 2.14434796e-04 -5.10344080e-07 -8.54299230e-07 0.
      0. 0. 0. 0. 0. 0. 0. 0. 0. -1.71066308e-08 -1.69149178e-06
      -2.17846304e-04 -2.15294800e-04 -2.17846304e-04 2.15300504e-04
      2.16992004e-04 5.70221070e-09 6.82321627e-07 0. 0. 0. 0. 0. 0. 0.
      0. 0. 0. 0. 1.70859846e-06 0. -2.16992004e-04 -2.17846304e-04
      2.16997694e-04 2.17840599e-04 -1.14044214e-08 8.54299230e-07
      1.71977575e-07 -1.54220947e-06 0. 0. 0. 0. 0. 0. 0. 0. 0. 0. 0.
      -2.14429107e-04 -2.16132001e-04 -2.17829191e-04 -8.13151629e-20
      1.71430065e-06 -2.17846304e-04 -1.45406364e-06 0. 2.56289763e-06
      0. 0. 0. 0. 0. 0. 0. 0. 0. 0. 2.56859994e-06 -2.16992004e-04
      -2.17846304e-04 -8.13151629e-20 8.88512488e-07 -8.13151629e-20
      1.69719397e-06 -2.17823486e-04 -4.45366022e-05 -6.82321627e-07 0.
      0. 0. 0. 0. 0. 0. 0. 0. 0. -1.14044214e-08 -2.17834895e-04
      -2.12731902e-04 -3.99415239e-06 2.17834895e-04 2.16137705e-04
      -8.13151629e-20 8.48596983e-07 -2.17846304e-04 1.02627678e-06 0.
      0. 0. 0. 0. 0. 0. 0. 0. 0. 0. -2.12720508e-04 -2.17330366e-04
      -6.85246505e-07 -1.36438211e-06 -1.71977575e-07 2.17333029e-04
      1.71977575e-07 -8.13151629e-20 0. 0. 0. 0. 0. 0. 0. 0. 0. 0. 0.
      -5.09821803e-07 -2.17505265e-04 -2.16309418e-04 0. -1.69052683e-07
      8.54299230e-07 2.15968641e-04 -1.02627678e-06 -8.80914265e-20
      -2.38228016e-22 0. 0. 0. 0. 0. 0. 0. 0. 0. 0. -8.54560312e-07
      2.04696494e-06 3.43955151e-07 -8.77113634e-05 0. -1.70885949e-06
      4.55596928e-05 -5.10344080e-07 -8.13151629e-20 0. 0. 0. 0. 0. 0.
      0. 0. 0. 0. 0. 5.13268958e-07 8.66219489e-05 -2.39092014e-06
      2.04644266e-06 -8.13151629e-20 1.02653792e-06 -8.54299230e-07
      -8.54299230e-07 0. -4.76456033e-22 0. 0. 0. 0. 0. 0. 0. 0. 0. 0.
      8.54299230e-07 -1.53662086e-06 2.17502340e-04 8.59887848e-07
      -2.22160634e-06 3.41030244e-07 3.43955151e-07 6.85507644e-07
      -7.41153829e-22 0. 0. 0. 0. 0. 0. 0. 0. 0. 0. 0. -6.82060488e-07
      8.54299230e-07 -5.10082941e-07 -1.54194834e-06 2.22160634e-06 0.
      -1.88083709e-06 8.54299230e-07 0. 0. 0. 0. 0. 0. 0. 0. 0. 0. 0. 0.
      0. 0. 0. 0. 0. 0. 0. 0. 0. 0. 0. 0. 0. 0. 0. 0. 0. 0. 0. 0. 0. 0.
      0. 0. 0. 0. 0. 0. 0. 0. 0. 0. 0. 0. 0. 0. 0. 0. 0. 0. 0. 0. 0. 0.
      0. 0. 0. 0. 0. 0. 0. 0. 0. 0. 0. 0. 0. 0. 0. 0. 0. 0. 0. 0. 0. 0.
      0. 0. 0. 0. 0. 0. 0. 0. 0. 0. 0. 0. 0. 0. 0. 0. 0. 0. 0. 0. 0. 0.
      0. 0. 0. 0. 0. 0. 0. 0. 0. 0. 0. 0. 0. 0. 0. 0. 0. 0. 0. 0. 0. 0.
      0. 0. 0. 0. 0. 0. 0. 0. 0. 0.</_>
    <_>
      0. 1.05879118e-22 0. 8.87826843e-07 -2.66348047e-06 0. 0.
      -8.87826843e-07 0. 1.77565369e-06 0. 0. 0. 0. 0. 0. 0. 0. 0. 0.
      -8.87826843e-07 -8.87826843e-07 2.71050543e-20 8.87826843e-07
      8.87826843e-07 8.87826843e-07 -1.77565369e-06 1.77565369e-06
      2.71050543e-20 1.77565369e-06 0. 0. 0. 0. 0. 0. 0. 0. 0. 0. 0.
      2.71050543e-20 -8.87826843e-07 -1.77565369e-06 2.71050543e-20 0.
      2.71050543e-20 -8.87826843e-07 -2.25508018e-04 0. 0. 0. 0. 0. 0.
      0. 0. 0. 0. 0. 0. 8.87826843e-07 0. 8.87826843e-07 -2.66348047e-06
      2.25508018e-04 0. -2.23732364e-04 8.87826843e-07 0. 0. 0. 0. 0. 0.
      0. 0. 0. 0. 0. 1.77565369e-06 -8.87826843e-07 0. 0. 2.26395845e-04
      2.26395845e-04 -2.24620191e-04 -2.25508018e-04 8.87826843e-07 0.
      0. 0. 0. 0. 0. 0. 0. 0. 0. 0. 0. 8.87826843e-07 8.87826843e-07 0.
      2.21956710e-04 -8.87826843e-07 -2.26395845e-04 0. 0.
      2.66348047e-06 0. 0. 0. 0. 0. 0. 0. 0. 0. 0. 4.23516474e-22 0.
      -8.87826843e-07 2.26395845e-04 2.26395845e-04 2.71050543e-20
      8.87826843e-07 0. 0. 0. 0. 0. 0. 0. 0. 0. 0. 0. 0. 0. 0.
      -8.87826843e-07 1.77565369e-06 0. 2.71050543e-20 -1.77565369e-06
      8.87826843e-07 2.24620191e-04 0. 1.77565369e-06 0. 0. 0. 0. 0. 0.
      0. 0. 0. 0. -8.87826843e-07 5.32696095e-06 -1.71647719e-06
      -8.87647218e-08 -2.26277494e-04 -2.26395845e-04 2.26336662e-04
      2.26395845e-04 2.26395845e-04 0. 0. 0. 0. 0. 0. 0. 0. 0. 0. 0.
      8.87826843e-07 -3.43295437e-06 8.58238593e-07 -3.43295437e-06
      -2.23791547e-04 -2.23791547e-04 2.23821131e-04 2.24561023e-04
      2.26392178e-04 3.67269570e-09 0. 0. 0. 0. 0. 0. 0. 0. 0. 0.
      -8.87647218e-08 2.26307078e-04 2.23821131e-04 -2.23821131e-04
      -2.26307078e-04 -2.24561023e-04 2.24501840e-04 2.25508018e-04
      9.36537390e-07 0. 0. 0. 0. 0. 0. 0. 0. 0. 0. 0. -8.28650343e-07
      2.24679374e-04 2.23732364e-04 8.58238593e-07 2.95882394e-08
      9.26147823e-06 2.25508018e-04 2.25419251e-04 0. 4.42811597e-06 0.
      0. 0. 0. 0. 0. 0. 0. 0. 0. 8.58238593e-07 -2.95882394e-08
      2.71050543e-20 8.87826843e-07 -5.91764788e-08 2.25419251e-04
      2.25537602e-04 1.77565369e-06 8.95172263e-07 0. 0. 0. 0. 0. 0. 0.
      0. 0. 0. 0. -3.43295437e-06 2.95882394e-08 8.28650343e-07 0.
      1.65730069e-06 -2.57471584e-06 0. -9.17415093e-07 0.
      8.84154133e-07 0. 0. 0. 0. 0. 0. 0. 0. 0. 0. 0. 0. 0. 0. 0. 0. 0.
      0. 0. 0. 0. 0. 0. 0. 0. 0. 0. 0. 0. 0. 0. 0. 0. 0. 0. 0. 0. 0. 0.
      0. 0. 0. 0. 0. 0. 0. 0. 0. 0. 0. 0. 0. 0. 0. 0. 0. 0. 0. 0. 0. 0.
      0. 0. 0. 0. 0. 0. 0. 0. 0. 0. 0. 0. 0. 0. 0. 0. 0. 0. 0. 0. 0. 0.
      0. 0. 0. 0. 0. 0. 0. 0. 0. 0. 0. 0. 0. 0. 0. 0. 0. 0. 0. 0. 0. 0.
      0. 0. 0. 0. 0. 0. 0. 0. 0. 0. 0. 0. 0. 0. 0. 0. 0. 0. 0. 0. 0. 0.
      0. 0. 0.</_>
    <_>
      -2.99385761e-07 7.75574335e-07 -2.54076649e-09 -2.86459181e-06
      -1.70676373e-07 -5.08153297e-09 -1.38897747e-06 1.11692714e-06
      -3.94510721e-07 1.59057493e-06 0. 0. 0. 0. 0. 0. 0. 0. 0. 0.
      -3.82396365e-06 2.81463086e-04 2.84021109e-04 8.46872281e-05
      9.65963864e-07 2.96845002e-07 -1.91475533e-06 2.02946729e-04
      2.84816400e-04 4.07042762e-07 0. 0. 0. 0. 0. 0. 0. 0. 0. 0.
      -8.36209495e-07 2.83870148e-04 3.81739919e-05 -2.22877270e-06
      -3.01926519e-07 -1.68135600e-07 8.13151629e-20 -1.71420277e-06
      -8.12956932e-05 0. 0. 0. 0. 0. 0. 0. 0. 0. 0. 0. -3.97643726e-06
      -2.00261478e-04 -2.84813868e-04 -7.99883928e-05 -1.70676373e-07
      2.84519570e-04 8.08986370e-05 -2.82904191e-04 -1.80390751e-04
      -1.57804288e-06 0. 0. 0. 0. 0. 0. 0. 0. 0. 0. 1.76379206e-06
      -2.02946729e-04 -2.84645736e-04 -8.20181085e-05 2.84475042e-04
      2.84668000e-04 -2.02968979e-04 -2.83551053e-04 -8.09011763e-05
      -6.43279293e-07 0. 0. 0. 0. 0. 0. 0. 0. 0. 0. -1.48422501e-07
      -1.98338210e-04 -2.82604800e-04 -2.84813868e-04 2.03310337e-04
      2.81869987e-04 -2.02946729e-04 -2.84808775e-04 -8.16964675e-05
      1.77273841e-06 0. 0. 0. 0. 0. 0. 0. 0. 0. 0. 4.46008607e-06
      -2.96845002e-07 -2.01358693e-04 7.86620205e-07 1.59057493e-06
      6.15943861e-07 3.48975021e-07 -8.17212640e-05 -3.94510721e-07
      -3.21639646e-07 0. 0. 0. 0. 0. 0. 0. 0. 0. 0. 0. -2.54076649e-09
      -1.99447517e-04 -2.84816400e-04 3.43893504e-07 -1.43856676e-06
      9.46250736e-07 1.70676373e-07 -8.20181085e-05 2.23385427e-06 0. 0.
      0. 0. 0. 0. 0. 0. 0. 0. 0. -1.96267414e-04 -2.83844187e-04
      -8.15060775e-05 -1.13664021e-06 -9.46250736e-07 8.15652165e-05
      1.34702748e-06 8.13151629e-20 -8.16964675e-05 0. 0. 0. 0. 0. 0. 0.
      0. 0. 0. -3.88244700e-07 -2.84133712e-04 -2.83147732e-04
      -8.18671397e-05 -3.87329663e-07 5.71453086e-07 2.84475042e-04
      7.97842513e-05 -7.22416360e-07 -8.12956932e-05 0. 0. 0. 0. 0. 0.
      0. 0. 0. 0. -8.47400543e-07 8.46809635e-05 1.70676373e-07
      -8.25906027e-05 -1.72900616e-06 -1.14290617e-06 8.24188828e-05
      -1.11692714e-06 8.13151629e-20 -8.13748266e-05 0. 0. 0. 0. 0. 0.
      0. 0. 0. 0. -1.90389471e-07 8.22616566e-05 -2.60865181e-06
      1.20233017e-06 1.72900616e-06 9.46250736e-07 -1.11692714e-06
      -1.76942393e-07 -8.13748266e-05 4.79913865e-07 0. 0. 0. 0. 0. 0.
      0. 0. 0. 0. 8.15000533e-07 -1.07721621e-06 1.84834527e-04
      4.51005180e-05 -3.18010484e-06 1.52488485e-06 4.00776742e-07
      -8.02641662e-05 2.16724902e-06 0. 0. 0. 0. 0. 0. 0. 0. 0. 0. 0.
      -4.00776742e-07 6.24611118e-07 -7.81840356e-07 -1.18979813e-06
      3.18010484e-06 -1.35420851e-06 -1.42511965e-06 3.27905667e-07
      -4.00776742e-07 -1.28655859e-06 0. 0. 0. 0. 0. 0. 0. 0. 0. 0. 0.
      0. 0. 0. 0. 0. 0. 0. 0. 0. 0. 0. 0. 0. 0. 0. 0. 0. 0. 0. 0. 0. 0.
      0. 0. 0. 0. 0. 0. 0. 0. 0. 0. 0. 0. 0. 0. 0. 0. 0. 0. 0. 0. 0. 0.
      0. 0. 0. 0. 0. 0. 0. 0. 0. 0. 0. 0. 0. 0. 0. 0. 0. 0. 0. 0. 0. 0.
      0. 0. 0. 0. 0. 0. 0. 0. 0. 0. 0. 0. 0. 0. 0. 0. 0. 0. 0. 0. 0. 0.
      0. 0. 0. 0. 0. 0. 0. 0. 0. 0. 0. 0. 0. 0. 0. 0. 0. 0. 0. 0. 0. 0.
      0. 0. 0. 0. 0. 0. 0. 0. 0.</_>
    <_>
      -6.21689253e-07 6.26307951e-07 0. -6.35545291e-07 0.
      -3.10844626e-07 -9.37152549e-07 3.15463296e-07 0. 6.26307951e-07
      0. 0. 0. 0. 0. 0. 0. 0. 0. 0. -3.15463296e-07 1.57203292e-04
      1.59708521e-04 6.26307951e-07 6.30926593e-07 -1.08420217e-19
      1.55884186e-06 1.59393065e-04 1.59708521e-04 1.25261590e-06 0. 0.
      0. 0. 0. 0. 0. 0. 0. 0. -9.37152549e-07 8.07539836e-05
      -3.15463296e-07 -1.25261590e-06 -9.41771248e-07 6.30926593e-07
      -1.08420217e-19 -6.21689253e-07 6.26307951e-07 -1.25261590e-06 0.
      0. 0. 0. 0. 0. 0. 0. 0. 0. 0. -1.59082221e-04 -1.56869355e-04
      3.10844626e-07 -6.26307951e-07 1.59708521e-04 -6.26307951e-07
      -1.58460520e-04 -1.59082221e-04 0. 0. 0. 0. 0. 0. 0. 0. 0. 0. 0.
      9.41771248e-07 -1.59708521e-04 -1.58775991e-04 0. 1.59708521e-04
      1.59708521e-04 -7.95808446e-05 -1.58771363e-04 -1.57203292e-04
      -2.50523181e-06 0. 0. 0. 0. 0. 0. 0. 0. 0. 0. 0. -1.57203292e-04
      -1.59082221e-04 -3.10844626e-07 1.59082221e-04 1.57514136e-04
      -1.59397678e-04 -1.59393065e-04 -1.59708521e-04 1.25261590e-06 0.
      0. 0. 0. 0. 0. 0. 0. 0. 0. 1.26185319e-06 -1.59086834e-04
      -1.59082221e-04 1.59708521e-04 1.59077594e-04 1.58149676e-04
      2.18976834e-06 -1.59708521e-04 -1.59708521e-04 0. 0. 0. 0. 0. 0.
      0. 0. 0. 0. 0. 0. -1.59708521e-04 -1.57829592e-04 -1.59708521e-04
      6.30926593e-07 -3.20081966e-07 -1.08420217e-19 6.30926593e-07
      -1.59708521e-04 1.25261590e-06 0. 0. 0. 0. 0. 0. 0. 0. 0. 0. 0.
      3.75784748e-06 -1.59708521e-04 -1.59708521e-04 -1.59082221e-04
      -1.59082221e-04 -1.08420217e-19 6.26307951e-07 1.59708521e-04 0.
      0. 0. 0. 0. 0. 0. 0. 0. 0. 0. 6.26307951e-07 -1.25261590e-06
      6.26307951e-07 0. -6.26307951e-07 -3.17637355e-22 2.50523181e-06
      -1.25261590e-06 1.59705931e-04 2.59036481e-09 0. 0. 0. 0. 0. 0. 0.
      0. 0. 0. 0. 1.59708521e-04 1.57829592e-04 0. 0. -1.59708521e-04
      6.26307951e-07 1.58455907e-04 6.60543037e-07 0. 0. 0. 0. 0. 0. 0.
      0. 0. 0. 0. -3.17637355e-22 1.59708521e-04 1.57829592e-04
      1.25261590e-06 -1.08420217e-19 -1.08420217e-19 1.59082221e-04
      1.59082221e-04 0. 3.12376847e-06 0. 0. 0. 0. 0. 0. 0. 0. 0. 0.
      6.26307951e-07 -6.26307951e-07 -1.08420217e-19 -1.08420217e-19
      -1.25261590e-06 1.59708521e-04 1.59708521e-04 6.26307951e-07
      6.31488660e-07 0. 0. 0. 0. 0. 0. 0. 0. 0. 0. 0. 0. -1.25261590e-06
      6.26307951e-07 -1.25261590e-06 1.25261590e-06 0. 0. 6.26307951e-07
      0. 6.23717540e-07 0. 0. 0. 0. 0. 0. 0. 0. 0. 0. 0. 0. 0. 0. 0. 0.
      0. 0. 0. 0. 0. 0. 0. 0. 0. 0. 0. 0. 0. 0. 0. 0. 0. 0. 0. 0. 0. 0.
      0. 0. 0. 0. 0. 0. 0. 0. 0. 0. 0. 0. 0. 0. 0. 0. 0. 0. 0. 0. 0. 0.
      0. 0. 0. 0. 0. 0. 0. 0. 0. 0. 0. 0. 0. 0. 0. 0. 0. 0. 0. 0. 0. 0.
      0. 0. 0. 0. 0. 0. 0. 0. 0. 0. 0. 0. 0. 0. 0. 0. 0. 0. 0. 0. 0. 0.
